3312 128
390 0.093046 -0.224325 -0.057933 0.098871 -0.017523 -0.176980 -0.008925 0.134580 -0.031016 -0.007235 0.203616 -0.316595 -0.394861 0.252532 -0.044773 0.330446 -0.015856 -0.090617 0.077466 0.065594 -0.210580 0.060456 0.088631 0.108802 -0.214308 0.144329 0.164152 -0.010219 -0.133950 0.372394 -0.159595 0.205038 0.082524 0.081059 -0.029224 0.056981 0.341193 0.021775 -0.438369 0.373610 0.121360 -0.273949 0.432010 0.071698 0.464426 -0.066989 0.009680 -0.043802 0.115466 0.144132 0.174970 -0.477723 -0.002839 -0.232771 -0.020742 -0.545163 0.032056 0.065673 -0.245514 -0.247380 -0.041657 0.281561 0.061339 0.156258 0.230824 -0.064141 -0.002482 0.118546 -0.253437 0.235853 0.079545 0.189054 0.382223 -0.339392 0.065393 -0.239915 0.013678 -0.133978 0.131933 0.072154 0.287989 -0.159378 -0.397007 0.102817 -0.293402 -0.207552 0.350871 -0.017616 0.151412 0.129313 -0.024757 0.277778 0.044178 -0.286071 -0.526873 -0.050267 0.209702 -0.044233 -0.202962 0.094736 0.170097 0.348695 0.579865 -0.356711 0.119489 -0.047197 0.015048 -0.430987 0.174209 0.361882 0.480205 0.027899 -0.032376 0.342057 0.154504 0.041116 0.003721 -0.061189 0.029521 -0.122762 0.157472 -0.220630 -0.142491 -0.125110 -0.049002 -0.112078 0.445979 -0.178314
847 0.102574 0.125465 0.009133 0.018404 -0.404622 0.049863 0.012009 0.091240 0.206645 0.071264 0.386127 0.229148 -0.052725 0.139647 0.315856 -0.240579 -0.394566 -0.385784 0.029684 -0.064658 0.251175 0.109723 -0.073884 -0.345924 -0.405636 -0.330796 0.337213 0.162711 -0.317373 -0.438064 0.314737 -0.478804 0.063525 -0.061506 -0.119615 -0.031849 -0.102519 -0.267281 0.272933 0.049065 0.262930 0.067828 0.407353 0.160261 0.160351 0.134055 -0.376520 0.295729 -0.285145 0.417000 -0.058560 -0.008156 0.394954 -0.373231 0.262202 -0.183920 -0.133891 -0.122811 0.206937 -0.182415 -0.600872 0.407399 -0.152783 -0.167601 0.261883 0.193381 0.727227 -0.006288 -0.015861 0.652485 0.033718 0.268918 0.228068 -0.055728 0.340065 0.059169 -0.265438 0.267785 0.002872 0.489934 0.288124 -0.035081 0.125977 -0.079911 0.216803 -0.341621 -0.168377 -0.073715 -0.088413 0.289604 -0.255232 -0.360879 0.115466 0.034980 -0.031760 0.268344 0.001528 -0.172517 -0.129497 -0.132946 0.140010 0.245231 -0.108114 0.216646 0.267761 0.178716 0.056786 -0.279773 -0.241044 -0.000961 0.131981 -0.373775 0.253420 0.585483 0.274954 -0.123058 -0.217834 -0.253535 0.372697 -0.100200 -0.009414 -0.207125 0.187776 0.295215 -0.009032 0.055701 0.104179 0.734925
1918 -0.077066 -0.041455 -0.128866 0.146454 -0.863973 -0.330334 0.153104 0.349351 -0.332475 0.036929 -0.749243 -0.263219 -0.099025 -0.479887 0.271284 0.025119 0.708526 -0.040549 0.132846 0.090719 0.001384 0.156002 -0.472787 0.435780 -0.021700 0.551305 0.510359 -0.295312 0.648979 0.088559 0.560457 -0.079710 -0.187824 0.304513 -0.190542 0.109195 -0.069167 0.400416 -0.368829 0.250674 0.743366 -0.409934 0.329328 -0.327043 0.011822 0.242919 0.387816 0.438079 -0.233744 -0.160649 0.205752 0.313328 -0.429837 0.503513 0.787202 -0.334472 -0.325505 -0.509892 -0.324209 -0.814220 -1.050422 0.321039 -0.104866 -0.245432 0.268642 -0.177589 0.179457 0.306144 -0.386898 -0.312516 0.600832 0.327858 0.247172 0.663029 0.582516 0.566914 -0.112330 0.421553 -0.645138 0.064013 -0.126528 -0.144092 0.184139 -0.792301 0.014764 0.137849 -0.066336 0.267188 0.610041 -0.430615 0.056688 -0.554754 0.280421 0.066497 -0.218331 0.250879 -0.519812 0.551062 -0.202892 -0.223718 0.117446 0.224549 0.210904 0.338762 0.069604 0.125627 0.495923 -0.243627 0.341501 0.312140 -0.124699 -0.190221 0.512588 -0.046783 0.246133 -0.136457 -0.304480 0.304292 0.228258 -0.079536 -0.287457 -0.772993 -0.539574 -0.310681 -0.378197 -0.145033 0.537467 -0.537586
643 -0.415995 0.426912 0.383369 0.254846 -0.371018 0.176414 -0.222934 -0.305546 -0.169778 0.357134 0.349745 -0.418101 -0.095339 -0.025064 0.374169 0.028758 0.008831 -0.455340 -0.181839 0.145012 0.211124 -0.011473 -0.465624 -0.200384 -0.052641 -0.320371 0.335955 0.101325 -0.015714 -0.098607 0.001039 -0.518447 0.121286 0.063295 0.028677 0.167594 -0.135713 -0.193043 0.099679 0.122661 0.432823 -0.260063 0.410282 -0.388049 -0.218994 0.146759 -0.052744 0.103804 0.134359 -0.106065 0.074430 -0.080482 0.503168 0.003306 -0.159828 -0.008792 -0.568909 0.201479 -0.325749 0.161897 -0.149102 0.170943 -0.353512 0.204268 0.337884 0.204703 0.223147 -0.075013 0.061956 0.551369 0.269761 0.272065 0.159343 -0.439255 0.255726 -0.021488 0.195145 0.260397 0.153802 0.139066 0.395360 -0.454755 -0.127167 0.306652 0.450222 -0.173445 -0.001461 -0.252696 -0.022070 -0.347654 0.195437 -0.732826 0.180275 -0.516195 -0.465792 0.001722 -0.124912 0.357420 0.534846 0.002185 0.088175 0.159392 -0.383902 0.708563 0.355008 -0.327000 -0.279836 0.013217 -0.056106 0.006965 0.558439 -0.248917 -0.436945 0.135558 0.353354 0.104236 -0.237131 0.032731 0.076521 -0.029675 -0.007133 -0.454457 -0.619708 0.130976 -0.011594 0.596057 0.071847 0.393008
471 0.393900 -0.058859 -0.307300 0.019543 -0.025128 -0.141827 0.017665 0.366270 -0.460639 0.298963 -0.311925 -0.098601 -0.613363 0.073192 -0.013879 0.067105 0.143125 0.097868 0.237085 -0.075333 0.086503 -0.236799 0.213896 -0.132049 -0.664836 0.249671 0.526089 0.266872 -0.354864 0.136734 -0.351760 0.147760 -0.224128 -0.256601 -0.456257 0.014368 -0.439646 0.071911 0.126995 -0.038023 -0.084783 -0.387186 0.225205 0.273269 0.451974 0.073035 0.003145 0.147913 -0.193822 -0.323837 0.056292 0.052432 -0.075882 -0.634019 0.370831 -0.265264 0.094890 0.105116 0.075309 -0.321745 -0.042704 -0.089627 0.034850 -0.143211 -0.102545 -0.167843 -0.235938 0.124561 -0.494750 0.137546 0.126545 0.199096 0.151492 -0.271276 0.011271 -0.462074 0.053303 -0.119346 0.139642 0.282049 -0.091691 -0.068908 -0.401696 0.499228 0.149303 -0.191629 -0.209946 0.184975 0.251700 0.019104 0.172075 -0.339639 0.196492 -0.386663 -0.565214 0.023441 0.160444 0.298763 -0.221209 0.075562 0.002250 0.535965 -0.145952 -0.088581 0.380970 -0.089486 0.106190 0.151543 0.518341 -0.191481 -0.062547 0.046381 -0.174651 -0.025447 -0.012644 0.048570 -0.185673 0.309705 0.236970 -0.063008 -0.186359 -0.427464 0.014381 -0.011852 0.220250 -0.037088 0.420447 -0.302403
661 0.123564 0.189447 0.377368 0.468476 0.122527 0.289402 -0.306054 -0.288998 -0.312081 -0.477582 0.718383 -0.352050 0.048464 -0.251365 0.206109 0.215662 -0.244547 -0.473890 0.063624 -0.033572 0.421885 -0.193817 0.045931 -0.010452 -0.091722 -0.586150 -0.116758 0.081300 -0.266600 -0.122207 0.409596 -0.274800 -0.294641 0.459293 0.079582 0.075642 0.611211 0.570846 0.143784 -0.186061 0.264803 -0.384720 0.449878 -0.037970 -0.106943 -0.162221 -0.175809 0.195487 -0.036257 -0.286685 0.129892 -0.070319 0.363475 -0.142704 0.089004 -0.007014 -0.237720 0.229481 -0.108169 -0.039840 -0.556999 -0.271418 -0.342740 -0.160473 0.470459 0.135353 0.451837 0.364177 0.185014 0.401893 0.288647 0.300951 0.409763 -0.536631 0.799942 0.223252 -0.300600 0.003231 -0.684434 -0.037552 0.419454 0.270241 -0.031987 -0.154974 0.014373 0.027162 0.302446 0.143299 -0.133210 0.027977 0.326973 -0.810915 -0.068752 -0.121095 -0.290055 0.776472 0.047474 0.018748 0.247779 0.330741 -0.266358 -0.077237 -0.237043 0.265492 0.697620 -0.383034 -0.281359 -0.064996 -0.030425 0.073765 0.751542 0.053947 -0.547562 0.074281 0.134988 0.435720 -0.800485 -0.206958 0.458420 -0.275234 0.390255 -0.431553 -0.188267 0.317032 0.158528 0.473403 0.417564 0.587429
439 -0.189690 -0.110317 -0.266113 0.307575 -0.043395 0.381267 -0.159262 0.146117 0.181656 0.174830 -0.032163 -0.349321 -0.191758 0.165528 0.046942 0.364120 0.053057 0.069386 -0.081658 -0.040377 -0.193950 0.291340 0.164683 0.114718 -0.294311 0.228891 0.363074 -0.264802 -0.233990 0.285752 -0.179538 0.165363 -0.009052 0.315500 0.087109 0.130956 0.030785 0.256733 -0.281950 0.524504 0.263745 -0.138034 0.265541 -0.223932 0.607798 0.103170 0.208720 0.338033 -0.044896 0.065792 -0.225263 -0.390614 -0.010455 -0.470016 0.281252 -0.258956 0.185110 0.146236 0.056133 -0.163775 -0.029248 0.280862 -0.257444 0.095416 0.181133 -0.056641 -0.189112 0.030165 0.011519 0.053001 0.166318 0.140500 0.125080 -0.718902 0.434384 -0.354526 0.160519 -0.070161 0.109258 0.494051 0.121928 -0.263811 -0.012832 0.196890 -0.392197 -0.622386 0.479466 0.169399 0.119924 0.370500 -0.236671 0.278458 0.202213 -0.594453 -0.296264 -0.161449 0.049001 -0.093371 -0.306012 0.053096 0.130028 0.544227 0.593864 -0.231934 0.492572 0.004336 0.012989 -0.012790 0.461711 -0.026171 0.554894 0.183923 -0.295105 0.299985 0.320176 0.083999 -0.110611 0.061233 -0.113721 -0.357041 -0.083885 -0.242738 0.212277 -0.000721 -0.099025 -0.085394 0.096093 0.042080
364 0.020239 -0.203019 0.020671 0.446003 0.095334 -0.076439 0.086277 -0.005956 0.088209 0.364332 -0.053738 -0.418744 -0.108141 0.257152 0.222240 0.260558 0.125286 0.030540 -0.054981 -0.061141 -0.188288 -0.240264 0.469165 0.382626 0.020790 0.159040 0.275037 -0.137811 -0.148707 0.082697 0.011856 0.222414 0.089719 0.301941 0.255812 0.209463 0.043632 0.038441 -0.149137 0.374052 0.426470 -0.313737 0.081567 0.183461 0.639144 -0.172637 0.213716 -0.192389 0.272917 0.154615 -0.056283 -0.451532 0.021471 -0.350812 0.160006 -0.447307 0.223196 -0.066412 0.127309 -0.028511 -0.099941 0.229158 -0.105849 0.227320 0.183685 -0.115934 -0.128421 -0.338598 -0.059494 0.179766 -0.007617 0.089060 0.219438 -0.472328 0.399540 -0.147648 -0.043416 0.008762 0.121792 0.285715 0.315714 -0.237457 -0.295209 0.012673 -0.193029 -0.714540 0.388102 0.176599 -0.251476 0.005856 -0.101648 0.458375 0.216531 -0.495860 -0.437276 -0.163841 0.333709 0.122372 -0.295000 -0.127733 0.191868 0.564011 0.686968 -0.141808 0.396310 0.157718 -0.016902 -0.177179 0.387317 -0.139111 0.417551 0.297198 -0.175810 0.213525 0.142857 0.316545 -0.195690 0.125970 0.190089 -0.393298 -0.253186 0.024958 -0.061580 0.225774 -0.135940 -0.159381 0.221269 -0.190267
1406 -0.444075 -0.543063 -0.333686 -0.030784 0.124407 0.531432 -0.546857 0.868490 0.517946 -0.162405 -0.131140 0.244512 -0.119273 -0.240087 -0.051913 -0.319363 0.112070 0.018442 -0.084155 0.049123 -0.205990 -0.856186 0.595759 -0.313146 -0.013839 0.273010 0.081068 0.532799 0.029242 0.054060 0.425394 0.029192 0.214656 -0.214018 0.318007 0.310016 0.678231 -0.107682 0.167345 0.143772 0.459066 0.398628 0.008903 0.400649 0.373179 -0.010626 0.376570 0.165854 -0.037034 0.040028 0.479277 -0.855810 0.322443 0.103104 -0.138359 0.010655 -0.240317 -0.201041 -0.313485 -0.384270 -0.109596 -0.507206 -0.086951 -0.406955 0.879147 0.308982 -0.469094 -0.002626 -0.460528 -0.264765 0.671002 -0.295966 0.285662 0.093618 -0.469810 0.277594 0.060780 0.964157 -0.135013 0.607342 0.297695 0.021730 -0.289678 -0.224137 -0.374998 -0.014750 0.811504 0.217879 0.245948 0.025678 -0.374280 -0.455379 0.519707 -0.388261 -1.072865 0.041430 -0.264541 0.202211 -1.025590 0.009844 -0.234365 -0.363498 -0.839445 0.475280 -0.042936 -0.028132 0.088340 -0.306865 0.105771 -0.496562 0.582335 -0.237461 0.412979 -0.173183 -0.221912 0.200782 -0.168568 0.184373 0.160310 -0.002054 -0.455824 -0.440910 0.127668 0.006657 -0.672786 -0.242983 0.537058 0.180463
291 0.278626 -0.471775 0.158165 0.313405 -0.446470 -0.377151 -0.062161 0.147041 -0.091767 0.503490 -0.206206 -0.565343 -0.344182 0.409442 0.109360 -0.059362 0.149419 0.001055 0.061436 -0.354656 -0.126450 -0.327703 0.343751 0.285587 -0.048214 -0.084124 0.437445 -0.128150 -0.066845 0.218996 -0.126069 0.145951 0.082348 0.035608 0.209624 0.173171 0.046779 0.208634 -0.394044 0.266321 -0.117692 -0.003034 0.164995 0.284927 0.346397 0.148759 -0.284908 0.270504 -0.357987 0.057281 -0.060386 -0.287575 0.116975 -0.149403 -0.250697 -0.462197 -0.301187 0.262722 0.131390 0.015573 -0.292447 0.182871 -0.109888 -0.316873 -0.057616 -0.104806 0.187774 0.185596 -0.009473 -0.029124 -0.117828 -0.248944 0.193539 -0.404465 0.479660 -0.142859 -0.411055 0.008846 0.249596 0.613326 0.436936 -0.332525 -0.119069 0.066883 -0.258854 0.040995 0.136112 -0.082496 0.106469 0.160702 -0.133656 0.430489 -0.117072 -0.572676 -0.607121 -0.119099 0.296180 0.038976 -0.326252 0.316987 0.098875 -0.142975 0.482841 -0.404575 0.011067 0.118268 -0.197298 -0.235075 0.492873 -0.176417 0.408385 0.281685 -0.021918 0.124146 -0.007612 0.111485 0.038262 0.105796 -0.009802 -0.124663 -0.002339 -0.352642 0.079558 0.235527 -0.445774 -0.104915 0.109056 -0.275364
488 -0.148985 -0.073016 -0.098670 0.512743 -0.673120 0.074324 0.837854 0.096853 0.097288 0.527675 -0.201782 -0.019031 0.045470 0.586024 0.600277 0.033720 -0.078224 0.522335 -0.166538 0.114566 -0.259025 -0.975146 -0.557793 -0.144031 -0.226248 -0.330340 0.733664 0.443018 -0.138875 -0.252144 -0.382926 -0.459496 0.002662 0.151342 -0.434059 0.267927 0.433962 0.323058 -0.251630 0.559765 0.053501 -0.476899 0.930140 -0.050184 -0.309742 -0.133257 -0.385093 0.279557 0.355556 0.295164 -0.582131 -0.175333 0.534853 0.313024 -0.038805 0.407635 -0.534409 -0.149250 -0.176790 -0.673048 -0.247514 -0.172963 -0.184441 -0.152363 0.279930 -0.130231 -0.135476 0.036522 -0.228396 0.595158 0.059253 0.468161 0.222836 -0.843933 -0.097884 0.367682 -0.539743 0.688328 -0.269945 -0.157142 -0.066049 -0.179652 0.042184 -0.132804 0.595278 0.017533 -0.413816 0.003216 -0.427853 -0.789467 -0.205789 -0.522145 0.666025 -0.190929 -0.902249 0.381237 -0.273880 0.049019 0.048457 0.387415 0.116840 0.476322 -0.284176 0.436716 -0.210835 -0.001807 -0.170505 -0.232701 -0.444380 0.000313 0.432673 0.189246 -0.193427 0.085328 -0.116681 0.141766 -0.559550 0.261250 0.612932 0.229425 0.034193 -0.355365 -0.372669 -0.185103 0.104671 0.151972 -0.409753 0.784644
905 0.230942 -0.126040 -0.229348 -0.045299 0.091035 -0.270601 -0.620480 -0.188667 0.023557 0.491796 -0.240216 -0.428080 -0.249203 0.179578 -0.032841 -0.184167 -0.519577 0.116121 0.043480 -0.329511 -0.050331 -0.014226 0.127020 0.245982 -0.018555 0.373883 0.674935 0.141233 0.091995 0.699716 -0.128092 -0.052533 0.006086 0.073000 0.150345 0.238905 -0.164222 0.307191 0.028968 0.071770 0.053153 -0.209578 0.337562 0.295722 -0.031386 -0.110022 0.063466 0.131917 -0.200311 -0.056514 0.059744 0.156550 0.367483 -0.318381 0.239672 -0.478904 0.237746 0.256128 -0.044413 -0.300978 0.062213 0.123399 0.112688 -0.015273 0.003596 -0.456908 -0.265548 0.239587 0.117347 0.317269 0.130644 -0.112712 0.120041 0.075617 0.409265 -0.145785 0.055537 0.120736 0.275764 0.145397 -0.013523 0.052345 -0.361216 -0.139256 0.002820 0.564311 0.068315 0.134012 -0.041978 -0.108812 0.050779 0.038312 0.323005 -0.371115 -0.282842 -0.406902 -0.131734 0.406263 -0.513269 0.228900 0.042823 0.150033 -0.354125 -0.134611 0.375241 0.051156 -0.282178 -0.167214 0.409033 0.020827 0.721785 -0.261513 -0.057200 0.599213 -0.098876 -0.024720 -0.263687 0.363398 0.592665 -0.585617 0.362656 -0.306531 0.110663 -0.158822 -0.034897 -0.430676 -0.025650 0.064461
2049 -0.695111 0.077548 -0.230645 0.066287 -0.677718 -0.075329 0.223645 -0.019986 -0.279477 0.021317 -0.208898 -0.039018 -0.589866 -0.070368 -0.417519 -0.193426 -0.193390 -0.162854 -0.258051 -0.271722 -0.075248 -0.065776 -0.151223 0.743091 0.039515 0.401369 0.201239 -0.351690 0.190702 0.091851 0.210311 -0.191910 -0.188688 0.524508 -0.391375 -0.519085 0.028090 -0.089545 0.385003 0.524138 0.749905 -0.163404 -0.152449 0.143024 0.299602 0.130985 0.558338 0.459116 -0.167388 -0.327359 -0.217384 0.035624 0.194102 0.506984 0.829569 -0.849040 -0.612209 -0.167547 -0.066506 -0.595454 -0.360668 -0.054372 -0.536533 -0.304887 -0.033746 0.331964 0.352397 0.292558 -0.064166 -0.928915 -0.062574 0.654411 -0.093361 0.473913 0.068259 0.589691 -0.590807 0.685780 -0.405351 -0.329113 0.208598 0.150964 0.239106 -0.476578 0.910741 0.169027 0.262163 0.024862 0.706712 -0.310009 0.138595 0.036391 0.464399 -0.184819 0.005324 0.054855 0.395506 -0.142174 -0.468690 0.263801 0.052216 0.131890 -0.067689 0.177147 0.299945 0.058001 0.070952 -0.137168 0.220729 0.061015 0.380148 -0.025931 0.354055 -0.272962 0.083410 0.226910 -0.663033 -0.266785 0.341609 0.263682 -0.524707 -0.077046 0.058840 -0.563942 -0.050411 -0.268982 0.471935 0.112861
699 -0.153597 -0.384711 -0.452414 -0.113663 -0.069160 -0.096354 0.046550 0.045379 0.034625 0.204577 -0.119452 -0.574520 -0.289098 0.034817 -0.228265 0.173377 0.230341 -0.063346 0.118996 -0.008424 -0.004067 -0.072834 0.190392 0.089159 -0.358652 0.043853 0.397751 -0.240007 -0.238472 -0.211957 -0.063285 0.309130 -0.174755 -0.066999 0.305397 0.010639 0.265695 0.039625 -0.369404 0.496571 0.206401 -0.212665 0.408455 -0.286001 0.660917 -0.068886 -0.000295 0.182285 -0.166507 0.059620 -0.115851 -0.426543 -0.353729 -0.164969 0.144272 -0.392373 -0.149699 0.006086 -0.298900 -0.389904 -0.197639 -0.081265 0.126635 0.042577 0.164767 -0.503926 -0.113703 0.012159 -0.249250 0.167098 0.084222 0.381752 0.496356 -0.527709 0.058210 0.074622 -0.352184 -0.041806 0.418416 0.263354 -0.005768 -0.226374 -0.273141 0.168123 0.090305 -0.131383 0.162795 0.081209 0.116682 0.067442 0.289377 0.091327 0.164309 -0.357280 -0.236228 -0.310112 -0.152242 0.376058 -0.141595 0.395812 0.519418 0.321717 0.723617 -0.362941 0.334751 -0.022283 -0.001214 -0.348613 0.003309 0.399155 0.238246 -0.087621 -0.157483 0.558670 0.046470 0.170275 -0.178429 0.317579 -0.374366 -0.258058 -0.086445 -0.099951 0.375647 0.208461 0.014179 0.079729 0.136020 -0.087229
1236 0.499417 -0.178246 -0.694220 -0.563781 -0.056280 0.522493 -0.131709 -0.531126 0.356854 0.268260 -0.239717 -0.256191 -0.016476 -0.275469 0.134713 -0.200540 0.535053 -0.019042 0.543772 0.447701 -0.224791 -0.145833 0.353147 -0.285527 -0.455171 -0.181114 0.810757 0.030579 -0.258360 0.322904 -0.370409 -0.075875 -0.355601 -0.317825 -0.059889 0.072582 0.732632 -0.571623 -0.036243 0.513817 0.173957 0.116286 0.360018 0.534852 0.125839 0.315749 0.235053 -0.362457 -0.647987 0.142711 0.306962 0.264704 -0.031299 0.164175 -0.103828 -0.198202 -0.155428 -0.167778 -0.291166 -0.256287 -0.165965 0.175849 -0.444776 0.037100 -0.074949 -0.137592 0.008294 0.624665 -0.141332 -0.428257 -0.269449 -0.065491 0.570165 -0.100316 0.390569 0.031945 0.324394 0.497864 -0.085555 -0.077648 -0.013037 -0.036800 -0.257602 0.279895 -0.109650 0.226387 0.156928 0.243055 0.266556 0.115134 0.039838 0.140639 0.545436 0.623460 -0.777702 -0.219382 0.257083 -0.426469 0.243160 -0.173409 0.578518 -0.116821 0.086433 0.082358 0.255541 0.411588 -0.274167 -0.365958 -0.272223 0.177628 0.479093 -0.070350 -0.036592 -0.436932 0.624370 0.383187 0.213142 0.149049 0.366808 0.089115 0.155127 -0.326469 -0.115933 0.451654 -0.385884 0.302565 0.208109 0.557739
697 0.289821 -0.328295 -0.155511 -0.245640 -0.316560 0.221367 0.143734 0.139030 -0.310097 0.395176 -0.305494 -0.207878 -0.301986 0.153922 -0.080494 0.336265 -0.185343 0.381977 0.513251 -0.123350 0.265569 -0.127948 0.206090 0.219022 -0.403671 0.140801 0.486414 -0.231632 -0.197419 0.219562 0.106695 0.246544 0.072053 -0.088987 0.414427 0.149974 -0.064012 0.090582 -0.255051 -0.041577 0.306248 -0.056030 0.337891 0.082589 0.407759 -0.156777 0.199845 0.090778 -0.403803 -0.056615 0.058524 -0.309244 0.278886 0.059158 0.057354 -0.315253 0.049461 0.076032 -0.097825 -0.002108 -0.054693 -0.159465 -0.111458 0.072972 0.231926 -0.316368 -0.402307 0.030248 0.161240 0.379583 0.378622 0.074697 0.170845 -0.220552 0.281091 -0.251799 -0.214023 -0.157240 0.193175 0.333762 0.152062 0.113764 -0.175574 0.212841 0.212825 -0.225976 0.468790 0.025351 0.089394 -0.035020 0.347647 0.115991 0.108199 -0.424818 -0.004643 -0.253240 0.076986 0.141461 -0.355405 0.080025 0.503707 0.411276 0.628360 0.168560 0.278131 -0.173676 -0.112450 -0.278623 0.397176 0.335896 0.410946 0.077853 -0.057697 0.496724 -0.012873 -0.001443 -0.129800 0.056183 -0.275730 -0.499169 0.097585 -0.250310 0.080043 -0.010023 -0.156112 -0.283513 -0.037234 -0.194462
822 -0.196612 0.112597 -0.577261 -0.115254 -0.088529 -0.040696 -0.228019 0.344553 -0.530740 0.302354 0.312997 0.415239 -0.029913 -0.455771 0.390838 -0.229698 -0.125361 0.654488 0.221369 -0.065788 0.146977 0.500173 -0.031505 -0.007540 -0.046292 -0.573381 0.303169 -0.127753 0.005975 -0.650933 -0.072813 -0.216196 0.076617 0.015769 0.064376 -0.041413 0.378934 -0.092054 0.259350 0.179832 -0.102073 0.153716 0.227468 0.191274 0.443247 -0.634661 -0.232646 0.224734 -0.073310 -0.316286 0.247050 0.107544 0.413412 -0.435721 0.072843 -0.377411 -0.269460 0.174725 0.353692 -0.523606 -0.464774 -0.033657 0.362270 0.256692 0.103282 0.304009 0.460906 0.387552 -0.379406 -0.077758 0.054024 0.318255 0.433408 0.331130 0.530335 0.463291 -0.397498 0.204810 -0.463099 0.939938 0.138662 0.031232 -0.310498 -0.467240 0.503773 -0.665262 -0.126859 -0.219449 -0.069636 0.240516 -0.417823 -0.216696 0.482544 -0.509314 -0.276702 0.164223 0.503082 0.301459 -0.206350 0.260818 -0.180247 -0.423889 -0.142050 0.814353 0.207592 -0.259796 0.376398 0.163983 -0.325933 0.308350 0.646098 0.080019 0.016790 0.446513 -0.031067 -0.537174 0.450083 -0.419578 0.151846 0.028290 -0.065372 0.127235 -0.689361 0.289842 -0.322492 -0.176866 -0.294388 0.452275
1101 -0.276204 0.211480 0.056126 0.187117 -0.036252 0.257424 0.052444 0.350127 0.327231 0.706870 0.384200 -0.296799 -1.263390 -0.530452 0.275198 -0.937847 -0.716187 -0.542525 -0.138851 0.221642 0.288454 -0.155688 0.408725 -0.069656 0.136594 0.156396 0.333742 0.075036 -0.859802 1.033164 0.243180 -0.217996 -0.390870 0.367484 -0.104027 -0.033283 -0.109442 -1.106562 0.071810 0.274390 0.217227 -0.249496 0.162037 -0.338318 0.551117 0.003251 0.253769 -0.014703 -0.191151 0.244578 0.628763 0.290300 0.190986 0.360303 0.828571 0.047141 -0.409419 1.287095 -0.836800 -1.143099 -0.450090 0.540006 -0.644578 0.062406 0.370436 -0.253488 -0.134666 -0.160122 0.411796 -0.353905 0.082231 0.378459 0.879021 -0.055038 1.235841 0.956586 -0.470737 0.370028 0.098540 0.450390 0.064657 -0.071156 -0.506385 0.213365 -0.424554 0.043434 0.062693 0.178628 0.535883 -0.279898 -0.112527 -0.409151 0.250266 -0.062864 -0.320249 0.755160 0.591626 -0.280692 -0.508350 0.207378 0.653308 -0.158101 -0.895945 -0.471153 -0.326054 -0.379644 -0.179773 -1.045326 -0.017467 0.534966 0.184974 0.709834 0.058194 -0.839859 -0.402859 -0.640134 -0.118374 0.220330 0.506435 -0.700591 0.222503 -0.328848 0.954693 0.426557 -0.305207 -0.222377 -0.561302 -0.550712
2955 -0.215036 -0.162657 -0.217993 -0.333829 -0.584948 0.308837 0.382463 0.064045 -0.137627 0.471335 0.226241 -0.303797 -0.588212 0.133208 0.257157 0.206417 0.351833 0.025117 0.371779 0.331205 0.060761 -0.786562 0.312651 -0.170276 0.803523 -0.364778 0.360564 0.127547 -0.604920 0.271110 -0.498767 0.444973 -0.797201 -0.487640 0.382084 -0.010432 -0.179783 0.302023 -0.014790 0.500550 -0.794208 0.362357 0.574344 -0.076166 0.996216 0.082733 0.733596 -0.522271 -0.622157 1.158657 0.363142 -0.468358 -0.113178 -0.619553 1.042475 0.272921 -0.030954 0.947816 0.524116 -1.112513 -0.537223 0.472963 -0.516963 0.650483 1.444574 0.139605 0.538852 -0.318132 -1.080224 -0.711549 0.989679 -0.448838 0.031521 0.441449 1.056583 0.203888 0.895174 -0.583336 0.067723 0.232118 -0.252451 0.065973 -0.038419 0.007803 1.093565 -0.736836 -0.258592 -0.225970 0.719652 -0.297969 0.124874 0.081155 -0.510650 0.386396 -0.349948 0.401084 -0.096714 -0.175693 0.344567 1.002373 -0.033162 -0.064503 -0.857020 1.051504 0.083575 0.382195 0.035008 -0.319746 0.478939 -0.151261 -0.097539 -0.578223 0.558059 0.624812 -0.713254 -0.356772 0.181266 -0.138979 0.694844 -0.084311 -0.047563 0.018891 -0.249531 0.675285 -0.343802 -0.315549 0.722877 0.132834
732 0.121594 -0.145514 -0.331420 0.073569 0.032225 -0.176635 -0.537725 0.084325 -0.040900 0.281061 -0.072010 -0.079749 -0.245156 -0.079884 -0.423560 0.232011 0.186493 0.190614 0.334256 -0.176093 0.063891 -0.627352 0.182571 0.035821 0.278951 0.443213 0.337172 0.136401 -0.217473 0.261397 -0.194199 0.058836 -0.256658 -0.019701 0.109911 0.181030 0.099129 0.172425 0.618431 -0.096644 0.122970 -0.270725 0.434380 -0.003472 0.240562 0.353200 0.131872 -0.279956 -0.119823 -0.329162 0.420737 -0.141641 0.086300 -0.467964 0.022140 -0.160510 -0.269926 0.006664 0.137053 -0.461221 -0.205749 0.240252 0.154515 -0.187824 -0.026415 -0.201426 0.002062 0.282763 -0.162016 0.370391 0.079352 0.055870 0.173113 -0.345262 0.059120 -0.143842 0.398733 0.215161 0.056134 0.081475 -0.373586 -0.198643 -0.262230 0.206099 0.394527 0.242219 -0.205967 0.115633 0.315038 -0.260161 0.187808 -0.486259 0.286021 -0.342221 -0.050382 0.001178 -0.034308 0.092901 -0.476504 0.364511 -0.217208 0.418626 -0.247176 -0.228674 0.074231 0.325698 -0.173744 -0.215010 0.333947 -0.107159 0.581423 -0.142517 -0.375142 0.386727 -0.125829 -0.124949 0.026520 0.246742 0.292771 -0.334609 0.048305 -0.217419 0.624860 -0.505422 -0.656930 -0.385374 0.167389 -0.187084
659 -0.218488 0.509457 0.117902 0.030514 -0.227917 -0.297432 0.024075 0.202156 0.218105 -0.034165 0.556050 0.894724 -0.036039 -0.101163 0.165598 -0.060157 -0.115554 -0.207092 0.156618 -0.022889 -0.033993 0.062647 -0.525183 0.254063 -0.090512 -0.328108 0.447951 -0.029431 -0.495729 -0.304611 0.544555 -0.088147 -0.198726 -0.254096 0.346059 0.030349 0.292539 0.074092 0.353719 0.245780 -0.089093 -0.103241 -0.158928 -0.076734 0.178723 -0.370274 -0.133749 0.166784 -0.115918 0.028690 0.449029 0.161884 0.255939 -0.248019 0.224175 0.225344 0.080087 -0.093439 0.049846 -0.030292 -1.138704 -0.170794 -0.775016 -0.411228 0.131592 -0.032668 0.364792 -0.168688 -0.677482 0.104719 -0.038700 -0.093790 0.522161 -0.299766 -0.096377 -0.031247 0.089862 -0.196351 -0.337052 0.618998 -0.007700 0.282342 0.216798 -0.324221 0.003536 -0.403155 0.232764 -0.307080 -0.030754 0.006710 -0.373079 -0.923328 0.057363 -0.188856 0.080045 0.070295 0.019977 0.062152 0.173744 0.359057 -0.170839 -0.078166 0.002802 0.008112 0.294514 0.137733 -0.708354 -0.156998 0.033924 0.252514 0.577182 0.263018 0.128727 0.710148 0.001514 0.128634 -0.251014 -0.195315 0.177542 -0.290888 -0.052465 -0.298797 -0.201964 0.694214 0.053633 -0.330312 -0.105823 0.562271
986 -0.261392 0.681298 0.261338 0.232384 -0.558510 -0.189852 -0.214263 0.230644 0.451176 -0.202078 0.118438 0.725875 -0.043947 0.105118 0.280423 -0.426140 -0.273003 -0.552277 0.155393 0.223286 -0.425374 -0.180406 -0.593583 0.402113 0.003727 -0.321123 0.459211 0.196405 -0.303624 -0.301026 0.424503 0.072912 -0.205290 -0.161826 0.146839 -0.045002 0.224927 -0.014613 0.305733 0.364376 -0.428436 0.271866 0.177022 -0.105463 0.530308 -0.185537 -0.165323 0.058718 -0.095932 -0.045276 0.244851 -0.196931 0.227009 -0.546694 0.437733 -0.074793 0.465863 -0.015619 -0.394632 -0.476386 -0.892792 0.090556 -0.273917 -0.106314 -0.036040 -0.157421 0.136804 -0.197520 -0.397853 0.237502 -0.671023 0.106993 0.226077 0.194661 -0.325968 -0.083774 0.205681 0.286633 -0.244129 0.567212 -0.365237 -0.040595 0.226813 -0.289209 0.310778 -0.587647 0.209926 -0.286202 -0.210665 -0.016832 0.301109 -0.756235 0.379775 -0.256596 0.107538 0.146436 0.282768 -0.117998 0.283636 0.120536 0.078721 -0.343213 0.342413 0.341508 0.531643 -0.202465 -0.454212 -0.323961 -0.015247 0.018878 0.893793 0.262263 0.582295 0.365507 -0.223007 0.083855 -0.129431 -0.371290 0.234222 -0.144001 0.040425 -0.152425 -0.218462 0.665157 0.008333 0.084564 0.248129 0.473372
868 -0.160190 0.059027 -0.621972 -0.590792 -0.358140 -0.122880 -0.426648 -0.061214 -0.513277 0.359245 0.240691 -0.410882 0.351039 -0.224450 0.501577 -0.011140 -0.007855 0.284531 -0.129686 0.511311 -0.270208 -0.281548 0.024916 -0.218606 0.594134 -0.579280 0.794708 1.049323 -0.387094 0.544706 0.063401 -0.467539 0.127283 -0.228564 -0.370299 -0.119736 0.183185 0.318459 -0.637868 0.228848 -0.106436 0.285489 -0.019903 0.275942 0.284553 0.063585 -0.195895 0.224820 -0.556822 -0.131796 0.318924 -0.117933 -0.197663 0.139060 0.952884 -0.320804 -0.598272 -0.934437 -0.233349 -0.384119 0.177676 -0.247584 0.221695 0.223164 0.464391 0.059126 0.052544 -1.060374 0.445440 0.408012 -0.168224 -0.306261 0.248449 0.313860 0.724274 -0.289917 -0.669558 -0.135851 -0.160837 0.553445 0.011632 0.213139 -0.196633 0.030291 -0.488565 -0.224111 0.030752 -0.557936 -0.159729 0.037587 -0.563506 -0.353600 0.830888 -0.003969 -0.612002 0.132783 -0.472613 0.102091 0.465672 -0.090173 0.908377 -0.136616 0.042332 -0.152944 -0.094438 0.484684 -0.242505 0.169075 0.162548 -0.047061 0.952210 -0.134671 -0.516803 0.197633 0.045891 -0.000615 -0.505353 0.108116 -0.070889 0.226662 -0.801612 0.239322 -0.365625 0.169378 -0.157272 0.594885 -0.258546 -0.054323
814 0.009358 0.125706 0.381116 -0.110524 -0.592693 -0.237255 -0.124155 -0.182266 -0.064644 0.219430 0.534286 0.381899 -0.318657 0.298280 0.431678 0.059771 -0.033479 -0.354363 -0.045156 -0.145356 0.201581 0.154622 -0.322216 -0.101289 0.006513 -0.732811 0.281485 0.134840 0.284395 0.077304 0.008390 -0.611538 0.108970 0.327380 0.010706 -0.052406 -0.442767 -0.459817 0.172229 0.213029 0.706940 0.133477 0.359854 -0.468978 0.094753 0.056889 -0.262628 0.231690 -0.447816 0.291920 0.309208 -0.068316 0.218998 -0.603085 0.068650 -0.164483 -0.058002 -0.045633 -0.090369 -0.189103 -0.349920 0.117307 -0.282703 -0.206840 0.501749 0.111413 0.405887 -0.038389 0.341961 0.409038 0.083168 0.354494 0.115929 -0.567382 0.162275 0.084843 -0.313939 0.378151 -0.085086 -0.111220 0.138099 -0.065793 -0.224147 0.184574 0.105342 -0.058431 -0.258096 -0.484858 -0.427311 -0.194842 0.339661 -0.763484 0.338111 -0.178278 -0.383858 -0.030258 0.054949 0.262355 0.246646 0.039103 0.316128 0.392032 -0.217809 0.653486 0.279115 -0.478716 -0.650225 -0.077057 -0.030965 0.056551 0.300085 -0.503586 -0.302572 0.422999 0.407383 -0.462452 -0.143304 -0.321689 0.240059 0.129057 -0.372131 -0.214070 -0.193183 0.073497 -0.181437 0.718514 0.074759 0.206647
631 -0.263483 0.290133 0.426336 -0.204959 -0.261193 -0.099624 0.486263 0.169567 0.328912 0.169229 0.043923 0.431950 0.265646 -0.108378 -0.129435 0.111223 -0.223627 -0.327732 0.104734 0.140307 -0.445361 0.467783 -0.637828 0.187531 -0.117482 -0.359092 0.545318 0.183206 -0.390008 -0.308504 0.493350 0.087116 -0.097913 -0.328849 -0.042714 0.098234 -0.345060 -0.289193 0.537216 0.239968 -0.003620 0.155011 0.262120 -0.206159 0.540845 -0.482655 -0.229323 -0.041077 0.113074 0.095353 0.236978 -0.040214 0.091968 -0.314594 0.231500 0.054230 0.256163 -0.049130 -0.059210 -0.347276 -0.929627 -0.137795 -0.399048 -0.465390 -0.324042 0.027581 0.360894 -0.587644 -0.253816 0.028265 0.011863 0.077251 0.469324 0.127387 -0.166301 0.008345 0.232468 -0.141926 -0.383332 0.563241 0.073666 0.126921 0.138060 -0.365957 0.201717 -0.387947 0.393690 -0.461294 -0.186929 0.178178 -0.230044 -0.934240 0.149006 -0.472203 -0.174302 0.014396 0.157993 0.144614 0.052764 0.274374 0.042759 -0.212148 0.028262 -0.104537 0.194576 0.273001 -0.584891 -0.058094 -0.459874 0.092899 1.040849 -0.047405 -0.062242 0.347270 0.206132 0.077208 -0.076722 -0.339346 0.165299 -0.255252 0.272065 -0.204250 -0.054046 0.546928 0.055489 -0.128608 0.287899 0.545548
753 -0.823822 0.630440 0.329726 0.056371 -0.039503 0.203806 -0.534376 0.208313 0.073615 0.061297 -0.043907 0.150898 -0.562109 0.013471 -0.505441 -0.293822 -0.674254 -0.396483 0.339463 0.149437 -0.122128 -0.434504 -0.390441 0.409469 -0.268156 0.241527 0.319140 -0.637675 -0.274536 -0.443195 0.546232 0.092857 -0.359911 0.195868 -0.144928 -0.186326 -0.384417 -0.077498 0.063339 0.602664 0.333222 0.112414 0.526168 0.518558 0.839831 -0.251052 -0.141558 0.142683 -0.284014 0.009932 0.264120 0.002522 0.175994 -0.142321 0.254806 -0.467740 -0.446878 -0.177757 -0.406385 -0.105652 0.306749 0.490491 -0.233533 0.148483 0.540054 0.508093 0.796048 -0.055935 -0.188076 -0.064406 -0.069805 0.505663 0.534899 0.157394 0.015639 -0.137867 -0.084177 0.189637 -0.224034 0.050020 0.031429 -0.023387 0.769838 -0.881947 0.444428 -0.114403 -0.043913 0.039258 -0.356858 -0.367368 0.002465 -0.064778 -0.201191 -0.191884 -0.587277 0.180080 0.525306 -0.612091 0.055102 0.230562 0.277597 -0.273561 0.132293 0.350036 0.367507 0.180969 -0.291012 -0.201209 -0.272828 -0.239719 -0.039787 0.330182 0.412210 -0.373690 -0.348208 -0.814643 -0.546060 -0.168305 -0.122729 -0.420784 -0.271951 -0.683822 -0.287460 0.121677 -0.314555 -0.212469 -0.532804 0.208210
263 -0.433105 -0.001966 0.004795 0.418067 -0.204974 -0.168513 -0.269468 -0.522820 -0.274588 0.623667 -0.590172 -0.247344 -0.391554 0.072299 0.263267 0.014265 -0.148684 0.043884 -0.069698 0.216010 0.468463 0.126307 0.372834 0.514479 -0.407145 -0.002357 0.500490 0.307668 0.324932 0.246750 -0.069664 -0.127204 0.097785 -0.143181 0.228844 0.660789 -0.155659 0.263241 -0.022200 0.147701 0.366272 -0.255474 -0.140625 0.259264 -0.179247 0.112339 0.046835 -0.023905 0.229551 0.062872 0.248428 0.114381 -0.228192 -0.090962 -0.028530 -0.328566 -0.123095 0.200793 -0.550613 0.348806 0.360900 -0.207759 -0.039239 -0.079133 0.176752 -0.074007 -0.266961 0.026965 -0.381196 0.518208 -0.222662 -0.345288 0.446348 -0.375743 -0.303867 -0.502466 -0.393676 -0.063273 0.242465 0.017233 -0.093200 -0.364374 -0.713170 0.226624 0.534271 -0.228214 0.042551 -0.421935 0.323496 0.120604 0.189494 -0.531002 0.496811 -0.122494 -0.528860 0.264318 0.179341 -0.218782 -0.245006 0.071333 0.132408 0.378126 -0.527750 -0.026576 0.510441 -0.391702 -0.084187 0.161642 0.454731 0.122558 0.200068 -0.098169 -0.031458 0.411188 0.602311 0.113792 -0.186027 -0.027385 0.563296 -0.104582 0.472689 0.094741 -0.080537 0.077932 -0.104225 -0.621446 0.091079 0.464975
780 0.351202 -0.098677 0.054164 0.329377 0.325605 -0.352993 -0.284557 0.522070 -0.040378 0.683378 -0.210295 -0.089997 -0.502708 -0.205970 -0.323268 0.141349 0.001777 -0.013504 0.110851 0.031094 0.405633 -0.279336 0.221791 0.391123 -0.402009 0.209122 0.265783 0.075542 -0.172410 0.133515 -0.094318 0.296319 0.084286 -0.087228 -0.350889 0.045661 0.002745 0.203621 0.279112 -0.217419 0.182625 -0.492419 0.563931 -0.205521 0.125356 0.029407 0.445435 -0.153517 -0.328915 -0.517910 0.261826 -0.300923 0.088267 -0.157234 0.644251 -0.608509 -0.163026 -0.504244 -0.074548 -0.309271 0.023852 0.449062 -0.107194 -0.071414 -0.341556 0.026441 -0.156405 0.026263 -0.603708 0.355411 0.374720 -0.124110 0.021834 -0.272336 0.123344 -0.159206 -0.206406 0.124513 -0.106613 0.354928 -0.148196 -0.056817 -0.138708 -0.005081 0.119442 0.156138 -0.107246 0.065479 0.300113 -0.185406 0.394739 -0.460510 0.178494 0.014316 -0.203716 0.045514 0.177658 0.528959 -0.364401 0.487103 0.311984 0.345408 0.104032 -0.006139 -0.117573 -0.207549 -0.067576 0.057945 0.393042 -0.292794 0.200552 0.219991 -0.106679 0.189637 -0.013514 -0.070378 0.135091 0.304522 0.376516 0.005465 0.173694 -0.298140 0.256131 -0.158670 -0.205272 -0.042807 0.294081 -0.227049
1731 -0.424561 -0.424823 -0.268655 0.051703 0.257627 0.285463 -0.360997 1.331390 0.243541 0.010646 -0.061908 0.061560 -0.215154 -0.196435 -0.195477 -0.470552 0.350886 -0.164152 0.107906 -0.082778 -0.385001 -0.718912 0.375528 -0.350844 0.053828 0.098131 -0.231126 0.337342 0.178517 0.206524 0.387613 0.089811 0.160915 -0.442165 0.091479 0.423222 0.765549 0.184862 0.021419 0.398902 0.722171 0.640500 -0.134687 0.364802 0.594230 0.090289 0.470427 0.010873 -0.375329 -0.146908 0.405783 -0.814556 -0.018691 -0.146336 -0.155934 0.052313 -0.377787 -0.273179 -0.217644 -0.318284 0.014860 -0.392510 -0.246795 -0.159165 1.005283 0.131819 -0.650412 0.090824 -0.624625 -0.504002 0.667532 -0.518419 0.294176 0.357951 -0.283052 0.374206 -0.120555 0.932709 -0.202530 0.778702 0.341619 -0.084429 -0.368593 -0.287296 -0.466740 0.163459 1.102852 0.391752 0.368518 0.173664 -0.238176 -0.464408 0.229590 -0.430443 -1.193323 0.102090 -0.090117 0.249452 -0.980014 -0.074325 0.024060 -0.445105 -0.918005 0.592191 -0.022452 -0.225262 0.139642 -0.070941 0.024412 -0.341398 0.720756 -0.507770 0.411736 0.094559 -0.109417 0.143377 -0.292615 0.078245 0.394408 -0.114643 -0.602094 -0.538983 0.100326 0.011288 -0.520209 -0.292857 0.306946 0.510617
616 0.017836 -0.237354 -0.383969 -0.309935 -0.351356 -0.184495 -0.278519 -0.107081 0.106613 0.257633 -0.308187 -0.369925 -0.248717 0.279637 -0.135307 0.168065 -0.027056 0.362998 0.339478 0.131287 -0.679796 -0.171120 0.424636 -0.027921 -0.169033 -0.422913 0.184358 -0.539427 -0.169680 0.344044 -0.230880 0.301033 0.183927 -0.105075 0.311808 0.341307 0.261245 0.388424 0.037650 0.002417 0.213576 0.222139 0.105930 -0.333286 0.675241 0.187803 -0.210166 -0.095475 -0.003345 0.319360 -0.198952 -0.086272 0.394068 -0.065252 0.378208 -0.339089 -0.294676 -0.193556 -0.351294 -0.185137 -0.226652 -0.134297 0.146212 -0.175873 -0.097363 -0.287685 0.221136 0.286016 0.245036 0.117893 0.400942 0.400689 0.648834 -0.244382 0.124372 -0.055332 -0.159585 -0.017333 0.402630 0.288588 0.148581 -0.013218 -0.319894 -0.117231 -0.204445 -0.146331 0.427369 0.068841 0.415579 -0.160416 0.497445 0.273336 0.174336 -0.328314 -0.429180 -0.092057 0.126930 -0.043054 -0.104278 0.422442 0.362921 0.467177 0.311599 -0.224729 0.211018 -0.107607 -0.167578 0.201920 0.351392 0.363334 0.315392 0.088348 0.237881 0.452751 0.056116 0.157253 -0.446004 0.283196 -0.283071 -0.580878 0.023086 -0.284677 -0.056006 0.138912 -0.306019 0.210864 0.116224 -0.402515
31 0.100610 -0.075542 -0.007161 0.136517 0.140486 -0.029233 -0.223774 0.370403 -0.298868 0.621887 -0.140625 -0.078510 -0.362907 0.046448 -0.311076 0.228433 0.059859 0.114296 0.323294 0.220845 -0.024818 -0.598016 0.385703 0.316202 -0.198017 0.141311 0.207369 0.379480 -0.315939 0.103849 -0.582818 -0.130293 -0.386116 -0.082031 -0.093554 0.286148 -0.061570 0.239715 0.472551 0.026370 0.111857 -0.198046 0.407589 0.560008 0.111167 0.010396 -0.440680 -0.211947 -0.208268 -0.338133 0.223983 0.136246 -0.067614 -0.357854 -0.060312 -0.328606 -0.165221 -0.230882 0.140832 -0.360276 -0.341431 0.539119 0.282733 -0.548031 0.079812 -0.257788 -0.649467 0.056555 -0.291956 -0.093697 0.286086 0.449380 -0.023459 -0.592272 0.094319 0.175503 0.235476 -0.394065 0.293549 0.184522 -0.135436 0.053832 -0.466888 0.033567 0.011046 0.098014 -0.190921 0.028954 0.208671 0.029756 0.079414 -0.785009 0.215377 -0.126223 -0.173834 -0.032518 0.525667 0.100724 -0.361862 -0.026874 0.040854 0.674849 0.116085 0.015258 0.264257 0.201123 -0.205280 0.210860 0.160087 -0.386697 0.536407 -0.149493 0.279853 -0.104592 0.052835 0.019146 -0.020872 -0.020640 0.073225 -0.233553 0.155944 -0.451595 0.161848 -0.167266 0.165598 -0.515673 0.053677 -0.575699
698 0.049182 -0.495895 0.068493 -0.364857 -0.168732 0.002693 -0.083604 -0.103063 -0.208595 0.104919 -0.128767 -0.396981 -0.132409 0.093640 -0.129928 0.283223 -0.387194 0.251562 0.401654 0.142009 -0.449026 -0.191566 0.282803 0.304640 -0.463648 -0.244653 0.328626 -0.460173 -0.084953 0.169146 -0.071928 -0.120894 0.041942 -0.197523 0.135153 0.383818 0.172520 -0.087219 -0.283187 0.246660 0.446454 -0.036746 0.136567 -0.516448 0.828736 -0.171663 -0.012763 0.079797 -0.079593 -0.025914 -0.037635 -0.586756 0.156436 0.066824 0.176990 -0.360077 -0.074836 -0.130420 -0.308471 -0.353813 -0.015352 0.119581 -0.058157 0.270794 0.177310 -0.062022 -0.285335 0.104702 0.120972 0.282129 0.152943 0.326818 0.198554 -0.475675 0.328448 -0.215723 -0.115609 -0.589447 0.034202 0.053928 0.194158 0.149521 -0.388959 0.077438 -0.079381 0.008077 0.201829 0.008553 0.281469 0.064593 0.062758 -0.010475 0.132463 -0.369168 -0.592195 -0.365014 0.087941 0.109932 -0.243161 0.113639 0.237075 0.406222 0.311286 -0.175450 0.399393 0.041339 -0.126003 -0.280574 0.387709 0.434308 0.482421 0.361627 0.057862 0.393606 0.098723 0.318969 0.006534 -0.007434 -0.416512 -0.411752 -0.022201 -0.363120 0.124514 -0.062103 -0.203254 -0.149745 0.137898 -0.028451
354 -0.169676 -0.670445 -0.046822 0.116560 0.322041 -0.493205 0.145693 -0.116938 -0.600491 -0.064191 -0.241802 -0.488979 0.506020 0.092537 0.323383 -0.109803 -0.055792 0.292028 -0.261634 0.290034 -0.373831 -0.013494 -0.024612 -0.154531 -0.988969 -0.792577 0.244288 1.467264 -0.547406 -0.079806 -0.392085 0.143682 -0.378049 -0.302252 0.100319 -0.070228 0.199898 -0.417082 0.069563 -0.290001 0.735943 -0.425776 0.144143 0.406168 0.358417 -0.367877 -0.009239 0.023570 -0.584848 -0.080531 0.363785 -0.495154 0.504548 -0.306290 0.142299 -0.186110 -0.255645 0.273822 0.172001 -0.181079 -0.200850 0.296431 -1.325858 -0.123136 0.306763 -0.196388 0.501007 -0.420987 -0.252049 -0.298040 0.019751 0.595487 0.417694 0.187996 0.130577 0.015912 0.318350 0.984945 -0.294121 -0.028597 -0.152955 -0.047286 0.061487 -0.494920 0.096028 -0.635889 -0.453685 0.033911 -0.334574 -0.158847 -0.400486 0.116848 -0.180228 -0.358294 -0.077826 -0.080398 -0.207353 0.077257 -0.180873 0.853926 0.065229 -0.472779 0.369773 -0.123430 0.785055 -0.723196 -0.736929 0.499538 -0.433444 0.565124 0.520993 0.046954 -0.198036 0.003127 0.033082 0.042492 0.298327 0.039643 0.472412 -0.297418 -0.307207 -0.191402 0.585398 0.060246 -0.515420 -0.003108 -0.633528 0.314844
673 0.116556 -0.301871 -0.311543 0.170321 0.207369 -0.287316 0.026171 0.021455 0.171657 0.397784 -0.284087 -0.291733 0.030104 0.378984 0.370757 -0.148571 -0.494023 -0.021607 -0.167375 -0.147185 0.095622 -0.305656 -0.128187 0.328589 -0.338342 0.098944 0.245749 0.059204 0.063493 0.362596 0.351160 0.393084 0.090986 0.005971 0.116454 -0.156063 -0.265288 -0.000831 -0.131865 0.222964 -0.202726 -0.194260 0.476664 0.130786 0.448586 -0.045074 0.313631 -0.290941 0.170412 0.043430 0.243227 -0.029238 0.361767 -0.304216 0.191843 -0.685557 0.255648 0.019735 0.279511 -0.086348 0.086731 0.038860 -0.003436 -0.047966 0.211742 -0.198693 0.017071 0.114369 0.341572 0.199022 -0.073231 -0.056425 0.264903 -0.324519 -0.041245 -0.153755 0.058282 -0.023218 0.284815 -0.247080 0.768817 -0.144387 -0.184308 0.083757 -0.379017 0.124426 0.136067 -0.085566 0.128726 0.064550 -0.364041 0.110694 0.609441 -0.363333 -0.669562 -0.322626 0.445817 0.606938 -0.268572 0.334975 0.426992 0.238606 0.300648 -0.312762 0.479292 0.184322 0.093938 0.019672 0.397898 -0.089741 0.418249 0.143577 -0.016819 0.469590 0.049700 0.054896 -0.442614 0.473896 0.466567 -0.424352 0.104910 -0.268125 0.091315 -0.237558 -0.081927 -0.132066 0.193899 -0.183569
634 -0.304052 -0.218951 0.181494 0.015746 -0.845107 -0.380822 -0.769522 -0.394391 -0.543689 0.863529 -0.372357 0.409983 -0.306968 0.086645 -0.775062 -0.448980 0.828091 -0.302828 0.423146 -0.623823 -0.886571 -0.725982 0.274270 0.377276 -0.246018 0.363324 1.388262 0.926870 0.117390 1.087567 0.226950 0.463320 -0.185601 0.803453 0.464944 0.030941 0.018155 0.095446 0.468750 0.096683 0.313470 -0.465894 1.238781 0.100164 0.061237 0.044404 -0.674048 0.011586 0.429336 0.178202 0.550962 0.308452 0.032141 -0.407061 -0.034349 -0.785241 -0.449931 -0.410328 -0.198749 -0.792930 0.190812 -0.433148 -0.220421 0.381864 0.887916 0.136449 0.057513 0.028385 0.229435 0.319213 0.223190 -0.638191 -0.463264 -0.705266 0.065331 0.109694 0.268948 0.029665 -0.150093 -0.581256 -0.746207 -0.034505 -0.212621 0.604484 -0.199342 -0.357863 -0.281127 0.699987 -0.465264 -0.449946 0.071161 -1.167014 0.942126 -0.857612 0.223170 0.738862 0.115760 0.018979 -0.252513 0.370149 -1.008509 0.154687 0.281185 -0.000267 0.142070 0.358082 0.037925 -0.151975 0.487231 -0.024176 0.419019 -0.905771 0.509806 -0.018948 0.019361 -0.385156 0.171866 -0.527643 -0.260211 -0.725110 -0.362119 -0.298185 -0.048467 -0.092561 0.127992 0.512067 0.164406 0.226065
0 -0.327581 -0.235278 -0.593221 0.030499 -0.561719 0.074780 0.017378 0.076718 0.124269 0.242294 -0.083238 -0.259609 0.370242 0.245163 0.461614 0.093921 -0.227852 -0.300601 -0.106017 -0.538367 -0.791318 0.005426 -0.288491 -0.374313 0.022751 0.104664 0.882923 0.408782 0.124891 -0.058670 0.037246 -0.423302 0.011472 -0.048760 -0.071747 -0.146069 -0.010268 0.257088 0.637332 0.000728 -0.090334 0.350349 -0.038122 -0.209454 0.053957 -0.121850 -0.099522 0.054544 -0.203800 -0.594625 0.429609 0.276276 -0.111685 -0.114793 0.229320 -0.581378 -0.296676 -0.256025 -0.380010 -0.084789 -0.591283 -0.247587 -0.308208 0.474385 0.446264 0.273965 -0.002590 -0.189157 -0.245329 0.887797 -0.354249 0.197751 0.175901 -0.236547 -0.347944 -0.448159 -0.469784 -0.005439 -0.036657 0.261894 -0.067177 -0.531768 0.345211 -0.055829 -0.268683 -0.333122 -0.319307 -0.581021 0.287217 -0.439612 0.252483 0.032985 0.188869 0.166863 -0.467611 -0.106160 0.201873 0.038532 0.005413 -0.199236 0.085741 0.404689 -0.089669 0.652892 -0.309816 0.044682 -0.097440 0.022082 0.333776 -0.082015 0.550904 -0.527662 -0.504920 0.070383 0.282987 -0.197552 0.012814 0.012958 0.309500 -0.214225 -0.062701 0.294213 0.150851 0.679789 -0.558315 0.021473 0.081328 -0.203907
876 -0.198062 0.103508 0.435799 -0.055740 -0.069200 -0.063637 -0.719654 0.173832 0.307827 0.513708 0.450170 -0.228865 -0.078730 0.333656 -0.027002 0.606839 0.505953 0.272970 -0.063412 0.024042 0.151292 -0.402259 0.649651 0.061173 -0.210923 0.537345 0.721176 -0.083024 -0.056029 0.303058 -0.174356 -0.196463 -0.103098 -0.178084 0.227934 0.712160 0.349964 0.902994 0.574592 0.400507 0.172841 0.029572 0.170930 0.221277 0.568282 0.298106 0.211474 -0.356662 -0.622140 -0.345002 0.450022 -0.501313 0.531550 -0.002483 -0.320323 0.142520 0.164095 0.016184 0.586690 -1.003356 -0.264708 0.479418 0.408711 -0.350265 0.598258 -0.112387 -0.318412 -0.099025 -0.234556 -0.016208 -0.146985 0.190816 0.324854 -0.591488 -0.019177 -0.668113 0.557837 0.166086 0.505990 0.002924 -0.214952 -0.146076 0.099452 0.112062 0.447345 0.078496 -0.489239 -0.153009 0.037475 0.146858 0.469837 -0.163567 0.538611 -0.005667 0.068368 -0.163601 0.205206 0.033989 -0.146355 0.351903 0.099907 0.389052 -0.053310 -0.064462 -0.131217 0.282722 -0.087376 -0.098040 0.008598 0.047895 0.879438 -0.254589 -0.365486 -0.217964 -0.379031 -0.059236 -0.493332 0.344283 0.284011 -0.200200 -0.001530 -0.155664 -0.021811 -0.260004 -0.658437 -0.161606 0.221207 -0.111779
691 -0.345847 -0.331963 -0.306937 -0.029239 -0.472781 -0.245498 -0.076979 0.266946 0.318313 0.071222 0.011616 0.246319 0.125969 0.111285 0.746489 -0.223159 -0.133156 -0.603031 0.162257 -0.289692 -0.443825 0.063757 -0.558934 -0.290034 -0.389247 -0.062319 0.712623 0.277015 -0.360312 -0.456826 0.058589 -0.621813 -0.034461 -0.273502 -0.188167 0.095568 0.053730 0.021390 0.352026 0.468852 0.026898 0.459600 0.218469 0.095458 0.857705 -0.193618 -0.186372 0.199042 -0.425713 -0.305630 0.278148 -0.034004 0.187250 -0.505523 0.170151 -0.284374 -0.253062 -0.189709 -0.297175 -0.067955 -0.719423 -0.282497 -0.472711 -0.043879 0.328028 0.332714 0.380986 -0.203517 -0.061474 0.444593 -0.317339 0.159627 -0.379223 -0.262236 -0.295616 -0.245081 -0.477064 -0.195525 0.159739 -0.119673 0.020793 0.045303 0.007081 -0.358714 -0.200349 -0.205993 0.007456 -0.410798 -0.213485 -0.292237 0.329178 -0.317436 0.384309 -0.091906 -0.055563 0.062697 -0.190342 0.040158 -0.047703 -0.042180 -0.311420 0.395086 0.178971 0.927905 -0.084245 0.026130 -0.749182 0.197370 -0.327731 0.300155 0.500365 0.233191 -0.174445 0.137630 -0.010087 0.007250 -0.009527 -0.344551 0.234375 -0.089756 0.197385 0.071903 -0.099238 0.286926 -0.251207 0.159400 0.327580 0.269457
1460 0.070120 -0.273916 -0.391230 -0.198007 0.219554 -0.153032 -0.324914 -0.187818 0.085250 0.470015 -0.372664 -0.533309 -1.296970 0.339462 0.130812 0.339400 0.607363 -0.162014 0.375349 0.137145 -0.107419 -0.144960 -0.260321 -0.367182 -0.448427 0.077928 0.837216 -0.581923 -0.629609 -0.030940 -0.053509 0.422870 -0.342784 0.451543 0.871722 0.051107 0.307167 -0.491986 0.058433 -0.255582 -0.155032 0.142702 0.924040 0.014309 -0.043973 -0.150080 0.316059 0.264161 -0.087629 -0.420790 0.075978 -0.489589 -0.005968 0.171961 0.681666 0.152249 -0.049934 -0.197396 -0.420518 -0.186240 0.087905 -0.133833 0.374079 0.086087 -0.467249 0.308866 0.656390 0.054138 0.200330 -0.361600 0.935597 -0.245511 0.227207 -0.445890 0.001149 0.251024 -0.365633 -0.300766 0.048500 0.530534 -0.124958 0.121791 0.185158 0.088686 0.777717 -0.100036 -0.144703 0.287013 0.414064 0.465257 -0.105710 -0.058631 0.264094 0.256652 -0.377183 -0.107438 -0.154349 0.757995 -0.426371 -0.508823 0.129422 0.205333 0.109118 0.225893 0.157926 0.145424 -0.239867 -0.115385 0.363153 0.790606 1.004274 0.094853 0.256105 0.417639 -0.124574 0.311738 -0.252647 0.098141 0.091546 -0.783642 -0.818658 -0.324059 -0.044303 -0.011608 -0.233614 0.282472 -0.147840 -0.514195
1150 0.697873 -0.403627 -0.260305 -0.648421 0.218367 0.523573 0.288200 -0.209852 0.103063 0.122949 -0.312090 0.245096 -0.213973 -0.559051 -0.107047 -0.422153 0.352555 -0.084960 0.185799 0.137263 -0.416964 0.001000 -0.253702 -0.683630 -0.370232 0.254586 0.856728 -0.063886 0.105744 0.584549 -0.621452 0.185777 -0.285643 -0.274835 0.139546 0.120602 1.006314 -0.423630 -0.037400 0.463921 0.271964 -0.023796 0.333654 0.208460 -0.167585 0.192722 0.553575 -0.174071 -0.616298 0.298242 0.354779 -0.302392 -0.042482 0.165032 0.491354 -0.373420 -0.055863 0.266137 -0.000508 0.560777 -0.011036 0.030960 -0.998596 -0.201914 0.045704 -0.029813 -0.302652 0.169189 -0.167041 -0.172748 -0.293001 0.306205 0.207780 0.053555 0.907182 -0.157628 0.441626 0.590005 -0.030018 0.308932 -0.407644 0.431694 -0.233888 0.015683 0.169918 0.163085 0.187673 0.466962 -0.359692 0.142354 0.425343 0.187991 0.774530 0.317198 -0.763368 0.214467 0.430733 -0.517335 0.098523 -0.234841 0.409687 -0.064920 0.172570 0.138061 0.569747 0.582894 -0.533083 0.111991 -0.148061 0.168085 0.762556 0.100575 -0.156466 -0.478389 1.055116 -0.058305 0.086089 0.017343 0.502338 0.356762 -0.151460 0.049587 0.192742 0.491370 -0.293007 0.090955 0.168849 0.371190
2050 -0.471330 0.181462 -0.207499 -0.082760 -0.475338 0.025344 0.419475 -0.139379 0.156327 0.325114 -0.132822 0.066384 -1.081358 -0.150171 -0.483037 0.166937 -0.053846 0.010715 -0.112957 0.029117 0.217352 -0.107626 0.008102 0.357752 -0.055483 0.244300 0.084891 -0.309433 0.501678 -0.103805 -0.479788 -0.394253 -0.287554 0.177676 -0.145986 -0.340849 -0.178851 0.053795 0.347316 0.287706 0.609437 0.001167 0.266140 -0.124785 0.464200 0.197452 -0.152585 0.124870 -0.171025 -0.163366 0.020738 0.221867 0.232977 -0.054033 0.813633 -0.504652 -0.231867 -0.253442 0.099785 -0.470878 -0.109946 -0.408649 -1.019826 -0.081656 0.455552 0.215518 0.163103 0.092749 -0.412166 -0.561132 -0.440600 0.433009 0.261861 0.517866 -0.129720 0.172309 -0.256423 0.245308 -0.192369 -0.109745 0.189268 0.261044 0.475691 -0.674484 0.787446 0.145951 0.585114 0.361533 0.504682 -0.493692 -0.208770 0.076616 -0.067960 -0.007614 -0.116263 0.115609 0.431883 -0.240167 -0.327893 0.341505 0.090224 -0.343034 0.123007 0.231831 -0.106271 0.419135 -0.084939 -0.209005 0.577320 -0.523891 0.657188 0.126752 0.294651 -0.199064 -0.136777 0.081202 -0.686346 -0.210988 0.482789 0.230410 -0.124781 0.117175 -0.103484 -0.247185 -0.152246 -0.020598 -0.068357 0.599285
979 -0.113547 0.537537 0.240292 0.013016 -0.513808 -0.342222 0.286413 0.062820 0.149305 0.267110 0.692888 0.745093 -0.040932 -0.247507 0.133005 -0.029212 -0.087822 -0.327235 0.332944 0.113758 -0.316572 0.248003 -0.568171 0.403803 -0.036038 -0.591744 0.541064 -0.154838 -0.131321 -0.436590 0.563544 -0.044883 -0.223471 -0.261929 -0.058402 0.157575 0.000715 -0.286704 0.331126 0.297381 -0.022064 -0.037029 0.408224 0.131955 0.435100 -0.033230 -0.270951 -0.074854 -0.195125 0.441963 0.579430 -0.182729 0.009582 -0.625534 -0.140913 -0.058613 0.163046 0.054048 -0.026487 -0.231562 -0.866941 0.072044 -0.451358 -0.110501 -0.457466 -0.118843 0.407794 -0.472039 -0.580800 0.089903 -0.019073 0.049662 0.261259 0.283813 -0.102225 -0.171695 -0.181205 0.343465 -0.355218 0.635853 0.279065 0.593629 0.433276 -0.271023 0.014684 -0.290931 0.174400 -0.189135 -0.164607 -0.011165 0.021821 -0.728419 -0.089323 -0.534852 -0.176571 -0.187230 0.183040 0.297731 0.200409 0.051661 -0.253932 -0.115608 -0.022765 0.277359 0.252646 -0.305448 -0.361466 -0.141226 -0.171723 0.230758 0.836376 0.261792 -0.095822 0.160092 -0.070401 0.199104 -0.096377 -0.197239 0.426010 -0.288344 -0.334280 -0.317613 0.039091 0.605644 -0.000486 -0.353181 0.218387 0.693398
1004 -0.002986 -0.488582 -0.101776 0.059851 -0.289628 -0.178582 0.174298 -0.184968 -0.079265 0.178430 -0.137445 -0.435547 -0.395654 -0.097830 0.114897 0.202953 0.137503 0.108500 0.429007 -0.015684 0.298501 0.255570 0.111732 0.324721 -0.713006 0.357103 0.470467 -0.166800 0.185074 0.176688 -0.345572 -0.247568 0.241153 0.162820 0.098064 0.267762 0.442473 0.310973 -0.428550 0.138538 -0.227909 -0.150234 0.077998 0.074375 0.586670 0.152511 0.451114 -0.111406 0.081383 -0.014262 0.103895 -0.134994 -0.350475 -0.463815 0.201840 0.081208 -0.151414 0.036875 -0.210453 -0.287094 -0.353654 -0.054516 0.159610 -0.399301 0.340483 -0.371791 -0.163667 0.089132 0.327068 0.657147 0.078950 0.179792 0.193663 -0.443441 0.130026 0.011073 0.282489 -0.184359 0.401215 0.311309 0.280758 -0.367646 -0.329894 -0.085814 -0.279104 -0.712123 0.230904 0.465057 -0.072450 -0.382474 0.106939 -0.105619 0.597754 -0.421450 -0.782162 -0.020138 0.373572 0.300004 -0.349358 -0.154900 0.126967 -0.047399 0.218727 -0.286206 0.640019 -0.205726 -0.273951 0.111429 0.343160 -0.295192 0.388938 0.197894 0.045660 0.035616 -0.105666 0.102431 0.233645 0.176791 -0.050475 -0.298646 -0.277427 0.092075 -0.111169 -0.141434 0.050823 0.201201 0.171791 -0.228531
416 -0.011571 -0.200818 0.030767 -0.182275 -0.163846 -0.129247 -0.393823 0.309131 -0.426476 0.275828 0.109043 0.226596 0.284263 -0.283744 0.292257 -0.081683 -0.027219 0.626595 0.704031 -0.140357 -0.035990 0.537922 0.093564 0.116329 -0.394749 -0.455298 0.153285 0.504357 0.221804 -0.655770 -0.152520 0.242753 -0.334020 -0.119947 0.089641 -0.472613 0.259547 -0.413173 0.428443 0.414702 -0.054629 0.198059 -0.030855 0.080695 0.337291 -0.436967 -0.264155 0.035342 -0.209285 -0.712272 0.335475 -0.118126 0.490882 -0.814014 0.044482 0.079051 -0.294068 -0.187269 -0.001560 -0.293942 -1.091715 -0.053118 -0.519781 0.336465 0.483163 -0.050120 0.493163 -0.275625 -0.523260 -0.159545 0.362854 0.290284 0.493273 0.185827 0.057201 -0.041279 -0.304431 -0.124505 -0.460331 0.206609 0.038956 -0.376937 -0.273554 -0.403348 0.045468 -0.557572 -0.110893 -0.308761 -0.068372 -0.043602 0.075669 -0.066822 0.585193 -0.158978 -0.097793 0.019032 0.347698 -0.337887 -0.152686 0.343661 -0.391259 -0.722752 0.088848 0.306996 0.385980 -0.217915 -0.121485 0.478845 -0.604003 0.450003 0.749366 -0.003453 -0.334362 0.731003 -0.160052 -0.279576 0.035204 -0.431638 0.287999 0.034975 0.008256 -0.101788 -0.088423 0.255737 0.087312 -0.024821 -0.148407 0.727972
516 -0.140132 -0.333979 -0.199174 0.297312 0.189554 0.023417 -0.216795 -0.043399 0.177653 0.131125 -0.080126 -0.374394 -0.572323 0.239507 -0.045142 0.189286 0.155509 0.007927 0.198842 -0.265259 -0.203522 0.012091 0.542917 0.081631 -0.244580 0.258494 0.569475 -0.113646 0.085126 -0.102940 -0.089251 0.316967 -0.003979 0.122563 0.282589 0.208963 -0.038118 0.110578 -0.373806 0.080830 0.107184 -0.191353 -0.020785 -0.011406 0.706988 -0.169873 0.059063 -0.015849 0.341620 0.004399 -0.058139 -0.174759 0.145059 -0.314881 0.469002 -0.411640 -0.057603 -0.078071 -0.134255 -0.239093 -0.388999 0.335914 -0.216320 -0.103878 0.002306 -0.150513 -0.091613 -0.155860 -0.221046 0.455167 0.132969 -0.020555 0.382450 -0.514649 0.377183 -0.037308 -0.125767 -0.144511 0.166650 0.101579 0.058492 -0.554472 -0.258213 0.355820 -0.553795 -0.293619 -0.004811 0.375523 -0.158978 0.243911 -0.321429 -0.058870 0.328683 -0.392499 -0.729825 -0.299473 0.222723 0.302569 -0.000008 0.037254 0.239692 -0.001045 0.588111 -0.220737 0.304358 -0.272700 -0.200169 -0.217744 0.250159 -0.056908 0.419548 0.157985 -0.244570 0.284306 -0.014918 0.109921 -0.125695 0.122583 -0.161021 -0.118820 -0.224747 -0.211393 0.032843 -0.126489 -0.248544 0.034614 0.231857 0.139658
483 -0.186909 -0.434805 0.016104 0.507901 -0.059302 0.011668 -0.097221 0.061407 0.329081 0.263205 0.161754 -0.433550 -0.302277 0.042180 0.118441 0.213983 0.294102 0.195421 -0.034974 0.137794 -0.004249 0.029479 0.271670 0.367674 -0.293487 0.083771 0.462685 -0.399800 -0.078913 0.128434 -0.226159 0.189278 0.038773 0.392641 -0.016396 0.058082 0.019079 0.179940 -0.167174 0.277873 0.317431 -0.051534 -0.118077 0.170577 0.679301 -0.040063 0.077668 0.000780 -0.110344 0.097102 -0.227207 -0.448922 0.303903 -0.334326 0.195558 -0.458238 0.100755 0.060298 -0.057528 0.057910 0.018615 0.555932 -0.108372 0.303087 0.073593 -0.222721 -0.051978 -0.132541 0.018756 -0.072855 0.107720 0.059425 0.112756 -0.455828 0.464236 -0.329936 -0.036171 0.193041 0.170088 0.314048 0.199010 -0.193073 -0.378028 0.254162 -0.550677 -0.230288 0.289625 0.162533 -0.218245 0.177043 0.042938 0.423625 0.091138 -0.734429 -0.755163 0.201696 0.241794 -0.050220 0.088108 -0.283329 -0.086594 0.123144 0.717421 -0.273888 0.038990 -0.114366 -0.033897 -0.161235 0.555254 0.014467 0.673948 0.254463 -0.214108 0.257025 0.189814 0.099146 -0.017769 0.017414 0.201876 -0.459776 -0.228171 -0.251989 -0.138640 0.177287 -0.135430 -0.086767 0.265577 0.196725
295 0.247261 -0.169501 -0.233203 0.119740 -0.388668 -0.234866 -0.783883 -0.361575 -0.408411 0.465026 -0.087641 -0.123401 -0.320792 0.100455 -0.639813 0.278199 0.581660 0.221525 0.061714 -0.529732 -0.463153 -0.686386 0.639132 0.596608 -0.389170 0.579035 0.665750 0.546226 0.013738 0.448795 0.366828 0.460377 -0.516180 0.038025 0.089149 -0.201158 0.179287 -0.112775 0.487582 0.009421 0.404801 -0.301317 0.998981 0.149826 0.256498 -0.019562 -0.598214 0.003208 0.435595 0.111735 0.284270 0.069838 0.107869 -0.342971 0.224438 -0.216900 -0.592115 0.127483 0.055752 -0.437590 0.045009 0.190980 0.065620 0.051787 0.457772 -0.013472 -0.102298 0.336319 -0.088264 0.838774 -0.218678 -0.179718 -0.346983 -0.308146 -0.109342 0.317922 0.256123 0.220269 -0.057682 -0.110198 -0.492771 -0.137746 -0.255636 0.358186 -0.031361 -0.212271 -0.162138 0.503091 0.159383 0.001034 0.249801 -1.122513 0.557892 -0.730170 0.223278 0.411463 -0.149887 -0.073187 -0.117427 0.161937 -0.536351 0.259652 -0.242225 0.045775 0.002881 0.252331 -0.558773 -0.076472 0.483664 -0.204732 0.529855 -0.624806 0.336982 0.195132 -0.026679 -0.121771 0.217302 -0.326667 0.282568 -0.107833 -0.283593 -0.117493 0.075932 -0.273570 -0.162852 -0.089308 0.159304 -0.153607
1386 0.330331 0.322518 0.137169 -0.155519 -0.080024 -0.248413 0.296646 -0.561797 0.021681 0.270053 0.182862 0.412027 -0.411458 -0.786105 0.234440 0.220866 0.077923 0.446065 -0.641815 -0.254474 -0.917397 -0.148637 0.096509 -0.662284 1.098369 -0.370547 1.644992 0.773346 -0.714515 0.228011 0.142310 -0.431882 -0.615801 0.143731 -0.440722 -0.287814 0.688540 0.458708 -0.163563 0.485842 0.280544 0.207052 0.173846 0.362118 0.107042 1.142123 0.113586 0.291704 -0.198738 0.480174 0.030534 0.197695 -0.223456 -0.203743 0.310665 -0.285883 -0.948490 -0.471562 -0.395057 -0.268483 0.334620 -0.537405 0.142601 0.554218 -0.014275 -1.052565 -0.280018 -0.617367 0.121514 -0.057236 0.075430 -0.583118 0.375049 0.475093 0.789163 0.173672 -0.791076 -0.812842 -0.455996 0.024331 0.128294 0.098212 -0.499877 0.641480 0.302452 -0.999750 -0.115273 -0.548326 -0.021048 0.017830 0.206849 -0.482255 1.025612 -0.010849 -0.667992 0.256708 0.269808 -0.203758 0.182665 0.488513 0.852014 -0.246249 0.191747 -0.069250 0.082041 0.725987 -0.649733 0.100352 -0.035901 -0.100599 0.975509 0.301476 0.234959 0.621142 -0.096047 0.040595 -0.645961 0.390296 -0.269144 0.200470 -0.403646 0.390294 0.357789 0.066598 0.053883 0.404889 -0.111013 -0.543324
495 -0.224756 0.597060 0.232847 0.023429 -0.663889 0.004979 0.232378 -0.213100 0.124885 0.002452 0.288546 1.107995 -0.158699 -0.144661 0.236920 0.098921 -0.234328 -0.457508 0.208617 0.198465 -0.603920 0.043789 -0.452174 0.782129 0.082510 -0.402875 0.456568 0.113167 -0.264095 -0.468139 0.618685 0.191196 -0.668410 -0.425424 0.001675 0.052390 0.326948 0.062995 0.032117 0.225370 -0.397228 0.058002 0.266687 0.183134 0.420378 -0.344203 0.004457 0.067348 0.047853 0.250579 0.290813 -0.276530 0.112135 -0.304708 0.126222 0.042489 0.116759 0.369542 0.052417 -0.296596 -1.081018 -0.063822 -0.460909 -0.142932 -0.429635 -0.374312 0.065700 -0.353417 -0.434990 0.155935 -0.002089 0.332865 0.161152 -0.026944 -0.151592 -0.128042 -0.289331 0.568168 -0.421974 0.704148 0.276395 0.494694 0.301905 -0.237944 0.211243 -0.328464 0.174382 -0.293343 -0.425309 0.115779 0.079122 -0.992620 0.138458 -0.401343 0.021927 -0.096490 0.271209 -0.032202 0.048680 0.301209 0.013478 0.116725 0.429720 0.228872 0.063864 -0.342790 -0.997879 0.081315 -0.289904 0.037048 0.911156 0.099213 0.072550 -0.053685 0.090270 -0.176869 -0.130947 -0.384177 0.424669 -0.265738 -0.191813 -0.112180 -0.082155 0.655339 -0.121294 -0.326161 0.143062 0.468407
202 -0.432163 0.063698 0.264604 -0.251504 -0.078458 -0.196974 0.091537 -0.032377 0.128842 -0.229747 -0.023789 -0.068763 -0.217494 -0.024057 0.401397 -0.222900 -0.519124 0.125286 -0.053166 0.354019 -0.206405 0.077858 0.342190 -0.171323 -0.803676 0.161724 0.383485 -0.326716 -0.357485 0.002732 0.824831 -0.236812 -0.492360 -0.495144 -0.044313 -0.277201 0.512067 0.032268 0.241889 0.447195 1.194525 0.259629 0.146250 0.362666 -0.143118 0.151075 -0.301111 -0.207508 0.269703 -0.074350 -0.134390 0.000652 0.603876 -0.566654 0.220893 -0.487129 -0.280949 0.230619 0.050616 -0.157712 -0.404454 -0.081325 -0.011808 -0.377926 0.147314 0.126717 1.132011 0.003872 -0.003864 0.022311 0.234652 0.350574 0.241827 -0.379145 0.755765 -0.151467 -0.259576 0.346347 -0.305520 0.659425 0.307509 -0.195328 0.299502 -0.346570 0.182034 -0.327056 -0.470111 -0.521273 -0.456845 0.199803 -0.123969 -0.511565 0.448242 0.260749 0.003474 -0.136967 -0.042705 0.029543 0.094312 -0.030708 0.028933 0.255201 -0.110246 0.429337 0.211911 0.136875 0.012842 -0.516667 -0.204835 -0.613815 0.184222 -0.261668 0.187601 0.215613 -0.015710 -0.098662 0.060448 -0.439705 -0.098421 -0.197203 -0.200275 -0.026050 0.115353 0.169778 0.286513 0.052365 -0.068276 0.780155
2996 0.767254 -0.294541 -0.085210 0.263735 -0.581966 0.474838 1.024448 0.310325 -0.900678 1.193468 0.280892 0.488528 -0.800015 0.590726 -0.734516 -0.274087 -0.138933 0.809887 -0.796512 -1.266981 -0.787275 0.035640 0.149477 -0.192952 0.305458 0.215446 0.866089 0.761621 -0.863168 -0.133618 -0.016192 0.150590 0.041786 0.089412 -0.018384 -0.415162 0.701710 -0.309836 0.914023 0.596523 0.955337 0.468348 0.142799 -0.738040 -0.937107 1.462516 0.326404 -0.844613 -0.020663 0.665964 0.730316 -0.631026 -0.009093 -0.134952 0.078047 0.075391 -0.607723 0.788901 0.207838 -0.971303 0.289253 -1.300329 0.013370 -1.079061 0.158707 -1.011170 -0.585340 0.273611 -0.552594 -0.262586 0.669443 0.228933 0.812257 0.327604 -0.294212 0.454787 -0.863934 0.067316 -0.558256 1.022517 -0.380410 -0.449958 -0.356075 0.304145 0.186672 -0.118661 0.804048 -0.837816 -0.311090 -0.222955 -0.026586 -0.457378 0.773667 -1.035009 -0.319940 0.452949 0.422176 -0.691227 0.547792 -0.308877 -0.274934 0.146566 -0.671290 -0.225213 0.618656 -0.229329 -0.412000 -0.148587 -0.093350 0.007590 0.907915 -0.348228 0.143854 -0.519471 0.304339 0.045651 -0.813748 0.619511 0.410813 0.112359 -0.273804 -0.318940 -0.274007 0.881845 -0.559743 0.722777 0.538767 0.712997
848 0.497863 0.475149 0.049233 0.263598 -0.400495 0.072099 -0.258773 0.007925 -0.176189 0.082415 0.133662 0.772122 -0.438469 -0.001068 -0.287975 -0.232412 -0.270132 -0.271467 0.000493 0.157507 0.059316 0.086547 -0.457043 -0.210529 0.052396 -0.355655 0.372917 0.197450 0.157675 0.109102 0.173858 -0.418677 0.036276 -0.223964 -0.021548 0.214746 -0.219406 -0.274437 0.369429 0.013949 0.274563 -0.158653 -0.247267 -0.118987 -0.077624 -0.009487 -0.588160 0.241630 -0.447197 0.407965 0.146134 -0.443357 0.326191 -0.605278 -0.049435 -0.398382 0.234709 -0.294347 0.086123 -0.417291 -0.338912 0.497103 -0.450841 -0.304495 0.671919 0.195138 0.466953 0.048954 0.314177 0.226301 0.154223 -0.096119 0.552303 -0.268734 -0.072603 0.179372 -0.165346 0.108660 -0.084471 0.505427 0.334547 0.077454 0.031452 -0.438889 0.187731 -0.346530 -0.422391 -0.122599 -0.334048 -0.219816 0.394525 -0.070888 0.231892 -0.284802 -0.286048 0.427730 -0.002172 0.018192 0.281043 0.419221 0.502420 0.353651 -0.186812 0.437167 0.349022 -0.262248 -0.356090 -0.236217 -0.189269 -0.202683 0.406231 -0.451444 -0.422880 0.277928 0.438877 -0.063747 -0.140837 -0.437332 -0.127896 -0.243589 -0.333120 -0.079878 0.195593 0.366144 0.077928 0.528508 0.015647 0.690371
389 -0.308805 0.771008 -0.358550 -0.440241 0.255482 -0.154442 -0.195699 -0.126275 -0.012019 -0.624875 -0.065366 0.435836 -0.549765 -0.023055 0.354147 -0.416098 -1.057474 0.127686 0.317037 -0.111337 -0.137808 0.215020 0.483278 -0.056865 0.037346 0.057563 0.335939 -0.886466 -0.452168 -0.718807 0.283430 -0.650666 -0.060689 -0.046869 -0.133269 0.335290 0.421737 0.121656 -0.723241 0.344303 0.343849 -0.142573 0.296326 0.133285 0.242489 -0.396254 -0.337142 0.098269 -0.101970 -0.048445 0.896477 -0.056941 0.426767 -0.638480 0.392335 -0.262771 -0.572666 0.392009 -0.148169 -0.103872 -0.046758 0.189908 0.510589 -0.388554 0.621694 0.139065 1.198989 0.227046 -0.726925 -0.300565 -0.258275 0.014601 0.063955 -0.009255 0.440283 0.037717 0.006248 0.234480 -0.730691 0.211446 -0.220786 -0.460131 0.009420 -0.321021 0.220534 -0.702951 -0.101958 -0.418335 -0.324615 0.070740 -0.015289 -0.542692 -0.069418 -0.519238 -0.084710 0.214627 0.218337 0.077499 -0.612092 0.271491 0.184922 -0.236887 -0.009269 0.209349 0.901857 0.219947 -0.157353 -0.198091 -0.258196 -0.455868 1.243536 0.890766 0.141321 -0.605156 0.439235 -0.681164 0.170494 -0.175796 -0.093678 0.113304 -0.411390 -0.259725 0.092786 0.356632 0.381096 -0.430583 -0.171036 0.368126
2832 -0.394374 -0.167613 0.020184 -0.419626 0.295128 0.765497 0.731431 0.072054 0.379866 0.644733 0.233534 0.379837 -0.569621 -0.106609 0.176709 -0.685572 -0.537665 0.161952 0.478989 0.272401 0.227425 -0.196884 -0.567761 -0.236491 -0.563178 0.042184 1.013466 0.259372 -0.665162 0.814067 0.418232 -0.002520 -0.263149 -0.355013 0.877078 0.343658 0.242155 0.864267 -0.503757 1.034926 0.529824 -0.022639 0.162459 -0.047619 0.898840 0.944249 0.082294 -0.231936 -0.136488 0.770865 -0.456364 0.207070 0.535048 0.348173 0.809049 0.450610 0.094643 -1.689733 -0.264457 0.134216 0.313937 1.065666 -0.187575 0.247777 1.104007 0.333254 0.151894 0.942228 -0.261386 0.317097 -0.632442 1.148636 -0.250626 -0.487700 -0.143678 -0.115220 -0.766643 0.070833 -0.689467 0.433005 0.563187 0.545222 -0.337099 0.136990 -0.941221 0.305491 -1.289116 0.009512 -0.008712 0.743227 -0.208838 -0.165409 0.561906 0.018474 -0.515987 -0.628414 -0.045557 1.007467 -1.412688 0.911969 -0.222673 0.104983 0.516226 0.448953 0.691562 -0.497512 0.490179 -0.240395 0.401742 0.234704 0.589202 0.486564 0.577243 -1.230721 1.414708 -1.122428 0.017487 -0.014428 0.398568 -0.558583 0.289606 -0.240822 0.879099 0.314561 -0.859469 0.332748 0.183148 -0.147850
1168 0.013997 -0.057756 -0.322368 0.410856 0.803322 -0.336323 -0.202848 -0.639364 0.686613 0.136478 -0.430985 -0.166393 0.312680 0.002075 0.546479 0.318182 -0.645132 -0.052673 0.110072 0.296478 0.506608 0.221952 -0.526168 -0.539218 -0.528572 0.023843 0.832598 -0.107218 0.023462 0.214715 0.115599 0.595752 -0.000406 0.180466 -0.196745 -0.169406 0.105290 -0.177325 0.443881 0.395330 0.118573 0.479881 -0.203278 0.555063 0.784963 -0.801542 -0.207950 0.640299 -0.006840 0.105825 0.165455 -0.678460 0.483186 -0.198201 0.546534 0.070999 -0.647642 -0.232105 -0.659775 -0.182108 0.342673 0.118192 -0.198473 0.060364 0.683897 -0.238714 0.429025 0.362697 0.196924 -0.478445 0.142517 0.155432 -0.225417 0.058180 0.230628 0.123671 -0.482354 0.097554 -0.379044 0.144900 0.091627 -0.257560 -0.388302 0.303186 0.262032 -0.390786 0.050174 0.082143 -0.290309 -0.086731 0.038682 -0.830847 0.035776 -1.031042 -0.488554 -0.156669 0.143211 0.035319 0.142471 -0.075938 -0.454259 0.036541 0.107132 -0.896069 0.221526 0.684558 -0.027130 -0.757893 0.294235 0.154226 0.638790 0.090004 -0.888337 -0.499782 -0.864379 -0.363837 -0.294571 0.202404 0.710950 0.460093 0.232552 -0.296460 0.023955 -0.015531 -0.809493 -0.137374 0.508465 -0.913249
441 0.459898 -0.297148 -0.273661 -0.048313 -0.058646 0.181272 -0.436281 -0.229460 -0.099066 0.212456 0.039266 -0.261163 -0.459011 0.197032 -0.299367 0.363885 0.044841 0.007172 0.139965 0.787487 -0.095022 -0.204515 0.305698 -0.080296 -0.449691 -0.077488 0.470218 0.043002 -0.693519 0.072639 -0.061691 0.079686 0.033902 0.088679 0.211106 0.232591 0.665339 -0.431183 0.212347 0.624872 0.384210 0.085432 -0.160944 0.550818 0.390233 -0.343247 0.500476 0.037440 -0.551118 0.598937 0.363135 0.368655 -0.134900 0.061973 -0.234191 -0.160892 -0.382342 0.017034 -0.047299 -0.136977 -0.354092 0.072642 -0.074001 -0.028363 0.308923 -0.518184 -0.007845 0.539254 -0.126596 -0.305158 -0.416629 0.099499 0.483386 -0.540281 0.205668 0.046368 0.087257 -0.145210 -0.565115 0.065026 -0.244563 -0.086738 -0.471427 0.639758 -0.189355 -0.014760 0.362045 0.272701 0.233505 -0.254319 0.128549 -0.049713 0.529486 0.354513 -0.261304 -0.401631 0.173626 0.123706 0.118286 -0.274021 0.587416 -0.070868 0.187763 0.313717 0.211737 -0.050210 0.099191 -0.023807 0.136647 0.212829 0.185514 0.201513 0.130645 -0.681046 0.621640 0.196246 -0.415462 0.086614 0.464539 -0.164230 0.398170 -0.176549 -0.121593 0.013572 0.267935 -0.285693 -0.083655 0.246423
1374 0.020828 -0.422323 -0.407888 -0.240449 0.111784 -0.595627 -0.491480 -0.054307 0.107079 0.554689 -0.565620 0.057910 -1.148523 0.728822 -0.087835 0.502996 0.197010 -0.180679 0.216864 0.161669 0.019342 -0.535883 -0.166043 -0.099293 -0.725467 0.232999 0.270598 -0.163466 -0.252285 0.151872 -0.103997 0.401362 0.050407 0.231982 0.674854 -0.196102 0.702376 -0.493324 0.156392 -0.087077 0.381137 0.059036 0.759617 -0.731124 0.070296 -0.194175 0.226252 0.056831 -0.161773 -0.498946 -0.067918 -0.089682 0.122090 0.271271 0.391252 -0.129281 -0.108843 -0.394960 -0.507133 -0.148089 0.018970 0.111265 0.208317 -0.069574 -0.367730 -0.305612 0.810544 0.104393 0.167946 -0.404871 0.613648 -0.332700 0.228905 -0.174708 -0.037269 0.095627 -0.547667 -0.398216 0.215479 0.670112 0.113263 -0.049614 -0.158225 -0.002696 0.791681 -0.089768 0.163425 0.044904 0.154134 0.479641 0.316934 -0.170677 0.300175 0.185675 -0.400781 0.293688 -0.385977 0.794564 -0.268244 -0.362306 -0.035999 0.369124 0.182886 0.075475 0.128125 0.154512 -0.155274 0.203735 0.351136 0.434838 0.976884 -0.048477 0.086791 0.159652 0.068711 0.301301 -0.357221 -0.093369 0.400945 -0.543727 -0.740241 -0.559655 -0.033228 0.019698 -0.179785 0.063190 0.105912 -0.748528
447 0.416232 0.317648 -0.104906 -0.326459 -0.151698 0.002418 -0.153674 -0.475736 -0.087492 0.269302 0.438857 -0.053855 -0.022361 0.413057 -0.246312 0.825824 0.471046 -0.110965 -0.076405 -0.355802 -0.105404 -0.554893 0.025775 0.178468 -0.375761 0.798527 0.056433 0.249047 0.115318 0.346445 0.290734 0.152879 0.119864 -0.141836 0.152425 0.286951 0.224942 -0.273265 -0.489491 0.086580 0.739940 -0.123157 0.262692 0.282553 1.093872 -0.303268 -0.833170 0.518182 0.183473 -0.068759 -0.250520 -0.025688 -0.125285 -0.542031 0.383618 -0.427218 0.061493 0.410958 -0.506347 -0.192055 -0.416872 0.358819 -0.001160 -0.132090 0.140631 -0.256209 0.406176 0.396552 -1.085337 0.496434 0.032277 -0.165657 -0.347828 -0.719279 -0.339135 0.561822 -0.467048 0.404133 -0.209313 -0.466430 -0.302126 0.098461 -0.194689 0.499030 -0.453639 -0.458557 0.273066 0.035556 -0.227663 0.138057 -0.331383 -0.570622 0.788036 -0.551218 -0.243530 0.231703 -0.173048 -0.406716 -0.223808 0.406177 0.174961 0.161357 -0.467212 -0.108157 0.259463 -0.360498 -0.242934 -0.033764 0.488401 -0.536797 0.652299 -0.050690 0.567795 -0.054442 0.002243 0.279956 -0.007666 -0.006346 -0.160672 -0.273337 -0.111413 0.384560 -0.372820 0.614337 -0.520786 0.198449 -0.267585 -0.350127
685 0.326858 0.312702 0.059771 -0.089483 -0.153859 -0.387967 -0.063848 -0.270249 -0.235227 0.584492 -0.071609 -0.367874 -0.222090 0.390133 -0.016093 -0.104035 -0.297355 0.247488 0.212196 0.059120 0.066626 -0.037213 0.162836 0.269051 -0.360770 0.345629 0.292870 0.337842 -0.121525 0.652120 -0.249170 -0.047343 -0.299589 0.287362 0.181201 0.721379 -0.258353 0.372274 0.012087 0.132092 0.320282 -0.135997 0.164123 0.468314 0.187584 -0.048250 0.200715 -0.050931 -0.484106 -0.527917 0.028872 0.112538 0.200098 0.052189 0.275964 -0.511127 0.212885 0.215001 -0.534315 0.269648 0.030828 -0.362032 -0.185591 0.191259 0.290103 -0.237628 -0.517182 0.323260 -0.244342 0.482632 -0.003282 -0.232688 0.333355 -0.027400 0.037467 -0.014092 -0.365645 0.439320 0.230529 0.553632 0.109546 -0.172987 -0.587696 0.092089 0.344344 0.056283 0.023921 -0.040313 -0.267785 -0.217849 0.213551 -0.224711 -0.104233 0.072206 -0.083372 0.152136 0.058868 0.174702 -0.303547 -0.070170 0.094442 0.257405 -0.281148 -0.043379 0.190669 0.157220 -0.283098 0.119643 0.333206 0.193019 0.515878 -0.218146 -0.128152 0.732366 0.406902 -0.085203 -0.128650 0.409490 0.259569 -0.219994 0.314481 -0.097194 0.091848 -0.162385 -0.242100 -0.438644 0.033405 0.119395
1759 -0.963599 -0.244215 -0.877823 0.279188 -0.579734 0.097778 0.597271 -0.265190 0.866895 0.650260 0.074152 -0.935719 -0.407868 1.031640 -0.401687 0.229204 -0.408277 -0.860429 -0.072955 1.363831 0.308772 -1.020045 0.191008 0.572708 0.097763 0.220380 0.575664 -0.461578 0.848846 1.332087 -0.025327 -0.872764 -0.637634 0.176824 -0.561097 -0.362194 0.591161 0.249412 -0.513206 -0.445431 -0.148698 0.040250 1.139110 0.122803 0.967743 -0.340146 -0.226217 0.198529 -0.679440 0.484895 1.005140 0.569969 0.882515 0.229691 0.772501 -1.017958 -0.675452 -0.270826 0.918675 -0.552411 -0.644916 0.491393 -0.274426 0.440390 1.270264 0.347856 0.527044 -0.033842 0.989805 0.321994 0.771374 0.692491 0.176537 0.247500 0.492383 -0.553342 -0.237587 -0.292452 -0.073052 -0.110997 0.348048 -0.499486 -0.375879 0.274879 -0.153995 -0.403132 -0.836015 -0.293177 0.221592 -0.017401 0.589689 -1.601602 0.029101 0.592331 0.089973 0.389348 -0.118136 0.433629 -0.270778 0.675506 -0.146020 0.310820 -0.457095 0.651066 0.785030 0.610750 0.442214 1.158245 0.883169 0.014817 0.620273 0.010525 0.288933 -0.690121 -0.103774 -0.857407 0.251545 0.736532 0.635416 -0.162192 -0.023341 -0.362913 0.825784 0.621268 0.187333 0.116099 -1.010456 0.147081
522 0.194883 -0.209869 -0.185701 -0.207488 -0.046973 -0.181891 -0.124621 -0.114726 0.286721 0.332311 -0.325813 -0.435127 -0.551743 0.100232 -0.248876 0.166917 0.222640 -0.174889 0.423604 0.156944 0.010343 -0.068341 -0.144393 -0.255385 -0.324280 -0.101476 0.443244 -0.301065 -0.313597 -0.012257 0.062708 0.374571 0.177905 -0.069464 0.824598 0.083775 0.329781 -0.100118 -0.222453 0.030092 0.218941 0.191459 0.621978 -0.055316 0.171748 -0.214239 0.048728 0.152945 -0.028712 -0.010296 -0.163760 -0.465650 -0.054438 -0.130658 0.418912 0.029215 -0.216658 -0.175777 -0.288528 -0.401533 -0.048831 -0.182968 0.188461 0.031860 -0.141582 -0.014768 0.167891 0.205850 0.010960 -0.111316 0.794984 -0.059661 0.439281 -0.142604 -0.069134 0.092535 -0.395774 -0.326716 0.235324 0.292121 -0.023390 -0.139556 -0.043998 0.297159 0.288595 0.221472 0.067421 0.058271 0.516393 0.119781 0.363727 0.350348 0.331378 -0.000182 -0.235101 0.077442 0.237674 0.254156 -0.199874 0.039362 0.346985 0.283248 0.554132 -0.250910 0.262521 -0.120814 -0.231054 -0.179682 0.635706 0.394025 0.847889 0.091567 0.175956 0.482557 0.075807 0.172433 -0.083333 0.102308 -0.012569 -0.432142 -0.353856 -0.070082 -0.000653 0.182563 -0.039008 -0.133121 -0.132710 -0.230674
429 0.094887 -0.474318 -1.008116 0.284768 -0.165340 -0.209941 -0.315753 0.613239 0.348064 -0.060709 0.141083 -0.061653 0.214314 0.318817 -0.085841 0.489861 0.049703 0.362569 0.164405 0.205365 0.239543 -0.932668 0.170458 -0.145879 0.210132 0.203064 0.906230 0.215937 0.112983 -0.013484 0.071958 -0.048672 -0.089913 -0.170046 0.003286 -0.081914 0.228132 0.120116 1.004354 -0.031940 0.197957 -0.108040 0.265439 -0.028891 -0.077071 0.315359 -0.218012 -0.086555 0.226384 0.041104 0.649937 -0.044188 0.345674 -0.216944 -0.159608 -0.040616 -0.653683 0.043976 -0.461194 0.012688 -0.122095 0.213392 0.042902 -0.370031 -0.003487 -0.409779 0.066096 0.004664 -0.123278 -0.103800 0.874972 0.293978 -0.140458 -0.619100 -0.357940 -0.286009 0.246760 0.703812 -0.415471 -0.263849 -0.099725 -0.437060 -0.167681 -0.278603 0.164314 0.239866 0.042670 0.591267 0.084603 -0.223905 0.371815 -0.560500 0.396743 -0.327090 -0.056793 0.069760 -0.017589 0.251176 -0.444030 0.519495 -0.390925 0.130757 -0.237057 0.082071 -0.275917 0.780718 0.101884 -0.462715 0.250133 0.192407 0.654124 -0.100230 0.196738 0.353386 -0.035052 -0.338279 -0.018461 0.260254 0.320696 -0.129573 -0.180458 0.489022 -0.035203 -0.675557 -0.403360 -0.049828 0.113214 -0.101329
1083 0.187326 0.000692 -0.179286 -0.774187 -0.305910 0.593221 -0.396349 -0.397799 0.308566 0.069231 0.167091 -0.482138 0.080905 -0.222154 -0.380490 -0.191031 0.234850 0.482266 0.478494 0.518196 -0.069233 -0.374601 -0.449563 -0.496321 0.014454 -0.362054 0.567837 -0.323688 -0.275214 0.400671 -0.793014 -0.423303 -0.830022 -0.483308 0.780730 -0.293626 1.089296 0.053705 0.465346 -0.083867 0.554461 -0.071732 0.513667 0.772005 0.508134 -0.355038 0.043020 0.192797 -0.539976 0.471860 0.871814 0.060490 0.129808 0.091947 0.348477 -0.976625 0.085212 -0.091526 0.267869 0.420793 0.554554 0.255905 -1.044972 0.326500 -0.008107 0.026447 0.163845 0.104449 -0.486315 -0.166994 -0.464150 -0.611623 -0.160262 -0.035950 0.208442 -0.234467 -0.027543 0.041570 -0.196536 0.380964 -0.278561 0.298212 0.167798 0.454799 0.159831 0.174793 0.126108 0.118611 0.109684 0.000023 -0.171166 -0.062915 0.925165 -0.258084 -0.719589 0.379116 0.702017 0.084428 0.053617 -0.376548 -0.117736 0.068331 0.183867 0.139363 0.795843 0.325875 -0.774427 -0.512715 -0.853047 0.511936 0.078179 -0.497104 -0.216066 -0.662922 0.833486 0.056609 0.230243 0.013090 0.499012 -0.168661 -0.492246 -0.972517 -0.179089 0.050374 -0.024964 0.293548 -0.158415 -0.133590
506 0.359202 0.032113 -0.583556 -0.407298 -0.576453 -0.513813 -0.440854 -0.080740 0.370889 -0.079052 0.050127 0.233956 0.368118 -0.189946 0.430043 0.045610 -0.639365 -0.709797 -0.067860 0.294420 0.406493 0.388046 -0.196827 -0.041262 -0.430899 -0.277781 0.496011 -0.134856 -0.205265 -0.324386 0.431671 -0.190501 0.107909 0.137825 0.191032 -0.062825 0.148093 -0.154173 0.712923 -0.212806 0.623261 0.330721 0.405073 0.357933 -0.006789 0.507671 0.142127 -0.137449 0.063951 0.521205 -0.004925 -0.203204 0.518941 -0.505476 0.266166 -0.239661 -0.172705 0.308181 0.166544 0.061442 -0.645051 0.410200 -0.810727 -0.563699 0.432875 0.197965 0.603699 -0.769393 -0.677054 0.262193 -0.032260 0.443366 0.245585 -0.287789 0.445950 0.295841 -0.360835 -0.331890 -0.374935 0.723149 0.459206 0.034479 0.098176 0.013831 -0.138196 -0.007757 -0.598414 0.368243 0.022918 0.167495 -0.697954 -0.567963 0.029022 0.211425 -0.189983 0.864205 0.226569 -0.208947 -0.500165 0.412306 0.347257 0.009267 -0.038060 0.741666 0.454396 0.303000 0.408854 -0.478024 -0.286675 0.055993 0.100949 0.192253 0.055660 0.622792 0.072436 0.060403 -0.153546 -0.254868 0.365230 -0.354743 0.036472 0.003617 0.065765 0.135168 -0.040168 0.090130 0.280628 0.306415
40 -0.399532 0.329963 -0.120915 -0.178320 -0.900527 0.117777 -0.122605 0.677050 -0.175150 0.470249 0.464012 0.118050 -0.325315 0.141294 0.333207 0.063394 -0.198540 -0.065392 -0.082058 0.105507 0.239668 0.394897 -0.052864 -0.170327 -0.079064 -0.452301 0.284977 -0.180964 -0.331075 -0.231838 0.278831 0.161266 -0.052627 0.159392 0.198766 0.026808 -0.146240 -0.170000 0.790674 -0.095544 -0.489348 0.130892 0.306472 0.074171 0.248532 -0.117962 -0.462177 0.201841 -0.137560 -0.296520 0.023442 0.152390 -0.170806 -0.055138 0.142570 0.134507 0.017794 -0.095066 -0.297221 -0.250189 -0.656535 0.292019 -0.276611 0.215041 0.297745 -0.510418 0.632126 0.240081 -0.207016 -0.101620 -0.283650 0.556981 0.336851 -0.272775 0.149564 -0.185108 -0.178036 0.229489 -0.520970 0.669672 0.121971 -0.089651 -0.364401 -0.664344 0.565051 -0.079581 0.084893 0.031182 -0.837840 0.089398 -0.701493 -0.369748 0.609904 -0.399574 -0.012823 0.577313 -0.141764 0.305290 -0.009724 -0.147783 0.212242 -0.535778 -0.154821 0.018306 0.439334 0.142202 0.013582 -0.335505 -0.474453 0.408937 0.303259 -0.115677 0.387908 0.770756 0.202107 -0.058417 0.149078 -0.096869 0.400768 -0.353863 -0.009913 0.129883 0.380039 0.786959 -0.271657 0.219590 0.549751 0.710243
1747 -0.104512 -0.194699 -0.903979 -0.605412 -0.063101 0.191879 -0.416845 0.238991 -0.607042 0.108709 0.420650 -0.835715 0.251361 -0.700753 0.373314 0.301600 -0.376735 0.539665 0.362593 0.734875 0.070600 0.459681 -0.374681 0.141806 0.602865 -0.413538 0.715572 1.183147 -0.599956 0.114959 -0.332985 -0.740596 0.143794 -0.474427 -0.665411 -0.559260 0.642841 0.701812 -0.313998 0.120726 0.202366 0.126789 0.427301 0.560372 0.323877 -0.051956 -0.166695 0.191135 -0.505285 -0.323996 0.068834 0.195379 -0.248096 -0.105621 1.557440 -0.265294 0.020076 -0.551115 -0.616243 -0.474534 -0.066579 -0.005078 0.000362 0.008350 0.480984 0.525552 0.117084 -0.636682 0.541499 0.319250 0.198175 -0.234794 0.151828 0.147293 0.440138 -0.537149 -0.601397 0.112242 -0.350869 0.423512 -0.195193 0.171934 0.125716 -0.315192 -0.463395 -0.205784 -0.129889 -0.421051 -0.146761 -0.317653 -0.178902 -0.235618 1.001646 -0.367582 -0.425219 -0.207237 -0.222332 0.003121 0.073707 -0.537756 1.174255 -0.402876 0.275974 -0.268329 0.176827 0.472293 0.211885 0.387962 0.129789 -0.241268 0.815675 -0.145920 -0.825960 0.756306 0.235001 0.142016 -0.742823 -0.072310 -0.267385 0.335975 -0.981505 -0.039524 -0.743904 0.434894 -0.475583 0.194550 -0.216203 -0.349507
855 -0.161711 -0.430004 0.650871 0.246653 -0.540424 -0.081428 -0.513240 0.265217 -0.641363 0.025757 -0.002316 0.017101 0.059519 -0.666522 -0.019131 -0.298759 -0.039763 0.101322 -0.434594 0.125902 0.154931 0.077510 -0.714029 0.238548 -0.009307 -0.336256 0.168828 0.657100 0.345364 -0.479244 -0.211366 -0.169131 0.142211 -0.259344 0.846474 0.721365 0.353460 0.951153 0.103116 -0.039496 0.407439 -0.372594 0.566936 -0.011911 0.191102 0.128883 0.003156 -0.261162 0.057551 0.486970 0.673608 0.134555 0.631334 -0.074070 0.092955 0.074704 -0.280401 -0.017301 0.002441 -0.495150 -0.216421 0.455667 0.058348 0.374496 0.189593 0.738948 -0.039545 -0.006761 -0.085014 -0.170920 0.033118 0.802543 0.056154 -0.177490 -0.046446 0.264731 -0.676218 0.765016 0.110646 0.407502 0.083285 0.422764 0.014445 0.779184 -0.015275 0.065028 0.264620 -0.289181 0.397093 -0.044937 -0.209278 -0.345306 0.279346 0.472206 -0.652930 -0.070095 -0.226399 0.505804 -0.479450 -0.564072 0.551611 -0.706075 -0.233864 0.077293 0.373709 1.367523 -0.224014 -0.070579 0.536797 0.056711 0.481483 -0.193357 -0.054538 -0.096814 -0.207170 0.184073 -1.072764 -0.356516 0.376820 0.153525 -0.087656 0.041443 -0.270472 0.603221 0.324516 0.299931 0.125747 0.109293
916 0.254563 -0.303640 0.419546 0.409842 0.116715 0.323135 0.249459 -0.058457 0.043553 -0.265179 0.547054 -0.823496 -0.032485 -0.088038 0.258119 0.398111 -0.095421 -0.869182 0.030280 -0.401716 0.359554 -0.218720 -0.203458 0.203502 0.117954 -0.705152 -0.175865 -0.004648 -0.360813 -0.135764 0.166145 -0.444277 -0.688197 0.452976 -0.127594 0.410027 0.419586 0.412889 0.538996 -0.252965 0.332023 -0.285401 0.723559 -0.096006 0.154583 0.266189 -0.413141 0.404881 0.126115 -0.009812 0.086541 -0.101640 0.387250 -0.341567 -0.009326 -0.249820 -0.122562 -0.060848 0.046566 -0.288595 -0.246305 -0.320643 -0.391715 -0.272710 0.087066 -0.003122 0.442543 0.269800 0.396116 0.162723 -0.051786 0.313486 0.497447 -0.373864 0.664788 -0.313066 -0.544161 0.043470 -1.028213 0.598677 0.228432 0.287582 0.315618 -0.356310 -0.109315 0.100928 0.351081 0.254133 0.169419 0.571897 0.399251 -0.545941 0.046517 0.019435 -0.297960 0.864314 0.089105 -0.026885 0.399786 0.164887 -0.315354 -0.330397 -0.343404 0.064568 0.686206 0.158073 -0.342519 0.198328 -0.128058 0.015298 0.787577 -0.268768 -0.489405 0.074269 0.380457 0.076834 -0.404608 -0.057465 0.616922 -0.421273 0.148927 -0.076920 -0.356589 0.366776 -0.108121 0.226856 0.049752 0.273486
1980 -0.323767 -0.030535 -0.185179 -0.275888 -0.573050 -0.333758 0.332840 -0.052236 0.159849 0.190494 0.041921 0.005621 -0.683437 -0.347314 -0.455283 0.454600 -0.183149 0.083158 -0.233487 -0.157594 0.236126 -0.133816 0.141338 0.233552 -0.089755 0.045563 0.190716 -0.327928 0.514117 -0.398745 -0.696437 -0.611476 -0.397651 0.350648 0.101660 -0.035018 0.373531 0.121839 0.284990 0.407324 0.307518 -0.156556 0.343154 0.022811 0.457254 -0.037539 -0.078373 0.280685 -0.063069 -0.304729 -0.004564 0.466740 0.079658 0.036970 1.013133 -0.486016 -0.088758 -0.004229 -0.277319 -0.587873 -0.113575 -0.494177 -1.039904 -0.462101 0.383087 0.335007 -0.009687 -0.184375 -0.357019 -0.669796 -0.371737 0.651796 0.439021 0.669634 0.038054 0.185194 -0.046277 0.330657 0.062633 0.001602 0.542740 0.199904 0.374991 -0.058798 0.949350 0.038233 0.780159 0.137855 0.765415 -0.212269 -0.304299 0.369685 -0.038219 0.055330 -0.337739 0.090007 0.100547 0.073860 -0.275107 0.215628 -0.348034 -0.337114 -0.051210 0.109080 -0.206370 0.438444 -0.108012 -0.006814 0.679436 -0.560440 0.634424 0.196547 0.333944 -0.541973 0.207160 0.075698 -0.443723 -0.233764 0.444873 0.043082 -0.220682 0.025720 0.073958 -0.014067 -0.026036 0.317822 -0.023660 0.701106
1727 0.585702 0.423527 -0.192087 0.191228 -0.451654 0.262749 -0.594690 -0.129937 -0.277717 -0.391855 -1.075829 -0.078948 -0.076477 0.307884 -0.348228 -0.336052 0.145634 -0.014238 -0.200859 -0.057210 0.022477 -0.072343 0.108590 -0.324115 -0.321723 0.812313 0.314900 0.234201 0.687249 -0.151382 0.108441 0.013514 -0.137227 0.182214 -0.116211 -0.272092 0.428131 0.427878 0.414921 -0.320520 0.608324 -0.357394 0.223344 -0.302492 -0.212394 -0.137231 -0.165026 0.967532 -0.117534 -0.412832 0.257636 -0.829417 -0.736223 -0.071279 0.985357 -0.298765 -0.537620 -0.561481 -0.533314 -0.212633 -0.229529 0.630266 0.281538 -0.059306 -0.000292 -0.701554 0.636733 -0.211077 -0.024468 -0.576443 0.951174 0.407287 0.091411 0.667723 -0.120641 0.576201 0.180969 -0.697665 -0.054342 0.120643 0.480204 -0.304910 0.169886 0.042332 -0.167170 -0.633053 0.269576 -0.200191 0.463324 0.347146 0.319851 -0.922807 0.403537 0.008555 -0.584293 0.599940 0.147302 0.516011 -0.101023 0.396374 0.340808 -0.160382 0.344258 0.853809 0.491818 0.603223 -0.154216 -0.078186 0.031537 0.459613 0.111514 0.311023 -0.343669 -0.024187 -0.675159 0.216417 -0.856199 0.027624 1.037723 -0.220193 -0.429845 -0.772119 -0.956100 0.160920 -0.637271 -0.226893 -0.156953 -0.523749
1637 0.206905 -0.256614 -0.863518 0.099241 -0.658595 0.026191 -0.474799 -0.391923 0.006625 1.099126 0.293172 0.231769 -0.097425 0.720552 0.342214 0.400241 -0.036566 -0.377684 0.115206 -1.058652 0.096051 0.121395 0.161350 -0.131426 -0.180836 0.173401 0.433239 0.043679 -1.067273 -0.318619 -0.114614 0.027154 -0.488996 0.547603 0.298857 0.460415 0.226121 -0.500533 -0.058531 0.236228 1.192398 -0.141553 1.122175 0.072827 0.087323 0.201444 -1.087107 -0.052017 0.242359 -0.581573 -0.435930 -0.105138 0.091457 -0.229089 0.773651 0.238938 -0.277699 -0.177524 -0.098763 -0.407200 -0.784340 0.665442 -0.101572 0.388752 -0.386811 -0.059004 -0.105668 0.510498 0.074687 -1.149229 0.209068 0.055543 0.205880 -0.234073 0.133971 -0.581618 -0.255980 0.102256 0.496180 -0.393320 0.236542 0.770226 -0.443461 -0.798990 0.706614 -0.041077 0.020580 0.488641 0.836098 0.087659 0.115473 -0.684526 0.492117 0.068591 -0.541577 0.885781 1.030765 0.461374 -0.598829 -0.908499 0.958040 -0.535521 -0.059275 0.188965 0.447290 0.563491 0.723618 -0.092616 0.339636 0.067991 0.704773 -0.981604 0.150041 -1.067212 -0.040078 -0.143858 0.396195 0.835377 -0.004966 -0.053610 0.466640 -0.697530 -0.414848 0.154676 0.138177 -0.701752 -0.162531 -0.329651
1811 0.043186 0.044326 -0.440103 -0.051814 -0.367112 -0.093833 -0.446027 -0.036879 -0.623378 -0.140160 -0.819927 -0.398133 0.205710 0.224711 -0.120908 0.075018 0.212131 -0.068014 0.187844 0.092900 0.268409 0.008733 -0.306215 0.051425 0.155311 0.307276 0.649095 0.106385 1.192577 0.125632 0.496276 -0.301896 -0.211883 0.214208 -0.162008 -0.001702 0.130113 0.385231 -0.128610 -0.129558 1.099528 -0.330798 0.157946 -0.332522 -0.403746 0.269930 0.119018 0.917480 0.110274 -0.210370 0.208837 -0.520251 -0.524179 0.336652 1.025858 -0.027338 -0.319886 -0.500532 -0.319917 -0.134097 -0.761407 0.683745 -0.106664 -0.019497 0.341284 -0.403049 0.587635 0.252885 -0.326880 -0.458929 0.656295 0.577179 0.032047 0.517003 -0.011902 0.736235 0.410401 -0.350341 -0.079475 -0.047285 0.291093 -0.324183 0.001709 -0.169077 -0.312828 -0.239932 0.471073 -0.179219 0.066940 0.182802 0.450817 -0.747458 0.143378 -0.003239 -0.572375 0.480478 -0.151493 0.575352 0.129756 0.084668 0.117012 0.179367 0.258989 0.725823 0.544758 0.569172 0.110056 -0.113753 -0.093110 0.202408 -0.067017 0.116381 0.058213 -0.199330 -0.408120 0.249258 -0.825038 0.031347 0.994330 -0.366309 -0.407743 -0.683896 -0.674368 0.201616 -0.608041 0.076329 0.047194 -0.359629
3043 -0.516069 -0.365318 -0.412539 -0.217048 0.007390 -0.243234 0.151725 0.058848 0.082687 0.707058 0.268562 0.146616 0.209025 -0.076456 -0.169296 0.503310 0.093801 -0.313691 0.197388 0.319883 0.194002 -0.499535 0.086115 -0.585053 -0.632522 0.546505 1.487729 0.224519 0.455677 -0.238802 0.192239 0.191251 -0.342049 -0.132769 0.152746 0.057687 -0.300864 0.493636 0.640265 0.031593 0.156713 1.279134 0.874888 -0.912624 -0.638942 -0.206600 0.239612 0.395554 -0.270720 0.355766 1.193038 0.271296 -0.544986 -1.104812 0.094442 -0.165312 0.322391 0.971498 0.201568 -0.378715 -0.495811 -0.069716 -0.576029 0.055851 0.368365 -0.300515 -0.302660 -0.679086 -0.002195 0.021794 0.405033 0.264626 0.905937 -0.118531 0.042289 0.696700 -0.601522 1.055036 -0.339664 0.156389 -0.112254 -0.566588 -0.015261 -0.519047 -0.335654 -0.325608 0.745217 -0.618390 0.197023 -0.020869 -0.233727 -0.130427 0.361504 0.758790 -0.562868 0.348099 -0.130801 -0.019682 0.018872 0.253098 -0.107409 -0.206675 -0.036621 -0.431980 0.822329 0.143112 -0.892327 -0.101368 0.120663 0.015944 0.740420 -0.111313 -0.315207 -0.949592 -0.206625 0.174915 1.356244 0.240010 0.456791 0.861312 -0.155642 -0.565925 -1.387242 -0.415963 -0.843623 1.052144 0.129278 -0.009018
57 -0.623767 -0.408881 -0.215633 0.364491 -0.262351 -0.462472 -0.412266 0.480589 0.107491 -0.041316 0.500223 0.020250 0.174029 0.430007 -0.554831 -0.639360 -0.199086 -0.109786 0.271011 0.752857 0.455913 -0.399844 -0.098470 -0.224767 -0.428424 0.317660 0.306931 0.313968 0.664661 -0.043636 -0.240265 0.269897 -0.475859 0.451601 0.344285 0.037928 0.082125 -0.246282 0.049763 0.164350 0.268022 0.782997 0.131711 -0.058032 -0.388483 0.546567 -0.550138 -0.110328 0.569331 0.179436 0.564813 0.176368 -0.104801 0.228125 0.746320 -0.446131 -0.224432 -0.074639 0.247637 -0.805562 -0.471630 -0.251892 -0.424423 0.794663 0.635478 -0.009762 -0.039614 -0.632456 -0.211473 0.615836 0.072209 0.167326 0.526356 -0.385889 0.572987 -0.440980 -0.277056 0.407848 -0.537071 0.278725 0.317329 -0.026286 0.293223 0.046355 0.652258 -0.320219 -0.269211 -0.101521 0.277211 -0.072514 0.642278 0.204578 -0.252326 -0.506591 -0.633909 0.147042 -0.489489 -0.229437 -0.191767 0.604506 0.318853 0.189138 -0.273789 0.257817 0.603396 0.186805 -0.008083 0.809985 -0.017882 -0.286200 0.267912 -0.172786 -0.083921 -0.322227 -0.163489 0.559368 -0.065595 -0.434195 0.218606 -0.110448 0.556346 -0.323999 -0.267315 0.683057 -0.627752 -0.212451 0.742426 -0.024409
810 -0.432798 -0.050644 -0.606275 -0.540224 -0.284369 -0.455433 0.076263 0.036236 -0.828635 0.145858 0.306566 0.021897 -0.125518 -0.211478 0.385380 0.012926 -0.236182 0.730823 -0.196691 -0.164288 0.056645 -0.284056 -0.095444 -0.343463 0.075968 -0.542417 0.232816 -0.020475 0.127999 -0.466050 -0.144130 -0.161505 0.191678 0.085488 0.246703 -0.203891 0.246626 -0.002795 0.542724 0.274117 0.033423 0.620208 0.062812 0.254227 0.318472 -0.976118 -0.536974 -0.333191 -0.192240 -0.003863 0.244601 0.389391 -0.034742 -0.261281 0.430204 -0.352820 0.201546 0.306911 0.406302 -0.288693 -0.798587 0.113643 0.375108 0.540728 0.733473 0.520844 0.214129 0.298142 0.208641 0.019460 0.127105 0.241914 0.292436 0.339630 0.256362 -0.145260 -0.263448 0.129319 -0.245607 1.216267 -0.221815 -0.241820 -0.511834 -0.717789 0.028168 -0.505291 -0.056796 -0.347162 -0.027378 0.034880 -0.143255 -0.282553 0.734600 -0.533744 -0.388454 0.169538 0.391501 0.902518 -0.523605 0.344586 -0.307275 -0.029061 -0.096195 0.855226 -0.087347 -0.532769 0.271372 -0.532871 -0.091172 0.332480 0.759297 -0.251813 -0.219501 0.086763 -0.038603 -0.195713 0.138038 -0.322563 0.530879 0.930390 -0.089207 0.189091 -0.942067 0.213884 -0.378022 0.158033 -0.173806 0.245353
1500 0.639239 0.114779 -1.063597 -0.424891 0.352579 0.543012 -0.089329 -0.553496 0.248724 0.037968 -0.191486 -0.450402 -0.294216 0.422704 0.130010 -0.252198 0.637670 0.146885 0.357343 0.831761 0.064960 -0.088151 0.181715 -0.498465 -0.471196 -0.472198 0.650743 -0.196755 0.016558 0.476004 -0.242856 -0.098028 -0.170864 -0.040994 -0.143717 0.411953 0.808690 -0.376952 0.095901 0.658655 0.262583 0.225981 0.452610 0.519720 0.136809 0.242195 -0.104993 -0.325875 -0.469592 0.156484 -0.075719 -0.077645 -0.127566 0.366425 -0.215901 -0.100958 0.070230 -0.177809 -0.342202 -0.289174 -0.144069 -0.033508 -0.359461 0.176888 0.312117 -0.420930 -0.144260 0.449208 -0.627838 -0.234943 0.004447 0.185967 0.576930 0.376647 0.383520 0.003506 0.266587 0.780945 -0.124510 0.071753 -0.135703 0.026059 0.193357 -0.118111 0.052655 -0.151010 -0.004081 0.237924 0.347338 -0.180315 -0.223297 0.387680 0.523829 0.583901 -0.562081 -0.298116 0.904460 0.010388 0.122705 0.200747 0.883610 -0.095743 -0.186336 0.228431 0.049514 0.530477 -0.515380 -0.740688 -0.521967 -0.119729 0.865322 -0.422293 0.251628 -0.224702 0.630431 0.657286 0.314825 -0.306001 0.443481 0.300541 0.573430 -0.547751 0.019197 0.511651 -0.488391 0.387133 -0.067300 0.447026
51 -0.080511 -0.249405 -0.232317 0.379078 0.089495 0.156513 -0.307809 0.077002 0.118178 0.109561 0.047911 -0.472867 -0.406881 0.392116 0.103376 0.257178 0.044756 0.157747 0.242933 0.265114 -0.187919 -0.030992 0.411016 0.261022 -0.069419 -0.229332 0.403691 -0.398712 -0.165396 0.123038 -0.266124 0.229165 0.354407 0.166902 0.091001 0.154348 0.053677 0.261409 -0.218246 0.129083 0.279812 -0.059767 0.166106 0.122722 0.499614 0.311240 0.122394 -0.076584 -0.026144 -0.016850 -0.151169 -0.230503 0.167659 -0.359361 0.377449 -0.204979 -0.156680 0.005566 -0.154125 0.105941 -0.298967 0.397282 -0.274537 0.100977 0.047595 0.034618 -0.124866 -0.055436 -0.170795 0.093907 0.188075 0.373000 0.206712 -0.502122 0.325076 -0.195563 -0.048583 -0.164335 0.144887 0.372771 -0.277214 -0.181204 -0.229265 0.080743 -0.297062 -0.471006 0.395045 0.492309 0.150982 0.216420 -0.083489 0.446570 0.483596 -0.599618 -0.525251 -0.252351 0.024104 -0.095619 -0.101254 0.077155 0.149300 0.172948 0.662015 -0.334354 0.100013 -0.096453 -0.258447 0.056598 0.481373 -0.028733 0.407046 0.062779 -0.183988 0.451274 -0.059380 -0.041125 -0.098893 -0.040562 -0.106119 -0.461643 -0.078119 -0.589989 -0.244055 -0.114642 -0.204192 0.004980 0.369865 -0.115232
2137 0.556330 -0.454011 0.123221 0.766376 0.121806 0.921933 -0.373060 0.368736 0.566356 -0.083895 1.008308 -0.612249 0.488889 0.132601 -0.855279 0.126104 -0.164719 0.015812 0.110674 1.055570 0.268777 -0.269431 0.246893 -0.598693 -0.216088 0.341544 -0.079910 0.514872 0.272906 0.342092 0.505692 0.484304 0.843492 -0.715919 -0.246848 -0.134572 0.493233 -1.102186 0.362109 -1.118766 0.094410 -0.284141 0.861797 1.031238 0.113984 0.206911 0.293624 -0.339938 -0.220193 0.417920 -0.457143 -0.681933 0.879475 0.647531 -0.017722 -0.443826 -0.363462 0.873046 0.490123 -0.324792 -0.381220 0.066497 -1.204683 0.152298 1.261648 -0.219362 0.405093 -0.148668 -0.382609 -0.358737 0.072380 0.345085 1.104030 0.245681 -0.601359 -0.360627 0.100580 -0.442055 -0.543962 1.154949 -0.308506 0.108900 -0.380384 -0.946690 0.444160 -0.192666 -0.622666 -0.138252 -0.751092 0.461486 -0.079874 -0.527879 0.577939 -0.538692 -1.181608 0.181821 -0.174964 0.054521 -0.911026 0.625195 1.462617 0.258648 -0.188043 0.816497 0.910727 0.625073 -0.782127 -0.278117 0.405297 -0.217523 1.737727 0.210802 -0.130574 -0.522450 -0.014521 -0.017421 -0.431144 0.966120 -0.355099 0.391542 -0.529038 -0.208717 0.262279 0.818621 -0.667283 0.355268 0.145839 0.008800
769 -0.162188 -0.046290 -0.273189 0.333539 0.027720 -0.232088 -0.320378 -0.632483 -0.155648 0.771351 -0.505522 -0.149207 0.055048 0.064896 0.124280 -0.110033 -0.511899 -0.081151 0.197320 0.278766 -0.055671 -0.116130 0.374242 0.028021 -0.209246 -0.258988 0.463688 0.179018 0.380516 0.563281 0.021146 -0.068164 -0.282235 0.052783 -0.150022 0.457498 -0.611073 0.291210 0.018079 0.309666 0.050103 -0.338362 0.243853 0.856621 -0.073941 0.114855 -0.030335 0.145270 -0.247316 -0.000946 -0.097647 0.240732 0.291674 -0.383366 0.365689 -0.509254 0.140176 0.113248 -0.474754 0.318140 0.409668 0.031835 0.085770 -0.001922 0.338102 -0.052045 -0.062063 -0.169371 0.011620 0.334727 0.017753 -0.372743 0.587091 -0.181088 0.169562 -0.057891 -0.205669 0.204004 0.245047 0.307291 -0.025074 -0.103259 0.055931 0.332417 -0.151287 0.222635 -0.031990 -0.228215 0.400912 0.058920 0.306622 -0.018372 0.366173 -0.430674 -0.461182 -0.083907 0.101856 0.532030 -0.409938 -0.307436 0.012412 0.306449 -0.347301 -0.079171 0.429211 -0.159379 -0.359504 0.180957 0.173755 0.155578 0.619450 0.105154 0.437431 0.601252 0.194616 -0.173181 -0.405890 0.430029 0.441763 -0.164634 0.477117 0.046249 0.194771 -0.011069 -0.227290 -0.684229 0.163043 0.182305
218 -0.170526 0.143451 0.419841 -0.075492 -0.141121 -0.128601 -0.778201 0.167803 0.324513 0.441733 0.441673 -0.390216 -0.058833 0.337558 -0.012686 0.430398 0.582996 0.204320 -0.062617 -0.162746 0.226367 -0.426770 0.746814 0.018394 -0.152685 0.497763 0.697804 -0.107909 0.010935 0.276624 -0.218816 -0.251532 -0.023976 -0.147292 0.253578 0.668231 0.284958 0.698866 0.551624 0.384449 0.063240 -0.008023 0.205194 0.172132 0.557578 0.405042 0.158246 -0.383706 -0.737645 -0.440789 0.533318 -0.348089 0.460131 -0.059305 -0.179878 -0.015325 0.332827 -0.046647 0.605600 -1.007500 -0.270517 0.411327 0.385047 -0.360292 0.672924 -0.126573 -0.457386 -0.099760 -0.254422 -0.014752 -0.055284 0.103004 0.390788 -0.478018 -0.077843 -0.649328 0.441240 0.057702 0.470633 0.112345 -0.157147 -0.023021 0.032094 0.260269 0.538517 -0.004226 -0.505419 -0.165660 -0.014946 0.225502 0.237172 -0.174803 0.428736 -0.009509 0.023408 -0.206401 0.228015 0.044463 -0.186704 0.287191 0.189081 0.368533 0.004574 0.032731 -0.183723 0.345761 -0.214845 -0.238355 -0.077918 0.040587 0.763747 -0.283724 -0.309187 -0.210306 -0.335997 -0.059993 -0.454106 0.115898 0.208589 -0.264905 0.018473 -0.155202 0.090913 -0.411891 -0.544187 -0.126684 0.322356 -0.226019
608 -0.257861 -0.193054 0.171905 0.525036 0.265322 -0.203281 0.175492 0.106817 0.210168 -0.072309 0.646804 -0.222718 -0.321439 0.135408 0.343809 -0.142535 0.175850 0.015510 0.190309 0.057377 -0.353266 0.319290 0.508387 -0.131915 -0.095429 0.223290 0.256268 -0.044258 -0.095840 0.552786 -0.335166 -0.249685 0.087168 0.124605 -0.418308 0.286947 0.623715 -0.066577 0.089616 0.201783 0.116791 -0.302789 0.230052 0.202359 0.310959 -0.272916 -0.063178 0.061506 -0.205916 0.374585 0.312860 -1.117749 -0.028916 -0.237922 -0.022843 -0.772071 0.258013 0.296122 -0.145204 -0.289884 0.076912 0.590177 -0.276036 0.279302 0.273442 0.017591 0.023568 -0.218600 -0.308004 -0.032959 0.191116 0.167030 0.358514 -0.728357 0.164167 -0.172455 -0.446627 -0.158893 -0.045265 0.215670 0.118767 -0.110883 0.160099 0.257388 -0.355044 -0.458581 0.290212 0.167374 -0.069120 -0.148438 -0.339147 0.368708 0.428744 -0.688911 -0.399150 -0.094937 -0.147835 0.124737 0.124869 0.077028 0.284871 -0.120747 0.714125 -0.278679 0.324294 -0.087098 -0.161251 -0.347600 0.752542 -0.147347 0.170449 0.243193 0.184818 0.535584 0.243191 -0.109268 -0.162980 0.501178 0.335413 -0.170774 0.027472 -0.085236 -0.354997 -0.415866 0.012542 -0.211525 0.360492 -0.348036
1528 0.568688 0.030173 -0.608116 -0.324454 -0.445456 -0.070712 -0.221117 -0.422349 0.924679 0.078575 0.151984 -0.177950 -0.328640 -0.180953 0.064147 0.035197 0.319353 0.137170 0.366603 1.069631 0.252374 0.010797 0.117034 -0.234940 -0.260121 -0.487576 0.477418 0.570075 -0.599043 -0.071527 -0.024044 -0.498449 -0.083262 0.102429 0.404223 0.024618 1.021117 0.429131 0.676813 0.571345 0.692311 0.145865 0.096046 0.133610 0.826674 -0.419435 0.386130 0.216416 -0.202354 0.415075 0.708898 0.413423 -0.369504 -0.086722 0.066739 -0.298559 -0.296671 -0.166439 0.669967 0.063851 0.030978 0.110133 0.078007 0.362320 0.295850 0.386316 -0.012975 0.244883 -0.265797 -0.341744 0.089567 -0.161649 0.165320 -0.408870 0.241215 0.049285 0.035545 -0.093842 -0.681535 0.642671 -0.436842 -0.571798 -0.223960 0.224005 0.166184 0.081540 0.610926 0.394228 0.583881 -0.346538 0.463283 0.025650 0.607951 0.267606 -0.423058 -0.524919 0.081236 0.518420 0.208251 -0.313109 0.733402 0.032795 -0.213199 0.025963 0.352243 -0.193332 0.095570 -0.234888 -0.248958 0.389694 0.203347 0.438789 0.468708 -0.409181 1.027687 0.160450 -0.626444 0.422900 0.664768 -0.052294 0.286312 -0.169904 -0.233885 -0.199408 0.296997 -0.375082 -0.069578 -0.030419
