37 128
33 -0.703208096449 -1.05861230917 -1.16036820728 -0.55216750231 -0.336480527205 -1.07162891773 0.26678826973 0.584145040759 -1.91141376517 -0.191597045194 0.347399332373 1.03423789866 0.141152272826 -1.30339276271 -0.45076400618 -0.0784393052085 0.0355436113622 1.81299154638 -0.597360899038 -0.208796323745 0.739136879299 -0.406591297531 -0.229745946804 0.282028965007 -0.704594536847 0.560058270311 0.631257490638 1.65541447081 1.0983421261 0.219509059445 -0.971697939487 -1.39856723318 0.264101595132 1.75250779649 1.01024059936 0.0921922389647 -0.868279675004 -0.445481501715 0.358898502642 -1.68298220331 -0.563340736256 -1.22415640851 1.08638434846 0.899445376113 0.0259370832319 -0.196437460379 0.862620710146 0.64357151422 0.262154556865 -0.426050327527 -0.188384227369 1.05132749954 -0.563523832471 1.28402804648 -1.48952790689 -0.576098229364 0.268063130511 0.472087614842 0.800896006177 -0.688990810177 1.49983490377 -0.138335383529 -0.495671346698 1.08002832249 0.324542018225 0.920800689688 1.14407460804 1.01386210559 -0.284731681562 -1.24490128861 -0.233121567196 -0.976440975516 -0.141959611215 -1.58759866777 0.0393826501105 0.820540561708 1.23489166737 -1.31480244423 1.25408208052 -0.919174813714 -1.18683828249 -0.04930375172 1.09413872679 2.19215383594 0.0809932089265 0.282899662321 -0.967195460231 -1.31391695835 0.695993088316 0.0880898580535 0.708327547674 0.0942516718729 0.729649615811 1.89656351201 0.00463410757897 -0.760639548664 -1.75014642998 0.554854091103 0.736819577152 -0.0971533959312 1.57803667111 0.27377930519 -1.20377898037 -0.0329513548969 -0.218288209591 -1.25614898906 -1.87842064795 1.0308746131 -0.246694544495 0.931398703786 -0.375770796594 -0.944198509676 -0.174555852787 0.530690039812 -0.985878388933 0.59056455605 -0.340310421509 -0.853365349232 -0.608578062949 -0.681031427772 -1.41777152656 -0.327761355345 -0.61530625649 1.55657668307 -0.680668921669 0.600061283536 0.246371122228 0.639864014512
0 1.07118670874 0.652305218584 1.60687629958 0.10752418294 1.36206587075 0.755933623749 -0.673268233786 0.0202202947138 1.03258940092 -0.172325492682 0.204809154379 -0.225163011808 0.155448161097 1.56422397752 1.11386800003 -0.133380138277 1.52085608928 -1.14252014102 -0.379251208474 -0.776660130285 -0.417064158161 0.316399409985 0.83532745175 0.0873022460238 1.2503779908 -0.5026431045 -0.919928875287 -1.22482691274 -0.156477492375 -1.10755095851 -0.451805187407 1.40896282704 -0.297316645057 -0.641784923397 -1.22835808314 -0.468066625 -0.498130954413 0.159553130086 -0.330924860547 1.21050575619 -0.18188811047 -0.067416147993 -1.66222469197 -0.734999808379 -1.180929084 0.952462543476 -0.825746861773 -1.40446238083 -0.779821920258 0.500208907929 -0.301030555589 0.876997408909 -0.0807123861148 -2.16122323735 0.905320913048 0.741147671733 -0.0551708678006 -0.838212880586 -1.53946309746 1.10359199755 -1.2924376842 -0.0556999060244 0.240684264313 0.879885923828 -1.1541328083 -0.877175050657 0.170162269895 -1.87190510469 0.356673957738 -0.141574759366 0.558923109242 -0.0601667717049 1.62861243914 1.00958747882 0.0972192828699 -0.204936427633 -0.215708421963 -0.19585516182 -0.666173721191 -0.304069811835 -1.31366672728 1.63013232665 0.667354865222 -0.949226032806 -0.733658550442 0.727569592371 0.99320450225 -0.858178628563 0.254663299573 -0.596157226348 -0.88450721885 -1.25567531857 0.294056874897 -0.480135366442 -0.322447553873 0.247107646607 1.15420318082 0.41259498409 -0.411533299598 0.112069624057 -1.22710220374 0.222010042011 1.23308504409 1.74715838171 -0.234850801344 -0.20283978275 2.61361416725 1.18849067933 0.148084161341 0.467338194245 0.753066280255 1.31781683394 0.488937019703 -0.95571386598 2.19983339831 -1.72044159096 2.01635222985 1.4094707721 -1.61924057782 0.739665521813 0.00853856075227 0.0187291760459 1.46577280154 0.100707755602 0.547412109873 0.293762637646 0.131790146459 -1.05370691471
32 0.53014983448 -0.24857341832 -0.951010340635 -1.99793378344 -2.01573005684 0.31955879815 -0.239117916244 1.20966138221 -1.5215870959 0.834575225378 0.446070809058 0.841781925279 0.784936822134 -0.883231132932 -1.11073448145 -0.127509238985 -0.665926477627 1.23610106311 0.298192980409 0.750746850629 0.102295970275 0.911061330055 -0.973530359561 1.76981854737 -1.39555745558 0.830516892113 1.14601730029 1.61604304305 0.227577577392 -1.12695666277 -0.00276306206677 -0.431138302375 0.667747951882 1.0955484678 0.839546297649 -0.00394061639995 -0.579327194272 -0.444607005122 0.438905042109 -1.77948923081 -1.46245122628 -0.171302825909 1.22095256365 1.38825304459 0.637501350836 -0.399092958593 1.07097071984 1.71768975579 -0.731176467718 -0.193093714302 -0.273434947295 0.731958285408 -0.559950605467 1.63339873338 -1.2968217107 -0.76918237792 0.885710230043 0.51314998569 0.703865606438 -0.239874457611 1.06102560635 0.223387513297 -1.16482651389 0.587534236439 0.207515289289 0.141990260761 0.0167204308386 0.518262932423 0.556134303086 -1.04405744991 -0.68964421642 0.452420247913 -1.01700720168 -1.27565312975 -0.0427593349233 0.230636865724 1.23973981554 -0.952933361087 1.1408927833 -1.67634152211 -0.876010799607 -1.14327996558 1.76672051409 0.81899879568 0.0782455445398 -0.849521926053 -2.03088171472 -0.954762006041 -0.456971318138 -1.75931819395 1.33487953874 0.167060121145 1.90826028092 1.41469555806 1.20245645843 0.424300544478 -1.65805369361 -0.199375091493 -0.231175265757 -0.189894214819 1.49350778668 0.953364419594 -0.552825224765 0.179196612225 1.09234282419 -0.632138990317 -0.388863105709 0.0555610531028 0.743681667501 0.109153139588 0.082753079389 -0.615906939565 0.263113561125 -0.453005550465 -1.15532146277 1.20344676976 -0.296807448744 -1.81246102104 0.213207016212 0.562643492518 -0.994621825785 0.283965809092 -0.554339528907 1.96662992639 -0.668946161807 -0.657231955724 0.0727168625241 -0.110415494655
2 -3.44614928526 -1.05886798283 0.700938631576 1.24111303378 1.14613567025 -1.11756616837 0.162798240139 0.0459633685206 -0.992297291277 -2.17961265421 -1.02745691869 -0.407051786451 0.300301956683 -0.797392807272 -0.968927297114 -0.783243965217 1.52993654538 0.0616718957942 -1.4109138948 -0.703846457676 0.473989332689 0.157992994657 -0.102183660983 -1.55262974914 1.85074988151 -0.15893143514 -0.103227160637 -0.545170172049 0.626727532298 0.965097402745 -0.846386151592 -0.867094274839 -0.200521320596 -0.271404778347 0.582041444567 1.47982336841 0.0285327381063 -0.202901823074 1.36797191255 0.589812381454 -0.094219064795 -0.925404426243 -0.0488188024917 0.0535021847645 -0.559932978249 -0.26873768496 0.0615120198145 -0.177699156195 0.795576568009 -0.496491095416 0.100519938289 -0.0886470697077 1.27832136439 0.402329273049 0.421390528631 -0.0800426064198 -0.937558298038 -0.736362812867 0.110585841574 -0.63376726236 0.983164134286 -0.594547890753 0.340734758076 -0.953440829807 -0.728454275936 1.01828617674 -0.432460355411 0.80563528611 0.891357315582 0.0667537479571 1.15468415265 -1.66569638855 -0.0409466465951 0.13405854185 -0.0185858494789 0.408904699632 0.930880585249 -0.742227092261 0.50165698311 1.40098556925 -0.0872940650609 0.936893008476 -0.89401988117 1.91019208179 1.15747155463 0.925289850255 1.38937297681 0.622843124263 0.969532684206 2.17111566305 0.668402208454 0.733016596941 -1.47090528374 0.729890933363 -1.62465988056 0.124968741374 -0.510897176549 -0.149293009116 1.2404786682 0.623395023045 -0.332637748544 0.264535742921 -1.47929873952 0.628403478853 -0.462855502829 0.339766753243 -1.26730007807 0.106086972511 -0.160546107641 1.79253740367 -0.572421902402 0.383470555938 -0.96667244969 0.713601798302 0.503119332183 -0.915864321811 -0.545257843224 0.290070671425 0.328323513706 -0.76502518074 -0.0520914025913 -0.81511334634 -1.46133793267 -1.83202553523 -0.232370080936 1.78030464219 0.605018518378 -0.00624134158733
1 0.329782582436 -1.48039704024 -0.0257269504233 1.68858831949 1.32342723373 -1.40037323073 0.616713605753 2.63115001897 -1.06659956799 -0.546391588301 -1.70096433586 1.11974482556 -0.489113529319 1.89832973128 0.51169088345 0.736508605047 1.1402050038 -0.0466722850225 -0.317379794202 -2.12651023422 1.46056576219 0.500663016286 0.261060751909 -0.3776264132 0.929620302993 -1.82203666455 -0.0786324648375 -0.667856718206 -0.0131454092823 -0.824608990137 -1.33300205981 -0.993843054203 -0.388670175574 0.10939853042 0.57998871718 -0.272052163567 0.307183134689 0.622756528178 0.0377832743166 0.47465645507 -0.124052320292 -0.121409010097 -0.775238120516 -0.599241966916 -2.13833344395 1.30356365036 -0.821653371792 0.67568433573 -0.698158489987 1.41716464123 0.358057655011 -0.195348278182 0.130138945105 -0.70795322563 0.963128452387 -0.186075529525 -2.68815546264 0.256907578221 -0.801322229206 0.156273940757 0.304646326061 0.161362913355 0.641180331872 -0.399742774869 -0.00916460585954 -0.84329437336 1.04998731197 -2.01107235834 0.784238762825 -1.98428927879 -0.840566672239 0.316718731751 -0.568313539472 0.0914136716259 -1.14344691012 1.27715395605 -0.802656707689 -0.113965008048 -0.97420355284 -0.446206082589 -0.333541408662 0.777833219956 -0.253760226038 -0.832255054107 -0.295704305921 -0.337804960746 0.226202504699 -1.34315545277 1.6551231607 -1.40955391396 -0.68606634879 -1.47938953527 1.05206060664 -0.0963656174124 0.603863376994 -0.374904673167 0.169429592344 -0.0580833154217 -0.615746959825 0.0285539458298 -0.513744390686 -1.03357625751 0.560172723131 0.0512341632201 -0.718210250181 -0.517033317842 -0.479906367683 0.913684976566 1.34936313999 0.337465649757 1.271088102 -0.00474577041945 -0.370504964538 -0.24790604948 2.51278470004 -1.08831318267 1.59445845482 1.06732976374 -0.615097643818 -0.803833251306 -0.943106007828 -0.307281429384 0.210420021262 0.804458641145 -0.359156566516 -0.209808505449 0.229742434415 -1.01081770867
31 -1.27415388439 0.450486017845 -1.23723680512 1.22725945786 -0.757048592521 0.573207099982 -0.955484052174 -0.0344819575983 0.369846727915 0.344071180855 -0.694788242091 -1.42313828858 -1.08244487679 -0.863530881053 -1.217346956 -0.819670579735 -0.348038918328 0.237372488747 0.729959595909 0.0275591876103 0.264579054742 0.0136317245479 -0.951562630498 0.882653044866 -0.0963226950038 -0.339220524689 -0.81563290697 -0.607945450211 -0.664942527183 1.42655555172 1.29093831509 -0.0149560849174 -1.37760895033 -1.29469351764 0.852082877393 0.101805971065 -0.617532910906 0.452216990123 -0.99967812076 0.997431812919 0.480701086759 0.127534859213 0.947943667197 -0.912646955019 -0.929239258355 -1.83656240289 0.306253967617 0.45845966831 1.3398217902 -0.931791020919 0.535811261514 -2.00205006009 1.28195711032 0.0361273436951 0.08270515335 -0.126651101969 0.568891163047 0.505388323192 0.394569149385 0.256497954691 0.644277498211 -1.00026490431 0.653163743007 -0.4692863833 0.30174008613 1.1445226364 0.449557046069 1.86936128759 0.116819001683 1.77799459972 -0.0922573252426 0.187998895168 -1.13465460727 0.760849397404 -0.253948665759 -0.290178788434 0.176656189996 0.486334617159 1.00398876974 0.190419775101 2.26795090543 -1.25063120242 -1.37892817778 -0.0923099685871 0.904758312425 -0.306323371579 0.413661768298 0.738388848515 0.844992517738 1.11179303798 -0.64147771132 1.74714368396 -1.80443738123 -0.972715253433 -0.828689655277 -0.0187898303312 0.798585152901 0.0192450149459 1.12203556198 0.652549192323 0.493617777496 1.14101830238 -0.492308298171 -1.38965135228 -0.415067717006 0.371950680245 -1.37684183085 -0.763313520302 -0.991652922838 -0.849674840992 -0.507232036771 0.659190061677 -0.0544277261603 1.68553158687 -1.04055802105 0.968306527516 -2.17626217935 -0.032583316815 1.88326410015 -0.426613212724 1.40776556419 0.138078581096 -0.989472176581 -1.30122645297 0.79328660334 1.20083015815 -0.115767994539 0.711488231865
3 -1.08436211602 0.12179587055 1.94233662994 0.557749996469 1.30078908024 0.379101987352 0.045002612089 0.261323795402 -0.241953061988 -1.03100950894 -1.26375364706 0.534620471475 0.238992663488 1.46428259616 0.00622144516076 0.540813197542 1.16436245396 -0.544324313735 -1.06436100881 -1.74043763638 0.0651231798307 0.586747136617 0.878776293506 -0.695406610221 1.8510832948 -0.984386033713 -1.11224983438 -0.784569081854 -0.587606934441 -0.826837010539 -0.568435283403 0.0584803798508 0.650605231669 -0.230087592584 -0.141447605442 0.23401476903 0.285599770677 0.353996928443 0.65904145025 0.438604208658 0.330127956766 -0.6436501815 -0.772584699821 0.138184776183 -0.148218239472 0.0379682313551 -1.00100212043 -0.755080540881 0.0742821411378 0.000664921897638 0.485728687482 0.399723471744 1.73631688689 -0.715101509278 0.837986440853 0.892919772404 -2.65694937207 0.11292370179 -0.459596940125 0.786098006121 0.708764669798 -0.0720779835681 -0.0718292968566 -1.09219529749 -0.364400923621 -1.25509307844 -0.139006440988 -1.00303851978 1.58042771459 -0.646521551314 0.486338344583 -0.888722868148 0.307841028353 1.35683934651 0.0642881198042 -0.0559597303863 -0.266343156003 -0.760314533489 -0.618994700912 0.293176780499 -0.787694853623 1.58417888681 -0.303590425361 0.0362016737306 -0.263525122063 -0.406455504452 0.990769095178 -0.0959358521449 0.339965528542 0.651450375087 0.0475939767984 -0.930204030836 0.385978563837 0.387168717086 -0.281431279111 0.0992570379842 0.372704436191 0.00428181787294 0.67372832341 -0.346697979793 -1.59251275594 0.425326805716 -0.746491124951 0.647457317533 0.959004058031 1.09475672192 1.14807078447 -0.567831321065 0.233441161095 1.40281695445 0.643638110436 0.971597603493 -0.166704052244 -0.487273354841 1.35715534304 -1.14605674148 0.419142489649 0.405051312167 0.368751059498 -0.336380829572 -0.36735653004 -0.141799927091 -0.0589566388458 -0.832159166923 0.285716363625 0.133839043544 -0.156371205331 -0.925314019292
23 -0.0904541528528 -0.305677668726 -1.15489125607 0.134820669857 -0.268202592271 -1.02197288028 0.770373086972 -0.784984094619 0.313650554268 0.20718229235 0.107488534841 0.5683484061 0.0935958036779 -1.30211448228 -0.218848732763 -1.55254473181 0.387528943739 1.12494864996 1.35155617163 1.37956420964 0.241578720214 -0.536379193848 -0.751881536195 0.334188462887 -0.0635742483492 0.337020163873 0.49647297482 0.917869070988 0.72423862669 1.35510118583 1.55284163513 -1.09383212459 -0.637003561178 0.186446110362 1.0046107562 0.640541208407 0.342818966887 -1.15696256859 -1.19468812209 -0.489403322295 -0.890907407013 -0.336604443372 1.1658812897 -1.14888533956 0.639155992064 0.345974032785 -0.0723690238536 0.900093081589 1.25909480071 -0.742270426015 -0.46207153516 -0.958293409739 0.540677706662 0.629637479283 -0.471849200362 -0.760583563245 1.79543810676 0.284867070419 0.6048562423 -0.590192125254 -0.849434735529 -1.07510065349 -0.713223613391 -0.979916347338 1.27624100039 1.36698778392 0.0835076513799 0.981210371281 -0.835424074292 1.85230987407 -0.757539511544 0.325296218452 -0.972266161363 0.251229291968 0.131259624889 0.140927099934 0.226623918292 0.24181775518 0.873116928945 0.107352598793 0.525337268595 -0.890452639197 -0.957030713221 1.13340118472 0.59537143959 -0.0931661500056 0.287251861312 1.57083012001 0.523196961742 1.17399287454 0.949502889275 0.885728742258 -0.940858244443 -0.248803894564 -1.37591573674 -0.593663633604 0.418663199277 -1.02909333353 -0.262268750373 -0.432923531071 1.94336565626 -0.117339330562 -0.792016349636 -0.05683267885 -1.86079717479 -1.08007588131 -2.1981350583 -0.692212816022 -0.960253297812 -0.813144918738 -0.590111693866 -0.611372092531 0.0130327335881 0.819272380387 -1.53601821354 0.616717758502 -1.71906925103 -0.950985642195 0.664210042881 -0.65669343244 0.980410853402 -0.409084004616 -0.779853564104 -0.465185215568 1.72471445405 -0.742598314358 0.375569611181 0.260680663166
8 0.209838671633 -0.420819491365 -1.07597620618 0.365996926679 -1.03806150453 -0.791626047173 0.034364772781 1.22280168575 -0.0196326561654 -0.553097486682 -0.837002929236 0.667763155641 -0.249932272666 0.977614641281 -0.959667307981 0.335222423008 -1.36657112501 0.0908293418823 0.275977087296 -0.220284045157 0.424746183112 0.360213172221 -0.361529089611 -0.0871746978983 -0.45521236403 -0.870601486212 0.68775451824 -0.339744653686 -0.438984898975 -0.02475210825 0.0757742104586 -0.0282560988306 -0.0461317349798 -0.130063709968 0.8805873904 -0.0412131105979 0.872285125656 0.726745831021 0.616067497796 0.0938631122908 0.148686285933 1.11122456838 -0.607801490346 0.306072901602 -0.454581198414 0.257811297172 0.106937594792 1.42059205784 -0.814474572988 0.487197667958 1.30060681292 -1.45725225646 0.504771045005 0.269558104613 0.98277655311 -0.743485795857 -1.10611481917 0.42322007588 0.359011926764 -0.546635020274 0.381262463284 0.201619350719 0.387750034925 -1.43777616227 0.390763828211 -0.0719058819345 -0.520301270473 -0.304710266199 0.621386876053 -0.486817029023 -0.875717589087 0.706433287685 -1.3246711547 0.361825534032 -1.30442610744 0.768696568753 -0.584202549228 0.191553182027 -0.328047356193 -0.0512891087741 1.2431105111 -0.631741675603 -0.885200828367 -1.35918850025 0.341583484898 -0.978888494447 -0.961079012141 0.798230814916 -0.332243970639 -1.02898265303 0.120355142466 0.664245280645 0.474692475436 -0.934008497832 1.74262784612 0.241387897586 -0.529712685585 -0.0347328818818 -0.0798761174909 -0.31165441601 0.155547998755 -0.914116340224 0.307448971629 -1.15491999624 0.721183150797 0.973314720206 -1.11924603552 -0.754796609757 1.06264454523 -0.240099784072 0.597440191349 -0.596450333661 -0.173469906693 -0.414049590363 0.313371141701 1.00480976722 -0.697156423746 -0.591804593444 1.80169802459 0.0564763647946 -0.0674676238442 0.138351839654 -0.193095703169 -0.126100291981 -0.361078723781 -1.35707644532 0.389811619187 -0.156061489452
13 -0.504777054197 -0.752128627189 0.691025109924 0.478874413776 -0.584423447169 -0.125644606373 -0.0448916969571 0.758000714642 -0.155395983868 -0.452592152733 -1.09114345799 -0.274865818222 0.537482705749 0.607021823744 -1.23962993831 0.77664848767 -0.0700768382519 -1.0746373982 0.0217242769812 -0.264736958568 0.312269028186 1.25329232864 0.162964828342 -0.461835526178 0.49246511585 -1.04887838097 0.573029390104 -0.981058605205 -1.2428413252 -0.353413802235 0.00682605661762 0.411747970159 0.0632254202322 -1.44423329326 0.665313561804 0.568647782909 0.512544949969 0.498939855956 1.14302978626 1.05814144626 0.261136403895 0.578781596205 -0.14998355275 0.213743237753 0.2372683899 0.175951673156 -0.555217900612 0.82631278484 -0.791674699612 0.830515006771 -0.30305537791 -1.02691174947 0.812695400741 1.34589834156 0.894897865517 0.530626126195 -1.4603131842 0.200413678811 0.575584392021 -0.188032799676 0.108884538616 0.567636819407 -0.649203148112 -2.28668897924 -0.84023073279 -0.458894689544 -1.27226328088 -0.381170133173 1.59124255934 0.508103705974 0.456329413008 0.389958258628 -1.10943964312 0.862366391329 0.328043955434 -0.126956093217 -0.862773801381 0.030299752802 0.0942213115085 0.491637612446 0.639390902098 -0.453589394611 -0.106867260477 -0.42196410154 0.834443254823 -1.02213702883 0.532221327735 0.295869195308 -0.493248758513 -0.190687751502 0.63407255328 0.0807260306363 -0.35430660468 -0.632687102287 0.471221634153 0.986787881229 -0.120582949875 -0.902652543564 -0.518630787787 1.03272292691 -1.14357703994 -0.638908796648 0.439475639338 -0.0356310678747 0.599629490279 0.919575976488 0.611431630038 -1.59922458531 1.70931004263 -0.520352320387 0.982904198448 0.594470960033 -0.850431207739 0.310572401932 0.708194953582 -0.262645744085 0.264558538255 -0.196417764661 0.861451499187 0.127853389204 0.559937143321 -0.196448670159 -0.319172065605 -1.13775028829 0.0643932361562 -0.144459163883 -0.468070905767 -1.27027885306
6 1.68661265353 2.47336701422 0.135866783312 0.471512031278 0.367733363379 1.37333437791 -0.417545978142 -1.90278458935 1.14133970854 0.0227846431376 0.932852835473 -1.34815204811 -1.23643942453 0.967756609502 1.03390925144 0.0409819343952 -0.636661476348 -0.615871475323 0.32539021042 0.796465549931 -0.67317827533 -1.78826339006 0.510142423843 -0.809832626065 -0.550581900949 0.484429941969 -0.679555095016 -0.0992791195293 -0.0237499450103 0.642136317859 0.598590786702 0.766985586698 0.101591835436 -1.44313106553 -0.912616164764 -0.03958960156 0.656722389591 1.24659220369 -0.393357161124 1.3927580678 1.77717015621 0.637807406684 -1.82988949084 0.0949872481881 0.457245884669 0.464471351397 0.131845887148 -0.784485104393 0.58765644005 0.758043428673 0.130062125157 -0.623740783059 -0.911090161233 -0.893995088685 0.905575789994 1.18016506044 0.231889487037 -0.0532881787658 -1.1991468962 0.167873539337 -1.3167064854 0.880528603121 1.15791339208 0.187712117147 0.161143634634 -1.18135408138 -0.350752992209 -1.11620695102 -0.542496239558 0.0872593571878 0.936268426033 0.632925879675 1.78446076637 0.345789425898 0.623974797543 -1.04851646728 -1.17517920564 0.94546065031 -2.18372602193 0.862966441132 1.71532732095 0.802783226462 -0.647100867615 -1.73340374892 -0.735937972767 0.246045184518 0.235271675039 1.25193371427 -1.54894314724 0.409165939393 -1.47691660873 -0.0423223149094 -1.10895672627 -1.4491678642 0.390379218426 0.510350882388 0.457286989575 1.31192304892 0.24354817284 -0.180571428043 -1.02419233099 -0.369080039247 0.527382615125 -0.00483196539899 1.11205974366 0.676419786763 2.09428122936 0.545969270575 -0.692597170094 0.123395577232 -0.355387293929 0.310721589756 -0.120646128638 -0.652626090965 0.381282867388 0.636755607963 0.568718141773 1.65718853289 -0.415934082436 0.876578154296 -0.00790019659968 0.289118453286 1.36569182735 -1.48677146904 -0.359637205974 -0.799710299518 -0.677999481139 0.574717002056
29 0.0642271608399 -1.06212445678 -1.21910956665 -0.977900858857 -0.0336755796179 -0.415385207907 0.853386111525 -0.738952148435 0.686158178174 0.0409548654206 1.2297041585 0.892979429776 -0.735923541987 -1.83250592893 -0.133683132625 0.626900507106 -1.58152219189 0.694071123132 0.00793170357029 1.28556837373 -0.678302130668 -0.614740973516 0.4117157878 -0.315321457906 -1.82335093549 0.872694407409 0.374283696083 0.922020245422 -0.21248906619 1.29686055294 -0.56271762856 0.126403525247 0.42540761068 1.36916530573 -0.843409895951 -0.883498666578 0.0470690584261 -0.338564277286 -0.431867769355 -1.19730328729 0.116308828386 0.186736950696 1.09074650101 -0.571929032546 1.29970388174 -0.0994056291703 -0.311327385435 -0.601979667932 0.52082052526 -0.546960179936 0.00119730554479 0.582634774031 0.215414191081 0.946293587358 -1.28657702741 -0.663239884273 0.547476042117 0.447056843922 1.24508892497 -0.799339705077 0.747662625344 0.871999316763 -0.340258660476 -0.789072365203 0.369553278653 1.81595121518 -0.567232514865 1.8125813125 -0.910349922594 1.06232720169 -0.534818279777 0.81551892962 -1.55400114357 -0.0395829427049 -0.306738311504 1.09913897766 -0.129421514155 -0.725052277079 1.1832328405 0.571898722022 0.670577648894 -0.813176153832 -0.472519642996 -0.208269448593 -0.65824868462 0.421956602482 -0.432703795321 0.392266811112 -0.3716681815 1.11219820349 1.17350330577 1.2511410032 -0.116327759898 0.197160767576 -0.43986590029 -0.830988277721 -0.772227891908 -0.32097800642 -0.395664252603 0.00211469362851 0.953647857019 -0.521914184072 0.0643847835789 -1.11690260244 -0.940145785029 0.438274014646 -2.02318666713 -1.39784523161 0.378195101067 -0.975027553394 -0.66771707549 -0.737820672205 0.711994573211 0.538032277606 -1.90484789854 0.283128872499 -1.09721062485 -1.21881156765 1.59715752512 -0.823905630753 0.863744119574 -0.253437969522 0.0678720444557 0.91377588269 -0.0774105934048 -0.324028826498 -0.019838093213 0.694818718069
5 0.743419873648 2.08832434173 0.406213149331 0.426922446767 -0.554552753049 0.464841870271 -0.0164521012907 -1.48380429919 1.23509400453 0.663697514877 0.987222500951 -1.04618039724 -0.243148770573 0.886822556096 1.08874077562 0.1533157567 -0.89515795872 -0.877392375686 0.474973181411 0.691741959731 0.242754561875 -1.29364051071 0.471350087897 -0.828685883336 -0.282989626597 -0.700811004189 -0.337667236135 -1.9346553167 -0.606830414778 0.0697250220384 0.234630097798 0.918199342293 -0.161512857331 -1.82731265527 -0.648960474127 -0.30716841852 0.681435266944 1.18471227061 0.122410627808 2.12921757994 1.86841970355 0.174182286725 -1.93554303762 0.634938398458 0.966432302575 0.693467074068 1.13702990332 -0.837572790885 0.154248740153 -0.118604321587 0.723443841929 -0.930870311406 -1.20666024243 -1.26628495069 1.03814433889 0.422659415853 0.932450702267 -0.625821536685 -0.824573598389 0.487998991156 -1.60854551148 1.4539402599 0.444862639959 1.13763519289 -0.132175254293 -0.407696277269 -0.447333713091 -0.730252709006 -0.848151852367 -0.419282651148 0.249575589763 -0.0366456904897 1.39803967259 0.149756593485 0.3969844713 -0.839346546554 -0.862300494328 1.70346671139 -1.57272315757 0.10062773781 1.55955940923 0.557791676846 -1.46192432716 -1.56345717942 0.183126906194 0.0174462978261 0.34009968563 1.42493015369 -1.91887210169 0.28905292607 -1.67970899646 -0.385882276363 -1.33374703304 -1.28933218161 1.19340804925 -0.314083128275 1.13839341611 0.690877653888 -0.386139164892 -0.565541363662 -1.75245898355 -0.571724946107 0.962182386345 0.113326227262 0.141119702515 0.857014639934 1.12443960705 0.291260177446 -0.827966921697 -0.902927714322 -0.316180866645 0.921803742813 0.251362391892 -0.925261620726 -0.202836035078 0.807227777216 0.492380117476 0.930409897949 -0.0619500888413 0.919862121623 0.111068805035 0.663281008435 1.22126098238 -1.11285781874 0.316729088155 -0.349595555374 0.0714597902135 0.679399650823
27 0.0686937448191 -0.381096712209 0.0705586427395 -0.806102353876 -0.251273006844 1.03338246729 0.582211681477 0.275216940326 0.205890048921 0.918784485292 -0.105078108123 0.951756710314 0.341874549447 -0.0824824041246 -0.0437926913168 0.541117091068 -1.0930538289 -0.41899832892 0.687594709843 0.215623519446 0.251670325437 1.54923278055 0.00680174449134 0.93532176758 -1.06750019364 -0.983652345541 -0.549195862547 0.927623848343 -1.46809476631 -0.599807317493 0.902841495262 -0.184956082006 0.92604662521 0.386839516173 -0.698549251798 -0.43992538823 0.0586702744414 -0.407846344882 -1.29936571458 -0.507126817896 -0.170645063603 0.194394414043 1.82964398548 -1.33300813864 1.5192884349 -0.997652134082 -0.764396155377 -0.0780343983558 0.0684074102218 -0.251841473617 0.02853415672 0.0301997741924 1.58094668088 0.530708786906 -1.18332629066 0.177536070483 -1.18226490467 1.48483864166 0.993938394349 1.21508453041 1.52677990685 0.516816023197 -0.916254090566 -2.16929093812 0.418008011802 0.0757489432544 -0.441265847161 1.43960125761 0.979197136547 1.1311297845 -0.532808575384 1.3201521329 -1.58913621348 1.24637735336 -0.726182998387 -0.478142974389 0.0852289690023 -0.437357463606 1.19431199834 -0.258573862223 0.0147244638415 -1.21839314633 -0.602149911946 -0.553336921536 0.186087109316 -1.25840569083 0.0824285070746 0.343858436446 0.611264692296 -0.00915296665406 0.862260293769 0.781841715714 0.593164807587 0.52570462962 -0.68982193919 0.158433238623 0.500222153143 -2.04122186553 -0.287926836712 -0.499501676513 -0.228936201986 0.910610743837 -0.718637456387 -0.950194766322 -0.169440496267 0.996153569813 -0.609982447643 -2.78829977606 0.202283908664 -1.3732921929 0.238070548793 0.738428694411 0.658837333684 0.875578063842 -0.696036079966 0.328393921847 -1.95340652123 -1.06204325498 2.34500537622 -0.6329967271 0.850682162652 0.674731261928 -1.18452807771 0.752665987612 0.776609965795 -0.215721800669 0.0469537256612 -0.495362288354
7 -0.583537687457 -0.393911566092 1.31076021556 0.662992320748 -0.140155497848 -0.0193279764299 0.0122430646065 0.867746038213 -0.479565219937 -0.39434256959 -0.981029299676 -0.207184574784 0.782613639157 1.08225460771 -0.561610759078 0.76521573996 0.111037139585 -1.1252023748 -0.125504759407 -0.285564427144 0.515557981889 1.23596663692 0.310809309255 -0.855752390571 0.706441986158 -1.28842922692 0.282274208489 -0.964107489646 -1.12368745916 -0.852865956984 -0.122983993049 0.0874624219656 0.636895040885 -1.28909534415 0.347662009127 0.754631152556 0.719000557474 0.61225706062 1.11931319995 1.05416381935 0.505939785063 0.227586493835 -0.260109442392 0.225027172097 0.593668516853 0.22032059831 -0.243872879912 0.562814020144 -0.666905502803 0.820072153451 -0.324220004028 -0.572446793552 0.791526528425 1.04964344081 0.81131434495 0.691036029838 -1.78525947528 0.0683096183801 -0.0551502554633 0.362213597521 0.263119122758 0.838316609428 -0.69373482806 -1.87524379824 -0.925181021012 -0.932552760016 -1.15630539473 -0.887465012941 1.73015967696 -0.287839387626 0.687367481742 0.262104822846 -0.437078804479 0.637616122201 0.254201250843 -0.573123740793 -0.504214439891 0.210579745061 -0.500664745699 0.334040312381 0.193215907147 0.175505796141 0.0239726402484 -0.184507271799 0.911088473896 -0.840431370338 0.680328578755 0.302386311205 -0.445084814099 -0.257359341361 0.167529717911 -0.272494745285 -0.0636360283857 -0.223234653034 0.351468704029 0.930422245696 -0.110669420948 -1.05291980314 -0.376279455349 0.736756357775 -1.5581007042 -0.332639592163 0.0234428373887 0.376698539313 0.914437856493 0.862312504486 1.20072949348 -1.23439574905 1.40853980192 -0.0218525457459 0.795568459857 0.858978644306 -0.90355478533 0.12507690115 1.14571049672 -0.559252269467 0.730832205914 0.154448225856 0.512048426341 0.012864018559 0.13504580337 -0.258320732231 -0.456505678479 -1.22048159582 -0.197885176493 0.0266954215575 -0.389614180051 -1.27227083566
<bol> 0.150975012118 0.166189062035 0.0234020425262 -0.0404030543001 0.083171187495 0.0672343266745 -0.0180977871998 -0.0707569628112 -0.0833456372563 0.117557790699 0.25585479609 -0.0249421102853 -0.0651912969484 -0.0610746624005 0.122607470022 -0.0601505710911 0.246620710178 0.0852444215575 -0.00345294654672 0.0302075923539 0.114543209738 -0.177774981174 0.101113490126 0.0733474293182 -0.0578786893337 -0.00704330631925 -0.0771068304487 -0.0571799753547 0.0952224916978 -0.0827178755055 -0.181317281585 0.0396852845804 -0.0619622636761 -0.124329597338 -0.0375126644218 -0.0562320232981 -0.201333415634 0.0815264576717 -0.0326889782486 0.170683053676 0.0186964098968 -0.255375894227 -0.167577283607 0.0358706656703 -0.0246913667225 0.189301928003 0.125912047134 -0.124904325836 0.0838842210416 0.0260559095469 -0.0607327436858 0.172478005219 -0.237967752563 -0.081624542705 -0.039660162824 0.0342548599226 0.268606797064 -0.0541868752521 -0.171310407454 0.0655074557 -0.127993683785 0.125921569803 -0.0788461087849 0.432333201756 -0.0886890981831 0.0759391487178 0.17200366384 -0.102915971331 -0.0426562863286 -0.163790144321 0.0284577453732 -0.0858484313324 0.205080240421 -0.0939927425619 0.135865010246 0.0371303848781 0.0710590706142 -0.0721750516241 0.0129643083999 -0.204728341559 -0.0940269315431 0.242965420197 0.113618284084 0.107219600054 -0.0563297226161 0.152643569507 0.0907157461324 -0.179819462789 -0.0435350489229 -0.0103647824771 -0.135906810132 -0.181170298698 -0.0701348404488 0.129348932566 -0.0476442696588 -0.120838244682 -0.0159217806613 0.156338626661 -0.029404776581 0.00550635046526 -0.0174263230786 0.0894110421856 0.0697539117863 0.288060323028 -0.138314335117 -0.222488937247 0.147368628302 0.287746643222 -0.0841720921088 0.0462207756678 -0.00102258993419 0.227346952489 0.0711342404532 -0.0907777043878 -0.00363976097141 -0.061287405912 0.259243496339 0.171308391509 -0.300130751206 0.074281722575 -0.171525036397 0.00841790876993 0.245179645045 0.159083610056 0.0605170256717 0.160901459219 0.0367730300605 -0.0394885793341
<eol> -0.109330079636 -0.0592156429441 0.0371865999989 -0.0127056742824 -0.0758011922966 0.000656811264573 -0.138800793118 0.105262663042 -0.0376876677683 -0.111534560701 -0.0795725752695 0.0158947993066 -0.0125152259902 -0.0099936526716 -0.17656798178 -0.0431225642129 0.112357417613 0.0270338163809 -0.0484592330821 -0.0191909260441 0.0169116206079 0.150966314279 0.00130332179754 0.0867725653266 0.0541364285238 -0.0892370037616 0.00531486439145 -0.104493293825 -0.129529341642 0.00105238995555 -0.0681155306749 0.0769729336422 -0.063823262638 -0.0895478825464 0.0608934736074 -0.0294047530701 -0.100289301216 0.0620928988163 0.0626990995491 0.134432662708 -0.0468573976025 -0.0871486608451 -0.0337095032411 0.00594736786324 -0.0796517369634 -0.00143692257516 -0.0484891331803 0.045266916299 -0.0352958578463 -0.0683140480006 -0.0338016549443 -0.00426159245001 0.20114748312 -0.00502332461774 0.00879349545294 0.0734814331151 -0.0567257793287 -0.00924764430837 0.00605634947547 0.061057876768 0.0894245400159 0.0404721589154 -0.0956420491223 -0.18513256685 -0.168159028159 0.0975127968117 -0.0445083247913 0.00818538103136 0.231878951284 0.0818115064838 0.110589234323 0.0145354094113 -0.126744124993 0.189508816174 0.0325950489355 0.0990137092714 0.0400592373213 -0.222129152421 0.196734824812 -0.0683423442715 0.0102815596047 0.0198218593817 0.0515924003544 0.0135869925624 0.0292339004392 -0.0554626469031 0.0332793872475 -0.072470039606 0.00297292896745 0.0694832970595 0.132706201138 0.0623862399781 -0.0368727265193 0.0303333641419 -0.057399816954 0.0650343367096 -0.0153784071253 0.0289733070009 0.0483224921665 0.13721686894 -0.0247178479462 0.14728510472 -0.00336073347576 0.161426933007 -0.0264719257404 0.015627723713 0.0204868598727 -0.0571099666548 0.146698122061 0.0398428446451 0.104876658945 0.208201932538 0.0231178089888 0.0150510299085 0.069624987234 -0.0219418265624 -0.00155100475753 -0.0899591538758 0.141719961344 0.0318543154486 0.0577616888437 -0.0699715075624 0.0185960556159 -0.0442599396589 0.126285077467 0.0651439285394 -0.0132486201368 -0.145308289247
30 -1.09967598238 -1.060156695 0.0876369029212 -0.839777505903 -0.0101989312368 0.197204810962 -0.303366704718 0.361532694177 0.544978629198 -1.1443079695 0.188343520442 -0.1897191775 0.372580701122 -1.0982368611 -2.17390980633 -0.153923122884 0.643073431842 0.00409349942235 -0.573825542338 0.736619076027 -1.26992681004 0.225157355736 -0.0363015806301 -0.125876326966 1.18002497113 1.18366661878 0.53417338233 -1.10049913767 0.0911384396164 0.424340119771 -1.05024995534 1.51703649952 -0.130273812095 -0.474855406542 0.112512120688 -0.126006275202 -0.282376185785 -0.19286812868 1.53689071205 -0.44572843085 -1.33806008938 0.18841991332 -0.593183693406 0.847337024764 -0.498413603601 0.0649465541174 -0.396687172755 0.307310922296 0.205509492864 -0.00494482902382 -0.0470851012784 -0.0175653404805 1.18581743861 1.012003565 0.633325592738 -0.720035835692 0.435647072648 -0.978767324543 0.611997192714 -1.28270187951 -0.43649466173 -0.224617214283 -0.39516195371 -0.61051477864 -1.14993616631 1.28857414918 -1.70842157214 0.106120988829 1.06815495291 0.573364509639 -0.163321064605 -0.298149649193 -1.55686238914 0.440554806568 0.382579589446 1.47645208206 0.502333941752 -0.842833646803 0.745982713436 0.46839162315 0.59019821733 0.714662149281 0.447467167831 0.124586046766 -0.345129248003 0.871800560678 -0.14353213098 0.149515838843 -0.655427169673 0.817313976828 1.64137061126 0.454647836201 -0.103158214836 -0.497731853248 -0.162391247907 0.52884516027 -0.970313953968 0.435272792324 -0.17953655357 0.812426458547 0.616605904753 0.233125533369 0.67074898266 0.623420938033 0.793383853694 0.856795206467 0.0505505729495 -0.105318105496 1.69427254202 1.23968972177 -0.00742342719495 -0.24354137341 0.0206080233011 -0.663839991157 -0.162035130481 -1.32015002012 0.698160096432 -1.32540652707 0.938994472051 0.227885551056 0.974021348053 -0.870908725904 0.712193224085 -0.700462310149 -0.527650674885 0.0691054866306 -0.211579083159 -0.616822933934
24 -0.169645585254 0.431150288842 0.018723337249 0.217946681828 -0.295442716866 -0.271893912977 -0.376600634073 -0.749311553893 0.192363614483 0.332638087998 -0.399678789218 -0.0131143102947 0.268179377005 -0.439342855281 1.15935993934 -1.71284361556 0.635893344242 0.858729018472 1.01666202594 0.965743904491 0.171639642217 0.385345406398 -0.911985271543 0.844425951064 0.444391512884 0.00746648373993 -0.250704164338 0.857393456475 0.0486733109722 0.854719272548 2.10719917564 -1.09499538763 -0.391615189061 0.554942092222 0.201425279662 0.146367522674 -0.205503182072 -1.23218613801 -2.11633792026 -0.26009589813 -0.32834684172 -0.818330558855 1.55578514764 -1.31779460031 0.438075193645 -0.707420312677 0.12769935657 0.0280309146578 0.922679103419 -1.62600834049 -1.33890086987 0.0472036705212 0.900187590213 -1.03122641321 -1.46030602724 0.71398363474 1.29989601705 0.222926671488 -0.285645927397 1.25519304547 -0.207404726061 -1.03815754468 -0.675304743016 -0.646881468738 0.629275216876 0.275135512083 0.899430815677 0.606855665987 -0.733718174145 1.66711672491 0.740894826584 0.243064978268 0.684253521955 0.524115112843 0.479601259451 -1.19614764854 0.858150393333 0.0618616320283 1.04398425282 -0.62129459864 -0.779919271461 -1.05353272356 -0.089746277664 1.27568570632 0.485326857105 -0.371015500181 0.254340644752 0.588647011682 1.01496438765 1.11346427938 0.252957331482 0.624292815727 -0.564495637636 0.374825918561 -1.9276481022 -0.113823610367 1.43654918789 -0.974589006391 0.364293023593 -0.200424205714 0.947245004337 1.50071302118 -1.19333443198 0.754852634161 -1.84033753893 -1.48740480529 -0.548454901463 0.141460440859 -1.77341917081 -0.758743508032 -0.559659832842 0.499799467976 0.333653734216 1.25713961897 -0.574069659471 0.538259825174 -1.31747942229 -0.669878200182 -0.221405924532 -0.251860205963 0.818514459539 -0.225246181711 -1.15732454979 -0.546530003263 2.21457403889 0.100262396386 0.0120660321793 0.480060883381
25 0.412679262357 0.464016801662 -0.0746923482028 -0.794725287986 -0.517291872247 1.46149813319 -0.319433968688 -0.289798008707 -0.0208121198038 1.62733972224 0.324528416164 0.0927652179479 -0.203274733967 -0.508493503864 1.35816499003 0.0840258691162 -1.0088263041 0.319467660683 0.699411758257 0.703443797607 -0.160009358002 0.815690016809 -0.496494055388 1.37917751646 -1.40469618542 -0.0882348033051 -0.817492416128 1.1488585236 -1.09219879118 -0.153603994039 1.213187427 -0.487118095723 0.678310723071 1.07622041007 -1.21475701947 -1.02404271778 -0.601775378335 -0.476098431143 -2.22996300092 -0.704892819074 0.280298686354 -0.578791367091 2.2092043963 -1.01352246835 1.31011662217 -1.69908954858 0.124252854198 -0.733175325926 0.668804860671 -1.26123143342 -0.915586342552 0.923358260291 0.72517470481 -0.643027522121 -2.35813864368 0.843807189195 0.0692667449116 0.950169765999 -0.0712755105566 2.04675015879 1.50390612828 0.637352756676 -0.581214181607 -0.216881763445 0.323109391186 -0.128981022282 0.666878235768 1.40001080138 -0.282153809962 0.601681922694 0.346605451626 1.17149344399 -0.0950851815776 0.207694617963 -0.0192231040574 -1.21666167961 0.838619892076 -0.168896446274 0.912441298834 -0.903834327519 -0.366178323978 -1.41238361529 0.202132976953 -0.169833923582 -0.295487064392 -0.803674497839 -0.527042083189 -0.539444233344 0.577305745902 0.168794288833 -0.0514554214219 0.594094312664 0.609479499431 1.05918552186 -1.04147976522 -0.121662838076 0.970322826848 -1.05919773615 0.0805312847265 -0.411636612599 -0.0277705817919 2.14044771329 -0.890751470939 -0.238412414771 -0.584445395137 -0.178328565998 0.0346688764611 -0.799276305519 -0.996983488178 -1.31448825316 -0.587090323451 0.885934913135 1.08979833745 1.17323696837 -0.982047902412 0.700057330734 -1.33637548248 -0.794562222306 0.948647273408 -0.416178414205 0.681353387258 0.660450321695 -0.978579207446 1.14062436493 0.836504506955 0.510687525182 -0.46431623767 0.573928108162
4 0.462828904222 1.73827789027 0.517369112254 0.620420362031 -0.648397846151 0.367720619316 -0.20722194554 -1.03349288163 0.900177279081 0.913408602999 0.495589091822 -0.899677950913 -0.166044153546 1.06950964068 1.03865129406 0.287020462351 -0.676584663013 -0.804309817002 0.449850750836 0.179259732903 0.391481665409 -0.771461354349 0.368070078938 -0.573533040783 -0.117810290466 -1.0262742081 -0.357794457839 -2.12892446563 -0.822886640402 -0.198473131064 0.206579301486 0.841373179781 -0.367882316536 -1.68203032209 -0.310363914542 -0.206094206615 0.387299160843 1.05434869149 0.164541119301 2.1671056294 1.73581627107 0.016350276552 -1.5795760045 0.533352527291 0.753428675759 0.566570397562 0.999866513538 -0.756593822609 -0.122467108523 -0.280433802962 0.54849653843 -0.913876978051 -0.903140701537 -1.2503888346 1.01904061303 0.350749430062 0.730956921602 -0.520310787294 -0.952499060467 0.783310180593 -1.264239798 1.29131575213 0.0166265092087 1.19595481965 -0.24659035273 -0.510466151421 -0.212221409703 -0.549822796566 -0.691951757532 -0.473465810072 0.221623351704 -0.220084582685 1.12267428914 0.190755017245 0.271538227907 -0.893064875924 -0.767778207878 1.60562755849 -1.29137547648 -0.237563578247 1.09289539591 0.297467551289 -1.2629574934 -1.2551951334 0.431033703394 -0.303492731127 0.491489444621 0.876597509305 -1.54597290895 -0.148082368828 -1.65887123741 -0.437071844538 -1.06583054363 -0.937920146859 1.24246880811 -0.455082491555 1.17776511014 0.359372509744 -0.471166837085 -0.428290838164 -1.86170979087 -0.446927991805 1.01001307836 0.296189299227 -0.097432379993 0.610850578447 1.08427276013 0.2401455719 -0.702352012448 -1.1140487585 -0.0855554530711 1.2164541855 0.246854274934 -0.581911890988 -0.073619549016 0.641083705782 0.549188374633 0.891973998079 -0.184147462716 0.735044032221 0.226398766304 0.727557624187 0.95530138999 -0.774294128872 0.601243499817 -0.0681234942714 0.127478044181 0.300459743677
28 0.904156295963 -0.273794269576 0.403559184396 -1.12157912703 -1.16141976994 0.158830927406 -0.796518516735 0.629856818281 0.429786375333 0.12526765774 -0.603718511623 0.947360367466 1.08908045716 0.883099806219 -0.276298996991 -0.291353751341 -0.40768157693 -0.563765309705 0.524932483935 -0.183179743886 -0.0151453367396 2.36541136721 -0.303005492163 1.55260268977 -0.344916049813 -0.885193537049 0.497573746439 0.739081460513 -1.05157730093 -1.03032353753 1.33088796041 0.451119964563 0.0925884577905 0.535167957766 0.0948085291334 -0.41328289741 -0.245428107909 -0.698316078207 -0.770688864135 -0.216206111704 -0.812896235971 0.61697507547 0.839963225235 -0.63004384419 0.146975018935 -0.414068724637 -0.884305727244 0.603598050336 -1.77753147789 -0.338176814292 -0.241350035601 0.104392562973 0.853382937663 -0.502927430421 -0.556760751178 0.547795991529 -0.328927141301 0.790477860603 0.857397700528 1.08160110351 0.403714066607 -0.641001010522 -0.961656928211 -2.00808545669 -0.252494131151 -0.592558429937 -0.0655342989649 0.116037995133 0.978341262549 1.51421709594 0.28447614498 0.802333465326 -0.291600540258 1.51778871169 -0.366109323973 -0.504788455431 -0.00630464247753 -0.993484416542 1.65009307066 -0.857699376362 -1.49577975975 -1.41772920546 0.978128912084 -0.267926827526 0.268528593635 -1.43282757977 -0.514443432021 -0.443937156931 0.328056374078 -1.07885600445 1.06206197488 0.342664816631 1.06321715699 0.126448892038 0.0344574083276 0.903225895222 0.691512500814 -1.14324924207 -0.123969311502 0.0723839760684 0.259492382995 0.607673444951 0.107317523909 0.128727078306 -0.117421132852 -0.148736957743 0.525140407368 -1.4514377205 0.40655768724 -1.06267123736 1.3125928588 0.440681161037 0.502428555421 0.0724960103945 0.534307176866 0.770812079234 -1.16688293186 -1.18460733356 0.684584159202 0.71642121253 0.343440522694 0.350349008425 -0.575116814325 0.709730644398 1.35568348472 -0.903444582378 0.205146495049 -0.90520141542
19 -0.596831379706 -0.375927078238 -0.0418938296326 0.322205303634 -0.863775406284 0.494504908933 -0.0577152933623 -0.170059046421 0.111473072376 -0.186595023829 -0.81930304839 -0.882890782396 -0.0907570502396 -0.271842345098 -1.74851030876 0.878289071389 -0.0986945412714 -0.373047824179 0.1209261367 0.0222026084885 -0.245039048169 -0.07961503534 0.0244647820394 -0.259690540123 0.828925386734 -0.0430279345721 0.322604403308 -1.40413408212 -1.05413120415 0.697934719177 0.0134448835603 0.862239460118 -0.458439049043 -1.89177737618 1.02541204096 0.149821024514 0.0549133201564 0.533062183356 1.16014958988 0.802631438685 0.433059368416 0.208360600266 -0.371552915542 1.0563713469 0.151413454301 -0.165835960634 -0.296745061709 0.67266449425 0.419706755009 0.498194515883 -0.505242405686 -1.48875348633 0.832641467757 1.72681425014 0.794788736157 0.566444550874 -0.790038220502 0.168276928998 0.861302767747 -0.848892727224 -0.345708157074 0.537383596532 -0.566152556114 -1.49765819177 -0.555423360327 -0.0506959551967 -1.2413241023 0.138651480179 0.970154631645 0.648913082223 0.139706738358 -0.128064066155 -1.33201118315 0.456277880993 1.20077611974 0.200373721773 -0.933661390005 0.284667897762 -0.0176597312884 0.433564622544 1.70717099071 -0.362427695901 -0.432489207409 -0.347719450376 0.25797505276 -0.835912806175 0.21130052666 0.361067302873 -1.02959485008 0.710141384545 0.70191767464 0.0774940235491 -1.01039652848 -1.04138792009 0.665500740893 0.56879186357 -0.257067908622 0.151328506747 -0.383499200417 0.958356591015 -0.778902751658 -0.39439590639 0.660183950447 -0.290213665735 0.821816135028 1.08592684468 0.328066045305 -0.973402594819 1.42939019679 -0.333499739998 0.442060427405 0.206807238638 -0.728386084018 0.446768461367 -0.45167649537 -0.156159173063 0.268134041395 -0.626618736167 0.896780118189 0.101447262996 0.986285342264 -0.125257561634 0.410712953861 -1.41588462562 0.116307656606 -0.0665832923366 -1.16503100681 -0.560799878023
10 1.36576033757 2.20764882939 0.120235387393 0.711377539946 0.436951325185 1.34218245852 -0.655075083289 -1.5580535139 0.928834111849 -0.11262313153 0.46293502542 -1.29993846169 -1.33287428732 1.09046705247 0.826147853875 -0.0163479707629 -0.467663689607 -0.534946736968 0.213799259019 0.408797967578 -0.695660559836 -1.43752232302 0.380180520766 -0.677537784311 -0.387825672362 0.386169049804 -0.773788640664 -0.00243740806193 -0.0732427910097 0.613792799615 0.647894892708 0.669039032847 -0.0650275919989 -1.28708918648 -0.687162486959 0.176278834324 0.49533301057 1.18970723696 -0.381388242278 1.33770398767 1.60921764213 0.669426028704 -1.58701456166 -0.142042069542 0.0807650524902 0.260223758799 -0.100898441271 -0.661646881318 0.467197188002 0.711056786851 0.102588881953 -0.687510201226 -0.466864016258 -0.876533660822 0.969453565277 1.12028609881 -0.0779508318519 0.0440892831228 -1.32935327476 0.271201353864 -0.901584899279 0.55319652768 1.11407496031 -0.0691628954049 0.10895884384 -1.22048296275 -0.240881200859 -0.938783191459 -0.289721614271 0.194356975775 1.00960177861 0.585415194972 1.54432271683 0.496431022404 0.384171932876 -1.03557635537 -1.06839472745 0.708088246864 -2.00204675498 0.864176597173 1.5136246281 0.670168168749 -0.549133051943 -1.56820996734 -0.589203596747 0.107182200361 0.357372674569 1.00036055477 -1.12015059677 0.21446708797 -1.39714381737 0.178190372325 -0.967854091579 -1.28748518979 0.262796618831 0.575937485801 0.359876417953 1.17175955041 0.40759571521 -0.0331025680219 -0.94734393032 -0.233409068983 0.38908088874 0.0381578314802 1.10297062357 0.633696017748 1.99517286277 0.483231611571 -0.600236596036 0.24572938001 -0.257806997106 0.412755207787 -0.205838101505 -0.340567041782 0.622394893582 0.496125627668 0.418753558957 1.72578873733 -0.289119061661 0.698277858789 0.119062464328 0.237710614107 1.03184242578 -1.44323823434 -0.277639932837 -0.614276567847 -0.618607283965 0.311464074721
16 1.61421690036 1.70767982592 0.283370963097 -0.119491605421 0.484904290553 0.768182980176 -0.134318139334 -1.59381856343 1.60366168959 0.346131337459 1.26855686133 -0.552493299063 -0.6892326229 0.638343849682 1.20198681915 -0.173974079164 -0.247332569615 -0.706573791321 0.4550028557 0.853773591671 -0.759098087266 -0.974589537409 0.551625203928 -0.437649291277 -0.541347676343 0.277990358621 -0.272637241346 -0.680196486629 0.0272985428525 0.234064959246 0.259091152849 1.21328025238 -0.134260012069 -0.775760093054 -1.14735127794 -0.542087349628 0.408627688399 0.456196701157 -0.464515129073 1.21487615048 0.930501157656 0.546472609755 -1.52790211116 -0.329445254304 0.504700270969 0.913538020641 -0.231283449474 -1.08370434865 -0.0371722963907 0.181403031076 0.350367935116 -0.125685592712 -0.834232189435 -1.52291758412 0.803958855178 0.256593532747 1.21911665375 -0.399708931973 -0.928081995451 0.237006105149 -1.73142157106 0.527400955839 0.380402990833 0.635307142311 0.0376576601242 -0.373919098597 -0.361184007423 -0.693095007268 -0.945375808127 0.632384933955 0.266179102753 0.46539879182 1.11240190465 0.656484484373 0.0850410350082 -0.355670476843 -0.916118998195 0.852247610476 -1.20640499229 0.445339199738 0.794793811419 0.54959263011 -0.664092634927 -1.49547968383 -0.669991463135 0.527283869162 0.425553905265 0.92031642059 -1.2978108506 0.0627039884986 -0.8778230879 -0.152991929946 -0.702010112295 -1.12008206831 0.107643674084 -0.121635615929 0.893658641456 0.533749310176 -0.421166567647 -0.414528099579 -0.600056851476 -0.480053868142 1.20105102902 0.327965603969 -0.202686409953 0.194379526683 1.38386966585 0.256221152815 -0.583346772366 -0.543737149635 -0.0665964815621 0.512901774017 0.64477341891 -1.04675518659 0.0608443879005 0.219152412859 0.508748510326 0.952052220008 -0.383305055198 0.850948908952 0.427262494142 0.329749044536 1.53266852649 -0.552182989397 0.383635509417 -0.776919026973 0.0922364613136 0.21562256984
26 1.08942752023 -0.437010331992 -0.892249292654 -0.91596898302 -0.993665659909 -0.409851112993 0.968125348928 -0.800402837627 -0.065233635015 0.827495384228 0.541920968351 0.842470370805 0.370889870404 -0.963032540115 -0.738974577932 0.203865107406 -0.381924397059 0.401294406106 1.00238883576 0.816286620462 0.178844123142 -0.28920877098 0.0342007107045 0.396669815938 -1.16119177127 0.226352040701 1.20951891311 0.977686535923 0.0222995396475 0.358070247356 0.597132690225 -0.281403845128 -0.178054074314 -0.171702310576 0.996775901164 0.257580627432 0.179497652989 -0.554213103935 0.0431409006972 -0.307606076995 -0.398108089719 -0.0116643536097 0.662047203687 0.280545051836 1.42460747066 0.969986004714 -0.401366297543 0.976190302221 -0.0618040340576 0.438323434084 -0.575980026368 -0.582769131847 -0.696489612635 1.96006078908 -0.292422537854 -0.28220420039 0.913447254205 0.791920947328 1.44542101091 -1.05503011638 -0.736467251872 0.323525467877 -1.34486579686 -1.08807368681 0.737589060239 0.420081812521 -0.47797219147 0.672825267435 -0.337323843682 1.13671111123 -0.766195688297 0.39565089167 -1.19001323127 -0.0715546660454 0.847832429293 0.313206781742 -0.892500439251 -0.176839632489 0.648330021659 -0.0100383292627 0.312186429333 -1.10713867896 0.0422639753594 0.47189069832 0.118724587946 -0.923816879471 -0.22479061527 0.420759085672 -0.89916260682 -0.0252016695234 1.3622905887 -0.0746726840099 -0.175548388122 -0.0103742315409 0.267573344422 -0.269505615846 -0.45463665717 -0.652222767307 -1.089115983 -0.0796778276431 1.00090133837 -1.18411814043 0.281218308449 -0.258449051628 -0.665331632221 -0.525309581959 -1.02602307313 -1.38693280152 0.504035924522 -1.36799280784 0.425705044014 -0.756369477926 -0.15205049469 0.118080460821 -1.58199594409 1.01790198806 -0.800151674997 -0.979627583856 0.159762424502 -0.0291208568795 0.293256370087 0.134447041752 0.214477996191 0.621466736207 0.831723711326 -1.31108503656 -0.316175258261 -0.396668088288
9 0.498903254465 -0.774109321249 0.190611460496 -0.858277688069 -0.675672695726 -0.289195129861 0.193415311816 0.604230955572 0.395745556288 -0.370840048049 -0.485909869995 1.25896247925 0.875743592311 0.678367210628 -1.06470090709 0.318992130083 -0.569034049498 -0.752131681081 0.261734817471 -0.29979479551 0.158300625149 1.77145788994 0.231583674283 0.549592380439 -0.387097497403 -0.961964168966 0.713675532 0.464520534145 -0.884650037386 -0.80153901541 0.426870614337 0.467752058983 0.281123556637 0.0459222164906 0.341271990465 0.0309363447698 0.372986603456 -0.302782562176 0.294279880997 -0.0689896443526 -0.656629340918 0.946639806297 0.232959761952 -0.394583033682 0.463968220274 0.386432809874 -1.14081186942 0.794536981944 -1.60030035682 0.499332975142 0.460867439996 -0.401678292061 0.825612840819 0.628462522772 0.358325074212 -0.109737758982 -0.997050197313 0.852758368134 1.33922130968 -0.0885708339782 0.28591682352 -0.173953649352 -0.839503950702 -2.56705997088 -0.0447072706198 -0.189203714422 -0.870380000401 0.163906721079 1.25318361307 1.21883301892 -0.369191275481 0.686049257723 -1.27136011933 1.49515859911 -0.623555780173 0.331565760643 -0.705102243297 -0.885565105352 1.14711932497 0.0134568230935 -0.558310749174 -0.872639580497 0.112573867785 -0.539946711437 0.323731274828 -1.23098239118 -0.0935866002187 0.267866340364 -0.106747438519 -0.810541452935 1.40741663171 0.337612625451 0.694648077967 -0.215300741307 0.447080014674 0.679716254858 -0.0846611123577 -1.20838242171 -0.457509377993 0.0174756462823 0.0650084902757 -0.698807422529 0.300072153513 -0.462958206247 0.187773241665 0.698930722928 -0.225779983316 -2.28127598914 1.20251010189 -0.822399449217 1.3451607516 0.0118589991563 0.0683977891578 -0.273678440732 0.300745023153 0.456745667027 -1.09694563557 -0.979003037104 1.35480452684 0.33556503385 0.268670741468 0.21750342679 -0.341860122045 0.358518064516 0.66041584656 -1.25860745258 0.38867842382 -1.19322417657
17 -0.731163848625 0.148097997373 0.505681875145 0.878813987336 -0.154301488674 0.718615304525 -0.0716001565665 0.0288860126706 -0.435524375681 -0.0994024436149 -0.734055383537 -1.09491847485 -0.210690388432 0.274539359693 -0.980424706843 0.963676336994 0.345202964715 -0.220852376116 -0.140575622843 -0.148392985991 0.00673447349392 -0.606003682637 0.20303495001 -0.849754332816 1.27767152329 -0.199401887306 -0.167918862808 -1.71606790961 -0.792655925137 0.347750839282 -0.496567017655 0.486532057809 -0.0104077148606 -1.97905004582 0.784057008219 0.228775705089 0.144523493901 0.982606296206 1.24125398922 0.973076511535 0.929533271827 -0.43254181138 -0.818064797154 1.34557313557 0.18294240912 -0.0565448367438 0.204334100768 0.340902507395 0.962572042553 0.607723933952 -0.573099496959 -1.07516459647 0.6942508049 1.35437427604 0.848379028753 0.818940892405 -1.2511883839 -0.102731968222 -0.159209654536 -0.336262721723 -0.269177627437 1.00902886464 -0.384159540806 -0.526660308888 -0.720057704434 -0.631258703477 -0.917394696772 -0.69247273792 1.06504596149 -0.7228331027 0.397454677149 -0.432694309944 -0.489420765876 -0.0559740688354 1.32191287464 -0.113283394922 -0.578372371818 0.618503369294 -1.10052007173 0.193754080392 1.62399954459 0.709411940336 -0.330621601059 -0.143739135354 0.125025174769 -0.428950705964 0.373752879602 0.127101865501 -1.00657651431 0.763703532318 -0.173141457993 -0.578510127556 -0.835578171272 -0.676701207966 0.63672382237 0.346778149654 -0.32801580249 0.497752923964 -0.148461337379 0.727630022739 -1.33493566552 0.00727770075288 0.322027940208 0.264367884033 1.29721469913 0.935771452351 1.10416434743 0.0747492910537 1.1282286884 0.534644849143 0.115631691754 0.524557912044 -0.865812854208 0.211820775237 0.15070479396 -0.657035956439 1.28886632329 0.042636560721 0.228522529117 -0.121231044101 0.411751106576 -0.310497241248 0.599631360568 -1.63650388682 -0.436950272985 0.336509620563 -1.31477127809 -0.417176163419
18 0.0449750810316 -0.878287377712 -1.24496615999 -0.577182252891 -0.549805895676 -0.728420951911 -0.162759276493 -0.0358756358729 1.12360813601 -0.670002897434 0.367778555742 0.371640832835 -0.466975468064 -1.03644569427 -1.34794977032 -0.374461397964 -0.682506184972 0.180682679191 0.191693128672 0.821686305138 -0.804811017899 0.102697056679 -0.179846744426 0.29269140239 -0.754462239329 0.679774303754 0.820965930893 0.00659333470626 0.0881326358822 1.04917974552 -0.132587562044 0.82374628931 -0.694172605901 0.359856101476 0.0958431283973 -0.507308209201 0.0715257010527 -0.167054889703 0.242879736923 -0.316263995346 -0.745273998466 0.976906580334 -0.0342452923092 -0.356285338617 -0.470969472902 0.166177619913 -0.611603022308 0.440264287003 -0.366214420949 -0.255231896327 0.731819045307 -0.544665916631 0.374439302173 0.190968726686 0.347541756651 -1.03544914199 1.03343283229 -0.219358841735 1.02597574729 -1.22474008871 -0.305194855516 -0.557342151216 0.236659722858 -1.00398529207 0.0624053154667 1.63195071453 -0.738409221889 0.921589037695 -0.234335731512 1.62586184757 -0.576198940652 0.594195205776 -1.66196036728 0.752224412822 -0.640227730538 1.47523522114 -0.363643015275 -0.593908479186 1.20134902009 0.642655769471 0.982251602996 -0.770538473036 -0.372966882787 -0.683886667603 -0.241802404308 0.33615615234 -0.440095342161 0.599015789553 -0.318250460663 0.298101964457 1.14679374613 1.27613168887 -0.343765603322 -0.872736106365 -0.0046632891507 0.0146663267733 -0.32643984988 0.24381455943 -0.164752900186 0.399223533443 1.37717803575 -0.664209564856 0.797891815677 -0.742724433531 -0.586115841522 0.340423491961 -1.58594343944 -0.882813803427 0.74760998687 -0.482188420143 0.125841210713 -0.716872770293 0.450392636536 -0.23881328893 -0.808069868552 0.431937335418 -1.040519203 -1.00908597159 1.51166598987 0.136068060281 1.00156841649 -0.398774566626 0.379710833627 0.0703400309793 0.212998343214 -0.742048182866 0.413234915554 0.0424059809407
21 -0.718718085942 0.165070270198 0.486290665501 0.83757237621 -0.1527240269 0.79677737117 -0.0469429641279 0.0143399356574 -0.431962925187 -0.0779490714473 -0.76466863892 -1.05316519273 -0.209158553975 0.274743840542 -0.981051439964 0.952548058905 0.317566741499 -0.15302355863 -0.105721933978 -0.118965744417 -0.0180547392296 -0.626697146682 0.17630437384 -0.793682139275 1.33170973325 -0.157338630737 -0.217539626083 -1.63863968222 -0.798189680605 0.371808270254 -0.4166144913 0.45954974707 0.0413053237812 -1.94219328796 0.789516685401 0.199875150945 0.141202821405 0.934251824193 1.15241198933 0.860067138599 0.894128774332 -0.456217413714 -0.74613153345 1.33863943684 0.227358779284 -0.124562745922 0.200426280988 0.36390114805 1.06177182552 0.573700554794 -0.614602880721 -1.07662287909 0.811519976283 1.37688913342 0.768611148567 0.845060636491 -1.30112376363 -0.0275213229315 -0.135574947111 -0.292839116928 -0.223746171832 0.97981971115 -0.412999932423 -0.592947582488 -0.660473096938 -0.662402534755 -0.919939606567 -0.669226103522 1.08891059962 -0.719197421808 0.356737624041 -0.411562193626 -0.514727295347 -0.0380058128623 1.33975675227 -0.136824109735 -0.534843466508 0.598575497375 -1.08887537744 0.13941202101 1.6239526297 0.703608219552 -0.331207562334 -0.125984610026 0.0694528095049 -0.475612112376 0.321102647533 0.151419030221 -0.968963057776 0.8093864815 -0.12267947125 -0.568067851355 -0.786260171097 -0.658852179138 0.607072255794 0.353405838891 -0.320231031836 0.479596601328 -0.124606711877 0.663744774671 -1.28660188111 0.102730607109 0.24565173957 0.236089116514 1.34716114492 0.960054516214 1.09839410578 0.0552778744562 1.10003265308 0.570228172981 0.0776328770009 0.495014322358 -0.843395933128 0.254206194213 0.109599193937 -0.666897081183 1.23254694428 -0.0556081722385 0.299555620071 -0.155818750322 0.439262145257 -0.302093855596 0.565472623134 -1.64196958975 -0.407613060944 0.284012403354 -1.36433812772 -0.388612768197
14 0.057874048868 -0.781344146309 -1.16823428265 -0.496410780418 -0.656313598501 -0.702995715241 -0.273880405406 0.00581311416513 1.10931378803 -0.641782015922 0.265874180469 0.248814373708 -0.38740438315 -0.914847290612 -1.34795747684 -0.47617104806 -0.611605277168 0.0890025953325 0.269540537746 0.823705770198 -0.756072349799 0.221783518632 -0.277439340166 0.350302754518 -0.676156286747 0.592576991136 0.852284407616 -0.0689163460706 0.0428150751692 0.974934888874 0.0375912925284 0.818587565404 -0.7536481403 0.200108568562 0.173212366928 -0.407822589902 0.0933225788987 -0.151816493413 0.234947765377 -0.160133044569 -0.748645865171 1.00770462682 -0.0557312058299 -0.364646241709 -0.525724204596 0.14393039228 -0.578466320844 0.54461184907 -0.442127641087 -0.244145006447 0.682916077219 -0.663451532579 0.375508656779 0.130858847028 0.43226305612 -0.96940030377 1.08187929037 -0.257515470219 0.938606297893 -1.12937271526 -0.392416163594 -0.623549034745 0.216420527024 -1.05798494605 0.0143439717459 1.51669093502 -0.752710558089 0.817047228387 -0.157409547745 1.67767830329 -0.482130595184 0.61856437446 -1.57340064702 0.794567176566 -0.609445930574 1.31559578871 -0.357824787009 -0.49243596039 1.15644348292 0.606865022218 0.982987312666 -0.834662391694 -0.346875758862 -0.692452858327 -0.108966855807 0.245579301034 -0.409335185278 0.649553574181 -0.327439410389 0.199366328652 1.07789566151 1.27180228785 -0.391055113878 -0.94389619685 0.0127463235918 0.139129465803 -0.214072806034 0.179804097122 -0.164218504636 0.446390858722 1.31636309556 -0.601701002041 0.803592898223 -0.652144295603 -0.56433529426 0.288905667874 -1.42855939325 -0.855771557435 0.727745376012 -0.531863173421 0.184886519961 -0.620331026906 0.388544148964 -0.227478113263 -0.693281234586 0.487926353901 -1.02992737779 -0.953845371804 1.45183044191 0.237263671238 1.02654179496 -0.372210707697 0.312384585019 -0.0660591748796 0.299845354554 -0.737047957098 0.410897869217 -0.0329483770029
12 -0.796010039778 0.165998858416 0.750629984786 1.74018747635 -0.0982812981607 -0.606705140591 -0.180686493075 0.578260257787 -0.691244381044 -0.252498700352 -1.03001056849 -0.970726281605 -0.20157735235 0.928926589945 0.336530797046 0.316145448793 0.0847756093616 -0.908504600876 -0.133793706813 -0.389224895005 0.91042992135 0.397915559835 -0.0437614528914 -1.21488681212 0.0819518537605 -1.26261262306 0.203700922204 -1.03543221571 -0.662174241008 -0.140854670361 -0.0837704071397 -0.685673537143 -0.125326247267 -1.35092199379 0.332773911424 1.04262648168 0.847722831807 1.08520301722 0.777914336719 1.93095249863 1.33864690812 0.164606975767 -0.453221567149 -0.0388162135304 -0.0133629551403 0.304928036346 0.404955669291 0.359891214176 -0.399371474722 0.52742733347 -0.137157127475 -0.8366932165 -0.320212008431 0.162745996861 0.969461683085 0.626312852431 -1.112189856 -0.373322376616 -0.912095470059 0.375898433699 0.143166406464 0.932319315803 0.354548050888 -0.74851092181 -0.577987782201 -0.753610104464 -0.305132722425 -0.770487717856 0.564702853873 -0.62566975379 1.07985726536 0.231892875054 0.294590678195 -0.0396094109795 0.0307491377445 -0.806090267636 -0.706136464631 0.885475189399 -1.19096051601 0.779601661316 0.898772669475 -0.159649033035 -0.664023373297 -0.405078793587 1.16994128874 -0.491611870594 0.867581517256 0.476624480335 -0.275462735183 -0.223498378621 -0.991607838026 -0.0320520034621 -0.882184955215 -0.350132827019 0.260483035919 0.538817501698 0.310850169458 -0.438414547652 -0.143869699145 0.860032579387 -1.66432212592 -0.63055033919 -0.0547628932265 0.228388130648 0.0101566664267 0.249128869006 0.598440367124 -0.25688552305 0.426122830467 -0.418824472269 0.196560690871 0.914260611944 -1.02201211748 0.396917512957 1.13026756122 0.186768658533 0.626238526555 1.37569557399 -0.154728908299 -0.02096740426 -0.102977783463 -0.158361014808 -0.717958452921 -1.4141988912 -0.314441161468 0.546068973071 -0.0900990926816 -0.46402430953
20 0.0292060248779 -0.776205054946 -1.1760923023 -0.597358204097 -0.611866125307 -0.682614491327 -0.214833605521 -0.0598789611732 1.05519568442 -0.626075547586 0.333701972917 0.362210558638 -0.381322642314 -0.961183208484 -1.30854662076 -0.412468366731 -0.665203717692 0.194051589981 0.198221425685 0.788550522742 -0.775685048192 0.134374297819 -0.222780949901 0.32742172513 -0.709027116861 0.652447920946 0.80896646778 0.029225268922 0.0932270823383 0.972870501966 -0.0489705614332 0.778641027599 -0.648429078252 0.36972389421 0.137002276397 -0.47071797115 0.0716491624848 -0.183041650682 0.24223929449 -0.321054141307 -0.73064395727 0.912600103583 -0.0224727295823 -0.270949453461 -0.41868637801 0.115204730373 -0.548925779479 0.466487416626 -0.376943525167 -0.307589271592 0.727883191253 -0.535910468923 0.383096370693 0.144922350897 0.3205820228 -0.979929842562 1.02312740176 -0.203858741104 0.988017341466 -1.12706614605 -0.286041702113 -0.588998943613 0.19047094152 -0.959022300004 0.0797544620693 1.52142608946 -0.69888313027 0.893746088523 -0.206886400904 1.55730865146 -0.523868276207 0.520162402918 -1.54342548515 0.73086125516 -0.601596378415 1.35790287657 -0.294209674641 -0.569316502071 1.16619895267 0.568070790266 0.897369816054 -0.759239467657 -0.328622771525 -0.603413933466 -0.197928577959 0.268811080285 -0.474322128127 0.59433047428 -0.33880134076 0.273048432864 1.10312348843 1.23244403691 -0.299078710157 -0.802218717009 0.0273875239627 0.0370529080196 -0.296187346104 0.246727047419 -0.099153376463 0.32592132069 1.34693312288 -0.565588518071 0.705227204862 -0.683775795502 -0.499862019858 0.310177291495 -1.50139973273 -0.827536668023 0.654687381288 -0.425865996133 0.119520796766 -0.691111856022 0.441037113715 -0.257345649181 -0.797367809431 0.5035261632 -1.07169367659 -1.02899071405 1.46482598612 0.176466889038 0.933326901266 -0.35757212012 0.323074972741 0.0475695290921 0.246915570831 -0.747647733052 0.411943146642 0.0553413807015
22 -0.0370107318294 -0.805573000747 -1.18685507714 -0.546833700454 -0.672946513567 -0.628179733437 -0.292955233449 0.0903482576096 0.994294507251 -0.654937428669 0.276776393687 0.227288175605 -0.418900736784 -0.981877641824 -1.48301551709 -0.383048353977 -0.624674227758 0.145381643574 0.171002805269 0.772907132438 -0.767696463859 0.193078304281 -0.269829104837 0.351649442932 -0.683158651135 0.660906002755 0.841211777268 -0.0829773191442 0.0455336899906 0.945561153551 -0.126738164661 0.849120373477 -0.714086783829 0.19847931948 0.202395482917 -0.424554036345 0.0380647252571 -0.0806047390129 0.378490714054 -0.221098827828 -0.754369922946 0.968583728518 -0.0712934988955 -0.195025874016 -0.546429594293 0.0897298408549 -0.514200258026 0.572253221769 -0.412301520464 -0.217512813463 0.71664725741 -0.621020428214 0.37280135823 0.271737293662 0.425322752057 -1.00584731071 0.99850169161 -0.255396978632 0.971148856631 -1.19343561795 -0.276385465153 -0.553802702575 0.225441484317 -0.957699930446 -0.0354427323963 1.53570505779 -0.778126967487 0.853916159895 -0.0799833286087 1.51490082422 -0.507511787077 0.551690818673 -1.6526556093 0.699580586059 -0.580347286913 1.40288197227 -0.309093603418 -0.564444670186 1.15107241254 0.57796127064 1.03161060201 -0.775743159829 -0.279571831945 -0.657771462615 -0.15390285392 0.276641443429 -0.481250771025 0.541659177466 -0.372389503977 0.186311285166 1.11185557691 1.25119040267 -0.3373962705 -0.866731960312 0.0976039922544 0.139409157777 -0.384278029398 0.283493464861 -0.121011418975 0.485889864298 1.30799522687 -0.560261825424 0.788677268203 -0.689457664427 -0.390331794165 0.358217061585 -1.41739636605 -0.809263582878 0.818413151863 -0.406220887817 0.161667838381 -0.642183197318 0.37029874789 -0.257038681888 -0.736186688849 0.465263001005 -0.957863404022 -0.99231771614 1.47544820219 0.233343404467 0.955993581931 -0.385681415143 0.338254758712 -0.0219029944578 0.122378653488 -0.666229435332 0.368573753616 -0.0124557192983
15 -0.205622661036 -0.758627249033 -1.13179887727 -0.455746697026 -0.669797244303 -0.644320076856 -0.432813664732 0.0440212889368 1.04389679394 -0.724492574309 0.195228610112 0.101438600536 -0.408905033082 -1.00009842663 -1.45297857935 -0.557108678212 -0.536933953825 0.128514988761 0.155536789657 0.767077349367 -0.80219287883 0.262902889331 -0.349228259426 0.377209832744 -0.554648267144 0.66076818797 0.769841726929 -0.147357663164 0.0590059406421 1.01938862248 0.00238614669713 0.836618577357 -0.800226887146 0.197531180824 0.196077211446 -0.385093225642 -0.00782084577016 -0.133354665358 0.296926762668 -0.156348089073 -0.762799936947 0.946586325975 -0.0198757249345 -0.295785063025 -0.660497166521 -0.0640927934953 -0.488610218459 0.51477729592 -0.370197110241 -0.3883698419 0.715469108599 -0.640033670708 0.481569435524 0.0720077090068 0.408427856794 -0.955382883946 1.09984768985 -0.339283665584 0.900329602821 -1.09568370606 -0.259360824475 -0.729070587627 0.299881452497 -0.934749975737 -0.0708894746555 1.58204531484 -0.709619198314 0.929169317077 -0.104788992184 1.6577335864 -0.375905782284 0.480217193063 -1.53854986606 0.774190724827 -0.595567325132 1.30179196593 -0.196877437065 -0.544291599379 1.23712045784 0.613186633699 0.989516412826 -0.808636190208 -0.314664574074 -0.578126534568 -0.0634840182981 0.328120205711 -0.402933041559 0.58599773375 -0.256999246515 0.307133494503 1.0453241392 1.35700692807 -0.456461614217 -0.882845103814 -0.0695979169792 0.174137819063 -0.231766035526 0.287768394895 0.0276101814475 0.524170746161 1.31278459214 -0.395217634047 0.699912774919 -0.635787250363 -0.477289364358 0.313776503516 -1.42452899599 -0.738767362227 0.643127039407 -0.370720314995 0.0975403567288 -0.552739264136 0.378586288895 -0.166621008923 -0.696732529841 0.462803239639 -1.06930811407 -0.962029133905 1.47805947691 0.241525648867 1.03721908016 -0.410857305071 0.218045747485 -0.171134315114 0.235997806555 -0.513253586469 0.415732788146 0.0504558684784
11 -0.43309787194 0.910402441999 -0.156101380057 1.31184429876 -0.637595695749 0.273950136856 -0.18933422317 -0.170873213776 -0.50651261576 0.148088737461 -0.698321516913 -1.05970464515 -0.728183783029 0.671680891651 -0.139452555773 0.588027212998 -0.684705397002 -0.0813431652492 0.132916595371 -0.177819769521 0.540825376879 -0.777268330375 -0.133287038891 -0.817717641808 0.00536493870251 -0.64686704933 -0.161267291904 -0.974804742823 -0.677658249236 0.498097365357 0.168836119389 -0.309836943317 -0.133656316806 -1.51953864099 0.745681910256 0.472595923937 0.561346444271 1.31431999906 0.589120854531 1.33789654595 1.71002453109 -0.00800350561772 -0.676852440338 0.867394089208 0.303762750504 -0.216493107111 0.772613521248 0.457803604818 0.587044728301 0.272504753024 0.144781219792 -1.42858791021 -0.0233279345613 0.537507950421 0.749866708568 0.660868036849 -0.996095746173 0.198391238689 -0.490102743343 0.0567194133686 0.153883897099 1.05405285352 0.346190236989 -0.332387755784 0.0242937868455 -0.774534533916 -0.238917472873 -0.275049202188 0.271571026752 -0.818685367107 0.484508252139 -0.0340953236431 0.083113755865 -0.239280567933 0.427692166388 -0.669635604978 -0.717643276253 1.00589551438 -1.3903607656 0.306700673294 1.91348795466 -0.0923280900919 -1.02137687455 -0.625449792133 0.537806118287 -0.796095925624 0.0772701277067 0.710476741886 -0.903358295907 0.252470735747 -1.02901291226 0.0977678194388 -0.970571555773 -0.67534125165 1.00360171585 0.15318754525 -0.0537273301275 0.502932089523 0.251374952126 0.250527255016 -1.27889423065 -0.265781263421 -0.144879906263 -0.481779488523 0.933617397843 0.767610412734 0.357833175822 -0.0227256637325 0.0522683106047 -0.174477436244 -0.179746854075 0.422128112588 -0.761849866206 0.390218825787 -0.016278046317 0.833255953742 0.120282623334 0.669283933485 0.499164237228 -0.0332105835135 -0.000795942915034 0.185486292222 -0.10479569804 -1.4073473892 -0.385744270728 0.0383880996954 -0.670254825361 0.315751977643
<unk> -0.000814302838757 0.00351624204957 0.0014909382825 3.0373501598e-05 0.00303711887951 -0.0021906636082 0.00331771824718 0.00086841584241 0.00104369974647 -5.87540185993e-05 0.000221545310802 0.00317509810185 0.00294376267937 -0.00135970681509 -0.00255663477689 -0.00386712037971 0.00230960097497 0.000602822505184 -0.00141854002242 -0.0021346779186 0.00292692257487 0.00320117375426 -0.000918253050242 -4.43333368274e-05 0.0033618317279 -0.00364574524635 -0.000125390978656 0.00248833831728 -0.00201214778977 0.00178069187723 -0.000914456833981 -0.00220562560934 0.00279856155169 -0.00092166556967 -0.00303853073351 -0.000806350275597 -0.000247631123242 0.00270571331965 0.00206050286225 0.00325163454209 -0.00331860453695 -0.00177959226967 -0.00272865371818 -0.00358703023749 0.00217014337327 0.0012449413284 -0.00176084453322 0.00214420904694 -0.000651771873482 0.00353523437102 -0.00321536750125 0.00327160993733 0.00343511072744 -0.00176125026796 -0.00336236712856 -0.00200177940749 -0.000159280363718 -0.00356161327566 0.00158239644628 0.00100669861045 -0.00191618455677 -0.00350771587425 8.75915511144e-05 0.00274358625666 -0.00218604267611 -0.00191498456796 0.000464386128499 -0.00139848043998 0.00276596326156 -5.25943228282e-05 -0.0017390851858 0.00307384760618 -0.00345523798665 -0.00382861958225 0.00268036055623 8.87304274717e-05 0.0018853505492 0.0034923734477 -0.00122420574569 0.00311182295691 0.00388856812332 -0.00175176597522 -0.000504511835523 -0.000459109204806 0.000588922493107 -0.000627260503874 0.000647217204254 -0.00278772211564 0.000520221659391 0.00334852354023 -0.00357242839508 0.00249978335544 0.000396655915185 -0.00181084461888 0.00305409848523 0.00178651352243 0.00345159243649 0.00128705606728 -0.00251339102785 -0.00282454770308 0.000736497977849 0.00383579307807 0.00132659875213 -0.00113126951443 0.00322925708589 0.00305816227155 -0.00134614810139 -0.00337707827405 0.00180443133008 0.00177672530349 0.00275787145011 0.0010976673289 -0.000353604018943 0.00267825015161 -0.00146036596043 0.000885926953027 0.0011663290529 0.00111607803639 0.00355167564602 0.00252373841324 -0.00367089025393 -0.00213950692201 -0.0014617806233 -0.00304565115282 0.000254277137811 -0.0032203055153 -0.0019669468144 0.00199256835545
